svm_type c_svc
kernel_type rbf
gamma 0.0011111111111111111
nr_class 3
total_sv 45
rho 0.0072737038135528564 0.03635600209236145 0.038183659315109253
label 0 1 2
nr_sv 15 15 15
SV
1 1 1:0.394225 2:0.394225 3:0.31635857 4:0.23721777 5:0.24772699 6:0.072177373 7:0.394225 8:0.394225 9:0.394225 10:0.024936015 11:0.033245463 12:0.56920552 13:0.56920552 14:0.56920552 15:0.14755388 16:0.060476389 17:0.012840195 18:0.026337516 19:0.093813561 20:0.065860204 21:0.15787917 22:0.5379498 23:0.5379498 24:0.50478172 25:0.22961813 26:0.20452397 27:0.18383838 28:0.043898616 29:0.028094856 30:0.025170954 31:0.40540299 32:0.58333808 33:0.58333808 34:0.36055237 35:0.12462819 36:0.07875061 37:0.26008525 38:0.24447958 39:0.38496944 40:0.38496944 41:0.38496944 42:0.37465221 43:0.38496944 44:0.21881627 45:0.30254683 46:0.077789135 47:0.065061592 48:0.17501988 49:0.47970164 50:0.47970164 51:0.47970164 52:0.47970164 53:0.18685663 54:0.06094053 55:0.37938565 56:0.37938565 57:0.37938565 58:0.37938565 59:0.37938565 60:0.15985359 61:0.23476067 62:0.23607907 63:0.37938565 64:0.41924202 65:0.41924202 66:0.41924202 67:0.41924202 68:0.41924202 69:0.21278799 70:0.22056024 71:0.082275391 72:0.14312898 73:0.19227064 74:0.21428451 75:0.37482294 76:0.37482294 77:0.37482294 78:0.37482294 79:0.37482294 80:0.33779103 81:0.31709632 82:0.24068482 83:0.3821466 84:0.3821466 85:0.3821466 86:0.3821466 87:0.3821466 88:0.29396808 89:0.23389968 90:0.26601598 91:0.19360135 92:0.14672603 93:0.17038101 94:0.31445852 95:0.40403551 96:0.40403551 97:0.40403551 98:0.40403551 99:0.40012172 100:0.22087166 101:0.090885624 102:0.082374938 103:0.13487116 104:0.42848095 105:0.42848095 106:0.42848095 107:0.42848095 108:0.42848095 109:0.39104664 110:0.39104664 111:0.39104664 112:0.21252264 113:0.15158373 114:0.11979802 115:0.39104664 116:0.39104664 117:0.39104664 118:0.3764945 119:0.3764945 120:0.3764945 121:0.3764945 122:0.3764945 123:0.3764945 124:0.27291435 125:0.21610895 126:0.16830312 127:0.1683155 128:0.25202262 129:0.46645269 130:0.46645269 131:0.46645269 132:0.31736434 133:0.32751623 134:0.19180514 135:0.10317016 136:0.10873774 137:0.26031294 138:0.5282135 139:0.5282135 140:0.5282135 141:0.24798004 142:0.13196684 143:0.03346971 144:0.057923984 145:0.39101753 146:0.39101753 147:0.39101753 148:0.073488712 149:0.13117284 150:0.24499969 151:0.39101753 152:0.39101753 153:0.39101753 154:0.37027714 155:0.37027714 156:0.37027714 157:0.37027714 158:0.37027714 159:0.34634265 160:0.18365033 161:0.23456241 162:0.32522905 163:0.34505537 164:0.34505537 165:0.34505537 166:0.34505537 167:0.34505537 168:0.21793163 169:0.34505537 170:0.34505537 171:0.34505537 172:0.33333331 173:0.33333331 174:0.33333331 175:0.33333331 176:0.33333331 177:0.33333331 178:0.33333331 179:0.33333331 180:0.33333331 181:0.1759017 182:0.31823856 183:0.43648908 184:0.43648908 185:0.43648908 186:0.43648908 187:0.2756831 188:0.096826203 189:0.14253247 190:0.025978107 191:0.02423062 192:0.38892752 193:0.58889925 194:0.58889925 195:0.24153623 196:0.30223021 197:0.059058428 198:0.02641725 199:0.032613326 200:0.04588284 201:0.11463513 202:0.6254335 203:0.6254335 204:0.44505253 205:0.024133174 206:0.02931056 207:0.042922921 208:0.11087783 209:0.046830777 210:0.043577131 211:0.31779543 212:0.5825814 213:0.5825814 214:0.41223198 215:0.15452363 216:0.10002615 217:0.25599399 218:0.3291074 219:0.49258092 220:0.49258092 221:0.49258092 222:0.12355728 223:0.13271241 224:0.19978158 225:0.15954921 226:0.1158759 227:0.10715622 228:0.10394359 229:0.22797914 230:0.59430963 231:0.59430963 232:0.42048445 233:0.16354859 234:0.048460342 235:0.33333331 236:0.33333331 237:0.33333331 238:0.33333331 239:0.33333331 240:0.33333331 241:0.33333331 242:0.33333331 243:0.33333331 244:0.18587181 245:0.41245088 246:0.41245088 247:0.41245088 248:0.41245088 249:0.41245088 250:0.25837952 251:0.1714296 252:0.13683902 253:0.2439951 254:0.18922457 255:0.31449088 256:0.37801453 257:0.37801453 258:0.37801453 259:0.37801453 260:0.37801453 261:0.30212742 262:0.31854916 263:0.33513549 264:0.33513549 265:0.33513549 266:0.33513549 267:0.33513549 268:0.33513549 269:0.33513549 270:0.33513549 271:0.36323333 272:0.36323333 273:0.25861421 274:0.097721212 275:0.36323333 276:0.36323333 277:0.36323333 278:0.36323333 279:0.36323333 280:0.16232623 281:0.047119126 282:0.14047879 283:0.29720101 284:0.41553998 285:0.41553998 286:0.41553998 287:0.41553998 288:0.41553998 289:0.019669328 290:0.038124029 291:0.23034789 292:0.66282356 293:0.66282356 294:0.25541008 295:0.018405132 296:0.018869419 297:0.022366799 298:0.057403646 299:0.026104271 300:0.12476398 301:0.55919659 302:0.55919659 303:0.55919659 304:0.20105441 305:0.020946579 306:0.038643539 307:0.043913692 308:0.037118189 309:0.0069849831 310:0.44527075 311:0.62395728 312:0.62395728 313:0.12901221 314:0.030476902 315:0.046481792 316:0.20333874 317:0.4384692 318:0.41216835 319:0.4384692 320:0.4384692 321:0.4384692 322:0.09872295 323:0.072043262 324:0.069377549 325:0.20060451 326:0.27405491 327:0.28119877 328:0.47842976 329:0.47842976 330:0.47842976 331:0.24081951 332:0.16507809 333:0.18343702 334:0.10728595 335:0.19454457 336:0.2473858 337:0.53764796 338:0.53764796 339:0.53764796 340:0.11724301 341:0.059914693 342:0.070076078 343:0.018970134 344:0.0241971 345:0.03693584 346:0.36670956 347:0.64722371 348:0.64722371 349:0.15597442 350:0.021744983 351:0.024832273 352:0.050484944 353:0.02260766 354:0.070815198 355:0.56306177 356:0.56306177 357:0.56306177 358:0.19480263 359:0.038981318 360:0.036633369 361:0.31246924 362:0.34447309 363:0.34795901 364:0.34795901 365:0.34795901 366:0.34795901 367:0.23926653 368:0.34795901 369:0.34795901 370:0.031580042 371:0.049022604 372:0.53035003 373:0.53630209 374:0.53630209 375:0.200884 376:0.23830454 377:0.19511674 378:0.069818012 379:0.12038102 380:0.13592204 381:0.34587789 382:0.58566725 383:0.58566725 384:0.3912223 385:0.023806931 386:0.0094818585 387:0.087626316 388:0.067657322 389:0.044869971 390:0.27672645 391:0.39234379 392:0.58051044 393:0.58051044 394:0.24876663 395:0.14428329 396:0.078808725 397:0.35475421 398:0.39470559 399:0.40960535 400:0.40960535 401:0.40960535 402:0.30366343 403:0.25945425 404:0.12728769 405:0.19823529 406:0.036023155 407:0.094267353 408:0.14329813 409:0.34255746 410:0.62695175 411:0.62695175 412:0.24533001 413:0.069925673 414:0.026883425 415:0.35254431 416:0.35254431 417:0.35254431 418:0.35254431 419:0.31165376 420:0.35254431 421:0.29140204 422:0.26876 423:0.35254431 424:0.23594762 425:0.43261403 426:0.43261403 427:0.43261403 428:0.43261403 429:0.31814381 430:0.15306102 431:0.13229881 432:0.23143657 433:0.13781217 434:0.15505572 435:0.46162885 436:0.46162885 437:0.46162885 438:0.46162885 439:0.16116036 440:0.17030603 441:0.22267441 442:0.38616163 443:0.38616163 444:0.38616163 445:0.38616163 446:0.38616163 447:0.30178586 448:0.25949025 449:0.17154911 450:0.25798652 451:0.3717812 452:0.27090874 453:0.24447823 454:0.19367801 455:0.3717812 456:0.3717812 457:0.3717812 458:0.3717812 459:0.3717812 460:0.19074517 461:0.068202652 462:0.047430299 463:0.061192069 464:0.4321866 465:0.43766004 466:0.43766004 467:0.43766004 468:0.43766004 469:0.092168927 470:0.071828566 471:0.34981459 472:0.4513303 473:0.4513303 474:0.4513303 475:0.4513303 476:0.19638854 477:0.10300812 478:0.05705481 479:0.15143181 480:0.31073496 481:0.53832978 482:0.53832978 483:0.53832978 484:0.07987766 485:0.0081000719 486:0.03760526 487:0.067334242 488:0.11448725 489:0.13370697 490:0.41504097 491:0.58527225 492:0.58527225 493:0.28061178 494:0.15063326 495:0.075509839 496:0.11175184 497:0.081866711 498:0.48270693 499:0.49018693 500:0.49018693 501:0.49018693 502:0.13512057 503:0.053938664 504:0.076070294 505:0.25214729 506:0.36419046 507:0.41726318 508:0.41726318 509:0.41726318 510:0.41726318 511:0.23600662 512:0.1125818 513:0.19743124 514:0.058407582 515:0.043903612 516:0.42439336 517:0.50750875 518:0.50750875 519:0.50750875 520:0.19126935 521:0.049274676 522:0.053329643 523:0.3143301 524:0.2605986 525:0.19232944 526:0.43701723 527:0.48512802 528:0.48512802 529:0.30177379 530:0.16430485 531:0.12864107 532:0.25829867 533:0.17312779 534:0.32869607 535:0.37662601 536:0.37662601 537:0.37662601 538:0.37662601 539:0.29331169 540:0.37662601 541:0.35854903 542:0.35854903 543:0.35854903 544:0.15562128 545:0.30862334 546:0.33043799 547:0.35854903 548:0.35854903 549:0.35854903 550:0.03443728 551:0.053841788 552:0.55890596 553:0.56378871 554:0.56378871 555:0.20131172 556:0.073675066 557:0.029595643 558:0.031520601 559:0.20837408 560:0.23168801 561:0.23701915 562:0.51729417 563:0.51729417 564:0.45777339 565:0.12289234 566:0.2105611 567:0.2062559 568:0.027953058 569:0.015988979 570:0.015664654 571:0.11730438 572:0.56803966 573:0.56803966 574:0.56803966 575:0.1257088 576:0.033870853 577:0.14607319 578:0.35306436 579:0.46127751 580:0.46127751 581:0.46127751 582:0.32106218 583:0.21091482 584:0.15324038 585:0.211255 586:0.11453962 587:0.14937812 588:0.4447372 589:0.45290717 590:0.45290717 591:0.45290717 592:0.22717416 593:0.1922269 594:0.25068229 595:0.37732601 596:0.37732601 597:0.37732601 598:0.26629582 599:0.37732601 600:0.061881661 601:0.26647276 602:0.37732601 603:0.37732601 604:0.43163538 605:0.43163538 606:0.43163538 607:0.43163538 608:0.43163538 609:0.20190668 610:0.084552608 611:0.039911851 612:0.13764495 613:0.35180992 614:0.35180992 615:0.35180992 616:0.35180992 617:0.35180992 618:0.35180992 619:0.35180992 620:0.32062209 621:0.17552763 622:0.35305274 623:0.32954749 624:0.34715009 625:0.35305274 626:0.35305274 627:0.35305274 628:0.35305274 629:0.26025775 630:0.28270113 631:0.36378083 632:0.33807644 633:0.25176364 634:0.22402585 635:0.36378083 636:0.33233923 637:0.36378083 638:0.36378083 639:0.36378083 640:0.056578316 641:0.024432974 642:0.024191095 643:0.050307792 644:0.30040529 645:0.47509012 646:0.47509012 647:0.47509012 648:0.47509012 649:0.34655809 650:0.34655809 651:0.34655809 652:0.34655809 653:0.19793905 654:0.34655809 655:0.34655809 656:0.34655809 657:0.34655809 658:0.34230551 659:0.46273324 660:0.46273324 661:0.46273324 662:0.46273324 663:0.11520797 664:0.0633706 665:0.070505634 666:0.063866667 667:0.12564865 668:0.43135783 669:0.43135783 670:0.43135783 671:0.43135783 672:0.2992422 673:0.25600508 674:0.24354522 675:0.15979807 676:0.12552106 677:0.31644642 678:0.45511481 679:0.45511481 680:0.45511481 681:0.45511481 682:0.18959066 683:0.090250678 684:0.10723019 685:0.3735885 686:0.3735885 687:0.3735885 688:0.28484267 689:0.31514424 690:0.21849933 691:0.31059358 692:0.34214756 693:0.3735885 694:0.22192016 695:0.33277726 696:0.44383025 697:0.44383025 698:0.44383025 699:0.44383025 700:0.20365405 701:0.071038626 702:0.074485719 703:0.34685162 704:0.34685162 705:0.34685162 706:0.34685162 707:0.34685162 708:0.34685162 709:0.34685162 710:0.31342974 711:0.24417117 712:0.29437095 713:0.20112154 714:0.23576146 715:0.37626198 716:0.37626198 717:0.37626198 718:0.37626198 719:0.37626198 720:0.33082771 721:0.35591704 722:0.35591704 723:0.35591704 724:0.35591704 725:0.35591704 726:0.35591704 727:0.21690354 728:0.28235242 729:0.33640504 730:0.035778921 731:0.039826099 732:0.53365237 733:0.57727349 734:0.57727349 735:0.099142358 736:0.15449059 737:0.076826088 738:0.079124555 739:0.16777594 740:0.37764445 741:0.45897433 742:0.49593678 743:0.49593678 744:0.31089151 745:0.07391534 746:0.077827282 747:0.13600622 748:0.035893619 749:0.0089763263 750:0.015530349 751:0.27358907 752:0.62474132 753:0.62474132 754:0.37284553 755:0.053695653 756:0.032224696 757:0.17019063 758:0.44115812 759:0.44115812 760:0.44115812 761:0.41407561 762:0.21666434 763:0.19866002 764:0.30337685 765:0.19304977 766:0.038103238 767:0.068907805 768:0.18108337 769:0.26501927 770:0.61174285 771:0.61174285 772:0.37274757 773:0.050696217 774:0.028355192 775:0.34358227 776:0.34358227 777:0.34358227 778:0.23581704 779:0.34358227 780:0.34358227 781:0.34358227 782:0.34358227 783:0.34358227 784:0.27192873 785:0.43347025 786:0.43347025 787:0.43347025 788:0.43347025 789:0.27270663 790:0.08833915 791:0.10378234 792:0.28552678 793:0.38342199 794:0.38342199 795:0.38342199 796:0.38342199 797:0.38342199 798:0.2774395 799:0.26243842 800:0.13136138 801:0.31911689 802:0.37078416 803:0.37078416 804:0.37078416 805:0.37078416 806:0.37078416 807:0.37078416 808:0.26534775 809:0.205264 810:0.25014374 811:0.40678459 812:0.20168483 813:0.064996846 814:0.061059825 815:0.40678459 816:0.35213873 817:0.40678459 818:0.40678459 819:0.40678459 820:0.30340934 821:0.20961663 822:0.076481968 823:0.1785142 824:0.46849102 825:0.46849102 826:0.46849102 827:0.29499924 828:0.28427249 829:0.096271656 830:0.13664307 831:0.30055836 832:0.46389195 833:0.46389195 834:0.46389195 835:0.46389195 836:0.12905341 837:0.065478139 838:0.1458005 839:0.21486281 840:0.47913697 841:0.47913697 842:0.47913697 843:0.47266757 844:0.10832582 845:0.038042314 846:0.085224569 847:0.12577434 848:0.16568063 849:0.21987019 850:0.47881946 851:0.51269835 852:0.51269835 853:0.28476781 854:0.23114996 855:0.13739602 856:0.038748551 857:0.043089151 858:0.33397153 859:0.5292232 860:0.5292232 861:0.5292232 862:0.15130922 863:0.12434165 864:0.080733322 865:0.24137348 866:0.21673584 867:0.44168174 868:0.44168174 869:0.44168174 870:0.44168174 871:0.25111893 872:0.11337979 873:0.19625917 874:0.065213323 875:0.03535457 876:0.303294 877:0.53996855 878:0.53996855 879:0.53996855 880:0.1589836 881:0.012640575 882:0.04874881 883:0.37693632 884:0.27984574 885:0.1944021 886:0.33536446 887:0.42384282 888:0.42384282 889:0.42384282 890:0.24009252 891:0.18102837 892:0.2573576 893:0.10596635 894:0.26590732 895:0.45234916 896:0.45234916 897:0.45234916 898:0.32216734 899:0.16983822 900:0.32455426 
1 1 1:0.26349264 2:0.3235594 3:0.34348652 4:0.34348652 5:0.34348652 6:0.34348652 7:0.34348652 8:0.34348652 9:0.34348652 10:0.018634707 11:0.014723051 12:0.14806314 13:0.57348651 14:0.57348651 15:0.55547202 16:0.086132161 17:0.056926314 18:0.023047186 19:0.04491166 20:0.0034557702 21:0.0045168493 22:0.53306121 23:0.58281934 24:0.58281934 25:0.15076569 26:0.096885189 27:0.048191834 28:0.016999023 29:0.027429001 30:0.14408258 31:0.34935486 32:0.64236635 33:0.64236635 34:0.17361866 35:0.018018534 36:0.02032255 37:0.037173394 38:0.037862577 39:0.23995076 40:0.55384004 41:0.55384004 42:0.55384004 43:0.13276042 44:0.019228082 45:0.037372675 46:0.095284387 47:0.061771434 48:0.064281784 49:0.3611621 50:0.64103901 51:0.64103901 52:0.14596161 53:0.036347337 54:0.089705437 55:0.041526385 56:0.069220014 57:0.3089965 58:0.46919531 59:0.46919531 60:0.46919531 61:0.46882099 62:0.12302914 63:0.051413201 64:0.35281801 65:0.17754084 66:0.35281801 67:0.35281801 68:0.35281801 69:0.35250583 70:0.31198636 71:0.35281801 72:0.35281801 73:0.052483633 74:0.31129283 75:0.3685489 76:0.47737205 77:0.47737205 78:0.47737205 79:0.27778327 80:0.053015422 81:0.029791571 82:0.055936258 83:0.020501468 84:0.21001944 85:0.48410147 86:0.48410147 87:0.48410147 88:0.48410147 89:0.11564928 90:0.039381716 91:0.17800489 92:0.18461458 93:0.26699594 94:0.45579484 95:0.45579484 96:0.45579484 97:0.44108868 98:0.17876461 99:0.11481293 100:0.2627849 101:0.11796226 102:0.23777753 103:0.3344987 104:0.41498759 105:0.41498759 106:0.41498759 107:0.41498759 108:0.24442324 109:0.049946643 110:0.028946945 111:0.083818242 112:0.37118873 113:0.51272321 114:0.51272321 115:0.51272321 116:0.20022117 117:0.15204269 118:0.08277978 119:0.093423836 120:0.16671954 121:0.55023474 122:0.55023474 123:0.55023474 124:0.15829836 125:0.13142219 126:0.077583715 127:0.14621094 128:0.093386613 129:0.11435106 130:0.55637884 131:0.55637884 132:0.55637884 133:0.148039 134:0.041350566 135:0.067286268 136:0.1269244 137:0.12513462 138:0.45315772 139:0.49236801 140:0.49236801 141:0.49236801 142:0.092428766 143:0.06211726 144:0.1523127 145:0.030031133 146:0.077423356 147:0.38039392 148:0.45728868 149:0.45728868 150:0.45728868 151:0.45728868 152:0.050736342 153:0.096841045 154:0.076812588 155:0.075121239 156:0.17023312 157:0.53911036 158:0.58798945 159:0.55492944 160:0.045295063 161:0.079140663 162:0.082729414 163:0.1109158 164:0.052149065 165:0.058564946 166:0.46184888 167:0.53477496 168:0.53477496 169:0.43022087 170:0.094771497 171:0.046945259 172:0.022856906 173:0.042282749 174:0.096286885 175:0.57073188 176:0.57073188 177:0.57073188 178:0.054699596 179:0.061659779 180:0.0664827 181:0.29847905 182:0.16313839 183:0.26181829 184:0.3687247 185:0.3687247 186:0.3687247 187:0.3687247 188:0.3687247 189:0.3687247 190:0.049614239 191:0.018477719 192:0.14694075 193:0.56502986 194:0.56502986 195:0.56502986 196:0.10734273 197:0.031618696 198:0.072848737 199:0.019763062 200:0.00025720379 201:0.0071725301 202:0.55851209 203:0.55851209 204:0.55851209 205:0.24058396 206:0.066234782 207:0.038506545 208:0.022282949 209:0.020876314 210:0.059522372 211:0.39830199 212:0.59031343 213:0.59031343 214:0.37342641 215:0.011484971 216:0.01900309 217:0.026846664 218:0.038228512 219:0.11638481 220:0.56433338 221:0.56433338 222:0.56433338 223:0.15776734 224:0.056814346 225:0.027157998 226:0.11400917 227:0.020254482 228:0.081113249 229:0.5695132 230:0.5695132 231:0.56242323 232:0.063683204 233:0.063100398 234:0.083454259 235:0.14571655 236:0.23010869 237:0.4094989 238:0.4094989 239:0.4094989 240:0.4094989 241:0.31332502 242:0.25058299 243:0.30674905 244:0.10968696 245:0.14797923 246:0.50084269 247:0.50084269 248:0.50084269 249:0.34276119 250:0.2510035 251:0.17082024 252:0.062233493 253:0.24997178 254:0.18629046 255:0.44382691 256:0.44382691 257:0.44382691 258:0.44382691 259:0.23777944 260:0.1319371 261:0.20232192 262:0.11646382 263:0.21829373 264:0.36906359 265:0.41762954 266:0.41762954 267:0.41762954 268:0.41762954 269:0.28629452 270:0.15150504 271:0.098099649 272:0.036281791 273:0.12375648 274:0.45934695 275:0.48283932 276:0.48283932 277:0.48283932 278:0.18971676 279:0.1653816 280:0.22552635 281:0.22017516 282:0.18416643 283:0.24557197 284:0.43041041 285:0.43041041 286:0.43041041 287:0.43041041 288:0.25578362 289:0.061525702 290:0.031124549 291:0.054615088 292:0.29391763 293:0.54905987 294:0.54905987 295:0.54905987 296:0.021283161 297:0.031971764 298:0.039180044 299:0.050658092 300:0.062167123 301:0.56292903 302:0.56292903 303:0.56292903 304:0.17320065 305:0.091415569 306:0.054875631 307:0.054146051 308:0.12530272 309:0.16294846 310:0.49917418 311:0.49917418 312:0.49917418 313:0.44922227 314:0.071565688 315:0.019193886 316:0.039861381 317:0.14330241 318:0.28625685 319:0.52776724 320:0.52776724 321:0.52776724 322:0.22084583 323:0.061711684 324:0.087957367 325:0.030957427 326:0.039907675 327:0.56994855 328:0.56994855 329:0.56994855 330:0.13475367 331:0.048507158 332:0.036836516 333:0.032503877 334:0.080871724 335:0.19967501 336:0.39733523 337:0.4908528 338:0.4908528 339:0.4908528 340:0.17130546 341:0.17469895 342:0.11419092 343:0.058188513 344:0.18768717 345:0.26555517 346:0.52721876 347:0.52721876 348:0.52721876 349:0.21300016 350:0.061567865 351:0.088484369 352:0.028966025 353:0.012664737 354:0.071845882 355:0.56838948 356:0.56838948 357:0.56838948 358:0.14991182 359:0.038453255 360:0.026207466 361:0.31950796 362:0.32755727 363:0.36998487 364:0.36998487 365:0.36998487 366:0.36998487 367:0.20805165 368:0.29961818 369:0.33167621 370:0.062360343 371:0.061451454 372:0.41416371 373:0.62590957 374:0.62590957 375:0.17613217 376:0.059127185 377:0.0307614 378:0.042577446 379:0.020467624 380:0.0097308736 381:0.036901549 382:0.57371855 383:0.57371855 384:0.57371855 385:0.091328062 386:0.038658615 387:0.028816761 388:0.01277571 389:0.021502862 390:0.045496531 391:0.35419804 392:0.54634774 393:0.54634774 394:0.52323472 395:0.025838822 396:0.02035523 397:0.070628688 398:0.074413002 399:0.32785779 400:0.50904804 401:0.50904804 402:0.50904804 403:0.30363828 404:0.1043652 405:0.038801733 406:0.018539226 407:0.020786297 408:0.13579592 409:0.57028097 410:0.57028097 411:0.57028097 412:0.068999834 413:0.0092945462 414:0.016593045 415:0.049259573 416:0.033311501 417:0.11977124 418:0.48747253 419:0.48747253 420:0.48747253 421:0.48747253 422:0.1758783 423:0.02583795 424:0.24401595 425:0.18663569 426:0.30470383 427:0.45009711 428:0.45009711 429:0.45009711 430:0.37433469 431:0.21729462 432:0.13294084 433:0.021747047 434:0.057757281 435:0.11995059 436:0.54879695 437:0.54879695 438:0.54879695 439:0.25629303 440:0.10820376 441:0.029573832 442:0.14949206 443:0.064683706 444:0.28055266 445:0.52822232 446:0.52822232 447:0.52822232 448:0.22541733 449:0.041037578 450:0.072145171 451:0.02035947 452:0.0035601333 453:0.042834256 454:0.26171887 455:0.53761595 456:0.53761595 457:0.53761595 458:0.24268486 459:0.057030078 460:0.33646047 461:0.32385901 462:0.32043058 463:0.33646047 464:0.33646047 465:0.33646047 466:0.33646047 467:0.33646047 468:0.33646047 469:0.04580795 470:0.24954101 471:0.34944507 472:0.48894185 473:0.48894185 474:0.48894185 475:0.30787811 476:0.034414984 477:0.018798051 478:0.043603655 479:0.030098215 480:0.13248323 481:0.56552672 482:0.56552672 483:0.56552672 484:0.11875474 485:0.060404692 486:0.04927757 487:0.068298779 488:0.11851685 489:0.29192793 490:0.54017526 491:0.54017526 492:0.54017526 493:0.12682578 494:0.039706048 495:0.055116121 496:0.04135349 497:0.021748764 498:0.17538039 499:0.64895225 500:0.64895225 501:0.32497141 502:0.099543594 503:0.070749216 504:0.065266527 505:0.06274648 506:0.2000715 507:0.46063894 508:0.46063894 509:0.46063894 510:0.46063894 511:0.32453689 512:0.040095568 513:0.01869625 514:0.04135349 515:0.021748764 516:0.17538039 517:0.64895225 518:0.64895225 519:0.32497141 520:0.099543594 521:0.070749216 522:0.065266527 523:0.068298779 524:0.11851685 525:0.29192793 526:0.54017526 527:0.54017526 528:0.54017526 529:0.12682578 530:0.039706048 531:0.055116121 532:0.043603655 533:0.030098215 534:0.13248323 535:0.56552672 536:0.56552672 537:0.56552672 538:0.11875474 539:0.060404692 540:0.04927757 541:0.33333331 542:0.33333331 543:0.33333331 544:0.33333331 545:0.33333331 546:0.33333331 547:0.33333331 548:0.33333331 549:0.33333331 550:0.032535978 551:0.0092148837 552:0.060061011 553:0.56077957 554:0.56077957 555:0.56077957 556:0.19751628 557:0.090531535 558:0.067965716 559:0.019081213 560:0.0023198265 561:0.077967748 562:0.53511178 563:0.53511178 564:0.53511178 565:0.33301604 566:0.15144937 567:0.026097097 568:0.021324039 569:0.0072908616 570:0.040926766 571:0.4270409 572:0.60007882 573:0.60007882 574:0.28270343 575:0.11826069 576:0.036837723 577:0.063699283 578:0.052509502 579:0.39474285 580:0.51838762 581:0.51838762 582:0.51838762 583:0.16573754 584:0.036176153 585:0.049075652 586:0.090038575 587:0.039453283 588:0.18484686 589:0.5540719 590:0.5540719 591:0.5540719 592:0.16121934 593:0.043938339 594:0.085198939 595:0.24338646 596:0.088352382 597:0.44963488 598:0.44963488 599:0.44963488 600:0.44963488 601:0.2840735 602:0.17670667 603:0.11112089 604:0.24151403 605:0.33670267 606:0.38228101 607:0.38228101 608:0.38228101 609:0.38228101 610:0.32237354 611:0.27596453 612:0.25232142 613:0.16969076 614:0.049133338 615:0.20157605 616:0.49349514 617:0.49349514 618:0.49349514 619:0.30828708 620:0.15727231 621:0.27887297 622:0.19755539 623:0.11731657 624:0.13462198 625:0.47103688 626:0.47103688 627:0.47103688 628:0.42393774 629:0.1736894 630:0.23144588 631:0.18193132 632:0.11497554 633:0.23073734 634:0.46137252 635:0.46137252 636:0.46137252 637:0.46137252 638:0.12853433 639:0.18017349 640:0.3195827 641:0.12582466 642:0.16001578 643:0.32802793 644:0.38699552 645:0.38699552 646:0.38699552 647:0.38699552 648:0.38699552 649:0.13109842 650:0.15955499 651:0.21653467 652:0.39624339 653:0.48486108 654:0.48486108 655:0.48486108 656:0.18312567 657:0.12105122 658:0.054460187 659:0.018289141 660:0.081451394 661:0.56129152 662:0.56129152 663:0.56129152 664:0.19524609 665:0.050297067 666:0.065344632 667:0.087231956 668:0.076976568 669:0.23356868 670:0.54698533 671:0.54698533 672:0.54698533 673:0.1606963 674:0.074735597 675:0.054066285 676:0.039212205 677:0.063172102 678:0.37640297 679:0.55899453 680:0.55899453 681:0.46374887 682:0.092942975 683:0.033705644 684:0.054819331 685:0.031026818 686:0.033460982 687:0.57513803 688:0.57513803 689:0.57513803 690:0.067627288 691:0.011397232 692:0.00029602236 693:0.029378919 694:0.21330853 695:0.1297733 696:0.25026909 697:0.50790715 698:0.50790715 699:0.44659439 700:0.13791373 701:0.23664631 702:0.29088873 703:0.079603374 704:0.14759815 705:0.30516732 706:0.50656092 707:0.50656092 708:0.50656092 709:0.29768869 710:0.083528832 711:0.11551402 712:0.029283335 713:0.037647214 714:0.16351283 715:0.56525809 716:0.56525809 717:0.56525809 718:0.10284303 719:0.036163341 720:0.023539651 721:0.27365682 722:0.23825395 723:0.22736818 724:0.38205782 725:0.38205782 726:0.38205782 727:0.38205782 728:0.38205782 729:0.29463518 730:0.11314398 731:0.04524501 732:0.35569158 733:0.52087116 734:0.52087116 735:0.52087116 736:0.15638459 737:0.070379794 738:0.12371358 739:0.019640833 741:0.021395031 742:0.56783575 743:0.56783575 744:0.56783575 745:0.17398942 746:0.031289276 747:0.024351297 748:0.027244126 749:0.0062658568 750:0.051820435 751:0.52441317 752:0.52441317 753:0.52441317 754:0.39988619 755:0.097017221 756:0.046738241 757:0.086711094 758:0.068781205 759:0.16705161 760:0.5550161 761:0.5550161 762:0.5550161 763:0.16643932 764:0.054123431 765:0.071302742 766:0.076389991 767:0.011631201 768:0.16068709 769:0.55962932 770:0.55962932 771:0.55962932 772:0.13527469 773:0.034671921 774:0.095669061 775:0.10358338 776:0.24617052 777:0.44817558 778:0.44817558 779:0.44817558 780:0.44817558 781:0.21538241 782:0.17303875 783:0.22111772 784:0.11273882 785:0.19384122 786:0.27357537 787:0.41310763 788:0.41310763 789:0.41310763 790:0.28568593 791:0.41310763 792:0.33260179 793:0.20523672 794:0.16420156 795:0.40268499 796:0.45550656 797:0.45550656 798:0.45550656 799:0.25863099 800:0.1101497 801:0.2593821 802:0.074307553 803:0.05527842 804:0.17113669 805:0.49647334 806:0.49647334 807:0.49647334 808:0.39119187 809:0.22688632 810:0.13479325 811:0.16158776 812:0.39086935 813:0.43476939 814:0.38441819 815:0.43476939 816:0.43476939 817:0.31091198 818:0.074959069 819:0.063046128 820:0.20716412 821:0.18442784 822:0.19016995 823:0.21459559 824:0.45990688 825:0.45990688 826:0.45990688 827:0.4111675 828:0.19300711 829:0.15216364 830:0.09827134 831:0.13111782 832:0.32374692 833:0.51226562 834:0.51226562 835:0.51226562 836:0.21880881 837:0.10029683 838:0.054297008 839:0.035860308 840:0.1483373 841:0.53968734 842:0.53968734 843:0.53968734 844:0.27518094 845:0.13705988 846:0.073923312 847:0.044601701 848:0.011668622 849:0.074668057 850:0.43525848 851:0.63187152 852:0.63187152 853:0.03927888 854:0.018383987 855:0.049448628 856:0.059015535 857:0.077127732 858:0.18929458 859:0.54519933 860:0.54519933 861:0.52010363 862:0.29322362 863:0.045442574 864:0.041213155 865:0.035686564 866:0.065729439 867:0.56145728 868:0.56145728 869:0.56145728 870:0.21140687 871:0.031133262 872:0.019628923 873:0.051534615 874:0.24081846 875:0.20547467 876:0.34227249 877:0.45916811 878:0.45916811 879:0.45916811 880:0.32304275 881:0.16512665 882:0.13603906 883:0.053771775 884:0.14266887 885:0.26210088 886:0.52175415 887:0.52175415 888:0.52175415 889:0.23606735 890:0.11490256 891:0.1498163 892:0.034954946 893:0.022254292 894:0.059331875 895:0.54477423 896:0.58530235 897:0.58530235 898:0.10344629 899:0.037313014 900:0.027065549 
1 1 1:0.39419574 2:0.39419574 3:0.06577263 4:0.0088038333 5:0.34189865 6:0.31898347 7:0.39419574 8:0.39419574 9:0.39419574 10:0.34654045 11:0.34654045 12:0.34654045 13:0.34654045 14:0.34654045 15:0.34654045 16:0.30202356 17:0.26105505 18:0.34654045 19:0.25290248 20:0.2443144 21:0.42249447 22:0.42249447 23:0.42249447 24:0.42249447 25:0.30524221 26:0.11903771 27:0.23452425 28:0.19617417 29:0.25433967 30:0.31351116 31:0.40008274 32:0.46334895 33:0.46334895 34:0.29196376 35:0.2461454 36:0.2515091 37:0.082535073 38:0.20716211 39:0.42893019 40:0.42893019 41:0.42893019 42:0.42893019 43:0.42893019 44:0.13948993 45:0.10444503 46:0.33333331 47:0.33333331 48:0.33333331 49:0.33333331 50:0.33333331 51:0.33333331 52:0.33333331 53:0.33333331 54:0.33333331 55:0.55004668 56:0.077541761 57:0.0098703876 58:0.017434798 59:0.12555912 60:0.044515364 61:0.26112309 62:0.55004668 63:0.55004668 64:0.08297646 65:0.50490743 66:0.50490743 67:0.50490743 68:0.44276121 69:0.10586385 70:0.080689862 71:0.058418777 72:0.10560384 73:0.037510142 74:0.019921493 75:0.046012409 76:0.48331884 77:0.57840574 78:0.57840574 79:0.30226299 80:0.02519582 81:0.037118923 82:0.042559844 83:0.12666903 84:0.48844841 85:0.48844841 86:0.48844841 87:0.48844841 88:0.15942757 89:0.039371118 90:0.029138086 91:0.25335863 92:0.04572589 93:0.068726279 94:0.26920459 95:0.42710572 96:0.42710572 97:0.4095777 98:0.37618122 99:0.42710572 100:0.35547072 101:0.29901001 102:0.30713964 103:0.2410427 104:0.35547072 105:0.35547072 106:0.35547072 107:0.35547072 108:0.35547072 109:0.38104969 110:0.18611395 111:0.12190092 112:0.049721636 113:0.20686123 114:0.12491218 115:0.43001014 116:0.52892691 117:0.52892691 118:0.3412762 119:0.3412762 120:0.3412762 121:0.26123646 122:0.3412762 123:0.3412762 124:0.3412762 125:0.3412762 126:0.3412762 127:0.34442624 128:0.34442624 129:0.34442624 130:0.34442624 131:0.34198388 132:0.2709994 133:0.31277758 134:0.34442624 135:0.34442624 136:0.36183217 137:0.36183217 138:0.36183217 139:0.36183217 140:0.36183217 141:0.13624954 142:0.30741182 143:0.36183217 144:0.318432 145:0.39264411 146:0.23595574 147:0.1104093 148:0.14755344 149:0.37351799 150:0.39264411 151:0.39264411 152:0.39264411 153:0.39264411 154:0.10512238 155:0.064139403 156:0.29887491 157:0.46312979 158:0.46312979 159:0.46312979 160:0.46312979 161:0.13847655 162:0.13556029 163:0.16866156 164:0.21602409 165:0.34764946 166:0.50527924 167:0.50527924 168:0.50527924 169:0.13680707 170:0.073402911 171:0.11832683 172:0.31306049 173:0.1807052 174:0.1391663 175:0.38042209 176:0.38042209 177:0.38042209 178:0.38042209 179:0.35548088 180:0.38042209 181:0.34929344 182:0.34929344 183:0.34929344 184:0.30165902 185:0.34929344 186:0.23443656 187:0.34929344 188:0.34929344 189:0.34929344 190:0.33333331 191:0.33333331 192:0.33333331 193:0.33333331 194:0.33333331 195:0.33333331 196:0.33333331 197:0.33333331 198:0.33333331 199:0.3350895 200:0.3350895 201:0.3350895 202:0.3350895 203:0.3350895 204:0.31893608 205:0.3350895 206:0.3350895 207:0.3350895 208:0.22193207 209:0.15002792 210:0.17511077 211:0.30117518 212:0.49096054 213:0.49096054 214:0.44970736 215:0.224549 216:0.26855919 217:0.37340289 218:0.37340289 219:0.37340289 220:0.37340289 221:0.37340289 222:0.067560241 223:0.23267303 224:0.37340289 225:0.32360554 226:0.22060348 227:0.20519841 228:0.26053044 229:0.36505529 230:0.3841522 231:0.3841522 232:0.3841522 233:0.3841522 234:0.34321225 235:0.30014837 236:0.32522547 237:0.3389352 238:0.3389352 239:0.3389352 240:0.3389352 241:0.3389352 242:0.3389352 243:0.3389352 244:0.13885155 245:0.066691592 246:0.50863326 247:0.50863326 248:0.50863326 249:0.14566912 250:0.10993494 251:0.17766623 252:0.36780244 253:0.089284733 254:0.079970248 255:0.44610924 256:0.44610924 257:0.44610924 258:0.44610924 259:0.41787004 260:0.10030968 261:0.07001318 262:0.054992884 263:0.10608272 264:0.22763273 265:0.53482473 266:0.53482473 267:0.53482473 268:0.27034938 269:0.038239952 270:0.035239723 271:0.034028765 272:0.042825796 273:0.19212629 274:0.51790118 275:0.51790118 276:0.51790118 277:0.38470307 278:0.079673491 279:0.032960754 280:0.080583036 281:0.033966817 282:0.026283333 283:0.1278097 284:0.52406269 285:0.52406269 286:0.52406269 287:0.37684384 288:0.096902587 289:0.10583693 290:0.15654194 291:0.14472295 292:0.39452893 293:0.4268513 294:0.4268513 295:0.4268513 296:0.4268513 297:0.2426669 298:0.041204799 299:0.023911627 300:0.062466118 301:0.40880004 302:0.63461173 303:0.63461173 304:0.13281545 305:0.046038598 306:0.038566507 307:0.025240093 308:0.026581315 309:0.098463058 310:0.36343333 311:0.53397125 312:0.53397125 313:0.53397125 314:0.032530531 315:0.02105982 316:0.088899091 317:0.29679307 318:0.46701786 319:0.46701786 320:0.46701786 321:0.46701786 322:0.13824466 323:0.071662329 324:0.085680172 325:0.015510165 326:0.015573525 327:0.063812807 328:0.60113019 329:0.60113019 330:0.51991147 331:0.046580132 332:0.0067478968 333:0.014373351 334:0.083663248 335:0.25427613 336:0.4731665 337:0.4731665 338:0.4731665 339:0.4731665 340:0.15556429 341:0.051550347 342:0.077072717 343:0.016736848 344:0.031528778 345:0.12472678 346:0.40222654 347:0.55602533 348:0.55602533 349:0.44940472 350:0.029351518 351:0.015114865 352:0.020058786 353:0.017785754 354:0.099542871 355:0.56662643 356:0.56662643 357:0.56662643 358:0.1457199 359:0.054395866 360:0.044529215 361:0.36603767 362:0.36603767 363:0.36603767 364:0.15727809 365:0.35119352 366:0.21914667 367:0.36603767 368:0.36603767 369:0.36603767 370:0.33472949 371:0.33472949 372:0.33472949 373:0.33472949 374:0.33472949 375:0.33472949 376:0.33472949 377:0.32194641 378:0.33472949 379:0.35697407 380:0.35697407 381:0.35697407 382:0.35697407 383:0.35697407 384:0.35697407 385:0.30334786 386:0.12635924 387:0.35697407 388:0.34525672 389:0.23130642 390:0.23753925 391:0.36005855 392:0.36005855 393:0.36005855 394:0.36005855 395:0.36005855 396:0.35022765 397:0.12034055 398:0.16877535 399:0.44576493 400:0.44576493 401:0.44576493 402:0.44576493 403:0.32541409 404:0.19514127 405:0.13503015 406:0.33333331 407:0.33333331 408:0.33333331 409:0.33333331 410:0.33333331 411:0.33333331 412:0.33333331 413:0.33333331 414:0.33333331 415:0.37520105 416:0.37520105 417:0.25812021 418:0.26819041 419:0.19646263 420:0.3449218 421:0.37520105 422:0.37520105 423:0.37520105 424:0.084379271 425:0.49447998 426:0.49447998 427:0.49447998 428:0.49447998 429:0.050321873 430:0.043778501 431:0.058720171 432:0.083314829 433:0.01097374 434:0.012089312 435:0.037459709 436:0.65241659 437:0.65241659 438:0.38073662 439:0.044425573 440:0.0032477325 441:0.0095258467 442:0.020173589 443:0.05992756 444:0.19030949 445:0.56495303 446:0.56495303 447:0.56495303 448:0.043335825 449:0.00092900492 450:0.019732546 451:0.26820517 452:0.35790798 453:0.35790798 454:0.17714153 455:0.35790798 456:0.35790798 457:0.35790798 458:0.35790798 459:0.35790798 460:0.38646513 461:0.26308426 462:0.23062076 463:0.15383938 464:0.38646513 465:0.32734963 466:0.38646513 467:0.38646513 468:0.38646513 469:0.42081696 470:0.42081696 471:0.42081696 472:0.21764742 473:0.16012996 474:0.088763312 475:0.183506 476:0.42081696 477:0.42081696 478:0.32716784 479:0.24713172 480:0.26342735 481:0.32042468 482:0.36326882 483:0.36326882 484:0.36326882 485:0.36326882 486:0.36326882 487:0.35710081 488:0.35710081 489:0.32743174 490:0.15188059 491:0.32341126 492:0.35710081 493:0.35710081 494:0.35710081 495:0.35710081 496:0.3524707 497:0.3524707 498:0.3524707 499:0.2673113 500:0.3524707 501:0.24268393 502:0.3524707 503:0.3524707 504:0.3524707 505:0.33333331 506:0.33333331 507:0.33333331 508:0.33333331 509:0.33333331 510:0.33333331 511:0.33333331 512:0.33333331 513:0.33333331 514:0.10430121 515:0.10679649 516:0.41819513 517:0.41819513 518:0.41819513 519:0.41819513 520:0.41819513 521:0.30645362 522:0.096778229 523:0.084093764 524:0.10930096 525:0.48678485 526:0.48678485 527:0.48678485 528:0.48678485 529:0.16368406 530:0.059791245 531:0.052688852 532:0.15808141 533:0.13472132 534:0.17526637 535:0.39710829 536:0.39710829 537:0.39710829 538:0.39710829 539:0.39710829 540:0.37103534 541:0.37296113 542:0.37296113 543:0.26071268 544:0.12320318 545:0.37296113 546:0.28679216 547:0.37296113 548:0.37296113 549:0.37296113 550:0.35595253 551:0.35595253 552:0.35595253 553:0.35595253 554:0.35595253 555:0.35595253 556:0.28539017 557:0.21077047 558:0.33751306 559:0.34162933 560:0.34162933 561:0.33870575 562:0.30401933 563:0.34162933 564:0.34162933 565:0.34162933 566:0.30428106 567:0.34162933 568:0.073483132 569:0.1429663 570:0.27925423 571:0.41083625 572:0.46515366 573:0.46515366 574:0.46515366 575:0.26553404 576:0.088200912 577:0.32284757 578:0.28517652 579:0.36930045 580:0.36930045 581:0.36930045 582:0.36930045 583:0.34112066 584:0.19027171 585:0.34109512 586:0.28330144 587:0.16887659 588:0.20941208 589:0.440597 590:0.440597 591:0.440597 592:0.440597 593:0.15484726 594:0.21653388 595:0.46611744 596:0.29748565 597:0.099871255 598:0.06569986 599:0.10124274 600:0.13378945 601:0.46611744 602:0.46611744 603:0.46611744 604:0.063771561 605:0.14857325 606:0.5612306 607:0.5612306 608:0.5612306 609:0.11326318 610:0.10744872 611:0.058329597 612:0.033818372 613:0.012014798 614:0.012227117 615:0.029707512 616:0.5672828 617:0.5672828 618:0.5672828 619:0.182193 620:0.0096912049 621:0.010297185 622:0.037955508 623:0.050034653 624:0.14208682 625:0.56577194 626:0.56577194 627:0.56577194 628:0.11809301 629:0.025288371 630:0.031434834 631:0.30726191 632:0.21717575 633:0.13945623 634:0.23869681 635:0.39547452 636:0.39547452 637:0.39547452 638:0.39547452 639:0.39547452 640:0.34806266 641:0.33887321 642:0.34806266 643:0.20412178 644:0.34806266 645:0.34148735 646:0.34806266 647:0.34806266 648:0.34806266 649:0.4816432 650:0.37554973 651:0.2048094 652:0.16563962 653:0.18739414 654:0.11956027 655:0.21030267 656:0.4816432 657:0.4816432 658:0.10918325 659:0.3721008 660:0.3721008 661:0.3721008 662:0.3721008 663:0.3721008 664:0.3721008 665:0.3721008 666:0.13735287 667:0.13128123 668:0.17337441 669:0.25660121 670:0.2529673 671:0.4056772 672:0.4056772 673:0.4056772 674:0.4056772 675:0.4056772 676:0.20727144 677:0.14772375 678:0.11015379 679:0.22327732 680:0.42875198 681:0.42875198 682:0.42875198 683:0.42875198 684:0.37137139 685:0.34184241 686:0.34184241 687:0.34184241 688:0.25524545 689:0.34184241 690:0.34184241 691:0.34184241 692:0.34184241 693:0.34184241 694:0.082709558 695:0.3848168 696:0.3848168 697:0.3848168 698:0.3848168 699:0.3848168 700:0.3848168 701:0.26689154 702:0.18282317 703:0.17598605 704:0.31579936 705:0.41197804 706:0.41197804 707:0.41197804 708:0.41197804 709:0.41197804 710:0.090078913 711:0.11205354 712:0.30018103 713:0.19821939 714:0.13703446 715:0.3443495 716:0.38294789 717:0.38294789 718:0.38294789 719:0.38294789 720:0.38294789 721:0.39523551 722:0.39523551 723:0.14698544 724:0.090506352 725:0.39523551 726:0.1969588 727:0.38775712 728:0.39523551 729:0.39523551 730:0.35242584 731:0.35242584 732:0.35242584 733:0.35242584 734:0.35242584 735:0.35242584 736:0.35242584 737:0.28521016 738:0.22187272 739:0.33642519 740:0.33642519 741:0.33642519 742:0.33642519 743:0.33642519 744:0.33642519 745:0.33642519 746:0.30748129 747:0.33642519 748:0.15003617 749:0.21703319 750:0.28342479 751:0.30048814 752:0.42214489 753:0.42214489 754:0.42214489 755:0.42214489 756:0.21665122 757:0.15580033 758:0.14963086 759:0.44025022 760:0.44025022 761:0.44025022 762:0.44025022 763:0.36910751 764:0.13425912 765:0.15423976 766:0.21305716 767:0.29635581 768:0.32222873 769:0.35664591 770:0.35664591 771:0.35664591 772:0.35664591 773:0.35664591 774:0.35632423 775:0.40240207 776:0.15582554 777:0.066824526 778:0.17946945 779:0.3597309 780:0.40240207 781:0.40240207 782:0.40240207 783:0.40240207 784:0.037323155 785:0.22442301 786:0.55145824 787:0.55145824 788:0.55145824 789:0.15136258 790:0.088189922 791:0.062150352 792:0.0370396 793:0.018577851 794:0.029996658 795:0.19070171 796:0.63406092 797:0.63406092 798:0.39572349 799:0.037910413 800:0.0041397577 801:0.016432881 802:0.048693724 803:0.016647536 804:0.29137582 805:0.54503995 806:0.54503995 807:0.54503995 808:0.13253136 809:0.037043776 810:0.048057225 811:0.37559521 812:0.26168007 813:0.20836593 814:0.2041485 815:0.37559521 816:0.37559521 817:0.37559521 818:0.37559521 819:0.37559521 820:0.33607984 821:0.3530516 822:0.23232129 823:0.19269834 824:0.36964962 825:0.35317951 826:0.36964962 827:0.36964962 828:0.36964962 829:0.46995917 830:0.46995917 831:0.1407245 832:0.068539895 833:0.23165499 834:0.12266321 835:0.15278144 836:0.46995917 837:0.46995917 838:0.10521802 839:0.20333539 840:0.30761042 841:0.3317408 842:0.38546279 843:0.38546279 844:0.38546279 845:0.38546279 846:0.38546279 847:0.42092112 848:0.15040711 849:0.12645987 850:0.11873889 851:0.24781802 852:0.42092112 853:0.42092112 854:0.42092112 855:0.42092112 856:0.33333331 857:0.33333331 858:0.33333331 859:0.33333331 860:0.33333331 861:0.33333331 862:0.33333331 863:0.33333331 864:0.33333331 865:0.32593367 866:0.35558876 867:0.29708499 868:0.37679043 869:0.37679043 870:0.37679043 871:0.37679043 872:0.27550617 873:0.18782076 874:0.19620922 875:0.21208538 876:0.3543227 877:0.39188004 878:0.39188004 879:0.39188004 880:0.39188004 881:0.39188004 882:0.15207642 883:0.067975692 884:0.10660073 885:0.47387254 886:0.47387254 887:0.47387254 888:0.47387254 889:0.28616536 890:0.042293593 891:0.045995563 892:0.17225353 893:0.13494252 894:0.13744277 895:0.3966696 896:0.3966696 897:0.3966696 898:0.3966696 899:0.3966696 900:0.3827464 
1 1 1:0.33875254 2:0.33875254 3:0.33875254 4:0.28631029 5:0.33875254 6:0.33875254 7:0.33875254 8:0.33875254 9:0.33875254 10:0.098498248 11:0.029266659 12:0.1238499 13:0.66960579 14:0.66960579 15:0.21763043 16:0.13507888 17:0.069153734 18:0.083470814 19:0.042798348 20:0.1006647 21:0.26031423 22:0.6779083 23:0.6779083 24:0.00075106829 25:0.00030207049 26:0.0072831335 27:0.0331426 28:0.018871251 29:0.07669615 30:0.36408699 31:0.63781351 32:0.63781351 33:0.21697186 34:0.0082303183 35:0.0043025357 36:0.020665908 37:0.28421134 38:0.16463652 39:0.47158816 40:0.47158816 41:0.47158816 42:0.088365763 43:0.062900268 44:0.2004862 45:0.41589996 46:0.075649016 47:0.052709792 48:0.19334559 49:0.47411773 50:0.59316671 51:0.59316671 52:0.14680123 53:0.021364782 54:0.060235683 55:0.33394569 56:0.26594511 57:0.34932998 58:0.29389983 59:0.34816566 60:0.34932998 61:0.34932998 62:0.34932998 63:0.34932998 64:0.39464992 65:0.39464992 66:0.39464992 67:0.39464992 68:0.39464992 69:0.20172769 70:0.25185472 71:0.18450661 72:0.28825277 73:0.15965 74:0.25882965 75:0.46310237 76:0.46310237 77:0.46310237 78:0.35117987 79:0.28501526 80:0.17043129 81:0.17469946 82:0.2165235 83:0.30474961 84:0.39404175 85:0.39404175 86:0.39404175 87:0.39404175 88:0.39404175 89:0.19347966 90:0.21556035 91:0.26013348 92:0.22106475 93:0.26531404 94:0.22387883 95:0.39062712 96:0.39062712 97:0.39062712 98:0.39062712 99:0.39062712 100:0.19055949 101:0.098906301 102:0.15838692 103:0.26415271 104:0.46142942 105:0.46142942 106:0.46142942 107:0.31688464 108:0.34622878 109:0.20171951 110:0.29868856 111:0.41319957 112:0.41319957 113:0.41319957 114:0.41319957 115:0.39762658 116:0.11721142 117:0.12374716 118:0.34976321 119:0.34976321 120:0.34976321 121:0.34976321 122:0.34976321 123:0.30104259 124:0.34976321 125:0.34976321 126:0.23028964 127:0.28332466 128:0.33988288 129:0.33988288 130:0.33988288 131:0.33988288 132:0.33329368 133:0.33988288 134:0.33988288 135:0.33988288 136:0.29344663 137:0.34536454 138:0.34536454 139:0.34536454 140:0.34536454 141:0.34536454 142:0.34536454 143:0.34536454 144:0.28098458 145:0.20054539 146:0.24277781 147:0.40588805 148:0.37165275 149:0.40588805 150:0.40588805 151:0.40588805 152:0.28704348 153:0.14608282 154:0.33333331 155:0.33333331 156:0.33333331 157:0.33333331 158:0.33333331 159:0.33333331 160:0.33333331 161:0.33333331 162:0.33333331 163:0.33333331 164:0.33333331 165:0.33333331 166:0.33333331 167:0.33333331 168:0.33333331 169:0.33333331 170:0.33333331 171:0.33333331 172:0.36045259 173:0.36045259 174:0.14617474 175:0.26382503 176:0.35982338 177:0.36045259 178:0.36045259 179:0.36045259 180:0.36045259 181:0.27400351 182:0.45709261 183:0.47190458 184:0.47190458 185:0.47190458 186:0.17824972 187:0.06749294 188:0.046026874 189:0.097262107 190:0.074893594 191:0.15250514 192:0.68545091 193:0.68545091 194:0.1746781 195:0.016539183 196:0.0043418817 197:0.0073951101 198:0.024241125 199:0.094819866 200:0.13438296 201:0.44395351 202:0.62082374 203:0.62082374 204:0.0083166622 205:0.0088605015 206:0.017477576 207:0.067514643 208:0.1549716 209:0.10835733 210:0.4677183 211:0.4677183 212:0.4677183 213:0.4677183 214:0.21165915 215:0.12598424 216:0.1689056 217:0.28878656 218:0.33882073 219:0.47099966 220:0.47099966 221:0.47099966 222:0.20407903 223:0.014618326 224:0.026033929 225:0.30617169 226:0.031415001 227:0.061457202 228:0.097515255 229:0.54118711 230:0.54118711 231:0.54118711 232:0.29469445 233:0.1390515 234:0.029941559 235:0.12612024 236:0.21928951 237:0.37396598 238:0.37396598 239:0.37396598 240:0.37396598 241:0.37396598 242:0.37396598 243:0.31129169 244:0.36331764 245:0.36331764 246:0.36331764 247:0.36331764 248:0.36331764 249:0.36331764 250:0.19683184 251:0.19302651 252:0.36331764 253:0.3460266 254:0.3460266 255:0.3460266 256:0.3460266 257:0.3460266 258:0.31003377 259:0.32326227 260:0.28455958 261:0.3460266 262:0.38716358 263:0.38716358 264:0.38716358 265:0.38716358 266:0.17662306 267:0.20078363 268:0.29909629 269:0.2992548 270:0.38716358 271:0.3402476 272:0.3402476 273:0.3402476 274:0.3402476 275:0.29518294 276:0.32013729 277:0.3402476 278:0.3402476 279:0.3402476 280:0.34313703 281:0.34313703 282:0.34313703 283:0.30710781 284:0.34313703 285:0.34313703 286:0.33801255 287:0.29150319 288:0.34313703 289:0.069043435 290:0.12078344 291:0.543172 292:0.543172 293:0.543172 294:0.25606555 295:0.14159539 296:0.043519109 297:0.089577965 298:0.2079528 299:0.076266319 300:0.20931092 301:0.43488583 302:0.43488583 303:0.43488583 304:0.43488583 305:0.29542938 306:0.25168768 307:0.37729898 308:0.37729898 309:0.17371765 310:0.37729898 311:0.37729898 312:0.37729898 313:0.37729898 314:0.2532534 315:0.22706327 316:0.21420655 317:0.38001367 318:0.43172354 319:0.43172354 320:0.43172354 321:0.43172354 322:0.17328626 323:0.092218958 324:0.16009966 325:0.047307897 326:0.089846909 327:0.18052275 328:0.41983479 329:0.51959252 330:0.51959252 331:0.46322677 332:0.044342071 333:0.15601835 334:0.17534199 335:0.30758402 336:0.45501155 337:0.45501155 338:0.45501155 339:0.45501155 340:0.13893829 341:0.096272148 342:0.13391465 343:0.37437204 344:0.37437204 345:0.21201816 346:0.29161492 347:0.37437204 348:0.37437204 349:0.37437204 350:0.27031729 351:0.31010568 352:0.2079528 353:0.076266319 354:0.20931092 355:0.43488583 356:0.43488583 357:0.43488583 358:0.43488583 359:0.29542938 360:0.25168768 361:0.4173384 362:0.20002238 363:0.14448191 364:0.15931776 365:0.39356419 366:0.27635351 367:0.39994478 368:0.4173384 369:0.4173384 370:0.051329885 371:0.021400347 372:0.050938811 373:0.69674033 374:0.69674033 375:0.13426563 376:0.048217922 377:0.0024629948 378:0.055316981 379:0.10234854 380:0.073425055 381:0.22130498 382:0.67042643 383:0.67042643 384:0.045276135 385:0.03864323 386:0.1137166 387:0.1404987 388:0.033731095 389:0.047131106 390:0.32339221 391:0.64389557 392:0.64389557 393:0.24825485 394:0.016312888 395:0.013116647 396:0.028050985 397:0.35366103 398:0.35366103 399:0.35366103 400:0.35366103 401:0.35366103 402:0.16161822 403:0.31360289 404:0.35366103 405:0.35366103 406:0.046897363 407:0.034371477 408:0.11291189 409:0.46023473 410:0.60821831 411:0.60821831 412:0.15737669 413:0.063602656 414:0.058158528 415:0.1572555 416:0.1606869 417:0.21714516 418:0.18041533 419:0.3155866 420:0.44791526 421:0.44791526 422:0.44791526 423:0.41020679 424:0.34871814 425:0.43289852 426:0.43289852 427:0.43289852 428:0.43289852 429:0.18124229 430:0.11074909 431:0.091219723 432:0.27451059 433:0.26007944 434:0.43583104 435:0.46694657 436:0.46694657 437:0.46694657 438:0.13396055 439:0.073109835 440:0.063115939 441:0.24701937 442:0.18259251 443:0.23464279 444:0.44783196 445:0.44783196 446:0.44783196 447:0.44783196 448:0.22926253 449:0.14077552 450:0.19237931 451:0.33866566 452:0.33866566 453:0.2871314 454:0.33866566 455:0.33866566 456:0.33866566 457:0.33866566 458:0.33866566 459:0.33866566 460:0.155031 461:0.077294618 462:0.097066104 463:0.21958318 464:0.45593685 465:0.45593685 466:0.45593685 467:0.45543605 468:0.28512281 469:0.16884352 470:0.26655239 471:0.49904725 472:0.49904725 473:0.49904725 474:0.23709992 475:0.2285403 476:0.12097508 477:0.17382537 478:0.31788063 479:0.33521485 480:0.33521485 481:0.33521485 482:0.33521485 483:0.33521485 484:0.33521485 485:0.33521485 486:0.33521485 487:0.33751637 488:0.33751637 489:0.33751637 490:0.33751637 491:0.33751637 492:0.33751637 493:0.33751637 494:0.33751637 495:0.2977612 496:0.29338995 497:0.22338653 498:0.37454644 499:0.37454644 500:0.37454644 501:0.37454644 502:0.37454644 503:0.21808849 504:0.33916512 505:0.085898034 506:0.12406721 507:0.46341664 508:0.30186406 509:0.46341664 510:0.46341664 511:0.46341664 512:0.13093171 513:0.099719457 514:0.33635831 515:0.33635831 516:0.33635831 517:0.33635831 518:0.33635831 519:0.33635831 520:0.3080664 521:0.33635831 522:0.33635831 523:0.33848798 524:0.33848798 525:0.33848798 526:0.33848798 527:0.33848798 528:0.33848798 529:0.28880289 530:0.33848798 531:0.33848798 532:0.37076071 533:0.37076071 534:0.1315605 535:0.24464911 536:0.37076071 537:0.32121363 538:0.36378989 539:0.37076071 540:0.37076071 541:0.34206417 542:0.34206417 543:0.34206417 544:0.25285721 545:0.34206417 546:0.34206417 547:0.34206417 548:0.34206417 549:0.34206417 550:0.069283642 551:0.052164655 552:0.1083738 553:0.67595065 554:0.67595065 555:0.2035203 556:0.10272923 557:0.067837402 558:0.1016838 559:0.12577033 560:0.082945883 561:0.17492977 562:0.68649453 563:0.68649453 564:0.010511916 565:0.0035533223 566:0.0054224278 567:0.063240953 568:0.022310751 569:0.060055278 570:0.34628075 571:0.58886701 572:0.58886701 573:0.42612404 574:0.02168392 575:0.014190474 576:0.014253565 577:0.099075235 578:0.20880602 579:0.40370354 580:0.58889949 581:0.58889949 582:0.13581027 583:0.11294975 584:0.2008546 585:0.13585933 586:0.071337298 587:0.03789198 588:0.12006428 589:0.36073062 590:0.61208099 591:0.61208099 592:0.3089332 593:0.007278577 594:0.064453438 595:0.29235914 596:0.28896341 597:0.37081668 598:0.22636658 599:0.30374226 600:0.37081668 601:0.37081668 602:0.37081668 603:0.37081668 604:0.33544225 605:0.45867392 606:0.45867392 607:0.45867392 608:0.45867392 609:0.1105633 610:0.078549661 611:0.067239739 612:0.15177569 613:0.18666583 614:0.30564144 615:0.4618479 616:0.4618479 617:0.4618479 618:0.37150198 619:0.21840116 620:0.16906431 621:0.13241246 622:0.11089908 623:0.23751132 624:0.45227799 625:0.45227799 626:0.45227799 627:0.45227799 628:0.16177437 629:0.13833135 630:0.26031098 631:0.19926639 632:0.15636167 633:0.19029845 634:0.18855424 635:0.41773757 636:0.41773757 637:0.41773757 638:0.41773757 639:0.40750331 640:0.22535765 641:0.12172244 642:0.1913439 643:0.30500904 644:0.47525886 645:0.47525886 646:0.47525886 647:0.29002026 648:0.20743625 649:0.1166132 650:0.17100009 651:0.44991675 652:0.44991675 653:0.44991675 654:0.44991675 655:0.34387168 656:0.10236755 657:0.13686931 658:0.33575946 659:0.33575946 660:0.33575946 661:0.33575946 662:0.33575946 663:0.31324852 664:0.33575946 665:0.33575946 666:0.33575946 667:0.34014159 668:0.34014159 669:0.34014159 670:0.34014159 671:0.34014159 672:0.28606433 673:0.329079 674:0.34014159 675:0.34014159 676:0.23874643 677:0.34332931 678:0.34332931 679:0.34332931 680:0.34332931 681:0.34332931 682:0.34332931 683:0.34332931 684:0.34332931 685:0.14523461 686:0.44664425 687:0.44664425 688:0.44664425 689:0.33211231 690:0.44664425 691:0.22287013 692:0.096132196 693:0.10831198 694:0.33634096 695:0.33634096 696:0.33634096 697:0.33634096 698:0.33634096 699:0.33634096 700:0.33634096 701:0.30821735 702:0.33634096 703:0.339746 704:0.339746 705:0.339746 706:0.339746 707:0.339746 708:0.339746 709:0.27673319 710:0.339746 711:0.339746 712:0.35412911 713:0.35412911 714:0.24514727 715:0.32534435 716:0.35412911 717:0.35412911 718:0.28567329 719:0.35412911 720:0.35412911 721:0.35612905 722:0.28156751 723:0.35612905 724:0.23060243 725:0.3264581 726:0.35612905 727:0.35612905 728:0.35612905 729:0.35612905 730:0.023445878 731:0.06643264 732:0.19919452 733:0.68040991 734:0.68040991 735:0.16630153 736:0.017392676 737:0.025803372 738:0.028611684 739:0.1344057 740:0.19738615 741:0.36548612 742:0.63486266 743:0.63486266 744:0.028973384 745:0.00097165315 746:0.01140453 747:0.048188977 748:0.018186081 749:0.065315291 750:0.39408576 751:0.63091016 752:0.63091016 753:0.20861495 754:0.01188054 755:0.0096954312 756:0.015775835 757:0.22556746 758:0.21656424 759:0.41590166 760:0.55138183 761:0.55138183 762:0.081305891 763:0.12827578 764:0.054121181 765:0.30855596 766:0.072601244 767:0.044151716 768:0.18533042 769:0.52584004 770:0.54737759 771:0.54737759 772:0.27735481 773:0.03303735 774:0.068286695 775:0.29831412 776:0.34529769 777:0.36547375 778:0.29186353 779:0.19682123 780:0.36547375 781:0.36547375 782:0.36547375 783:0.36547375 784:0.43115878 785:0.43115878 786:0.43115878 787:0.43115878 788:0.43115878 789:0.10938568 790:0.13051462 791:0.11165781 792:0.17042205 793:0.12763055 794:0.31606418 795:0.46226695 796:0.46226695 797:0.46226695 798:0.2841529 799:0.36625394 800:0.12854828 801:0.10645302 802:0.38039672 803:0.39129832 804:0.39129832 805:0.39129832 806:0.39129832 807:0.39129832 808:0.24995719 809:0.13715161 810:0.091854885 811:0.18162547 812:0.10339495 813:0.18677704 814:0.26317325 815:0.39093477 816:0.42321432 817:0.42321432 818:0.42321432 819:0.40251067 820:0.18831749 821:0.21196114 822:0.20026164 823:0.25857928 824:0.42769843 825:0.42769843 826:0.42769843 827:0.28449458 828:0.42769843 829:0.15217368 830:0.19325623 831:0.45226419 832:0.45226419 833:0.45226419 834:0.42838958 835:0.25760826 836:0.21427262 837:0.17341872 838:0.33950678 839:0.37330309 840:0.37330309 841:0.37330309 842:0.37330309 843:0.35354131 844:0.22859107 845:0.2727094 846:0.27513397 847:0.33451879 848:0.32369351 849:0.33451879 850:0.33451879 851:0.33451879 852:0.33451879 853:0.33451879 854:0.33451879 855:0.33451879 856:0.26361361 857:0.30589098 858:0.36908466 859:0.36908466 860:0.36908466 861:0.36908466 862:0.36908466 863:0.35570267 864:0.17116304 865:0.18304798 866:0.40142027 867:0.40142027 868:0.37080187 869:0.40142027 870:0.40142027 871:0.40142027 872:0.089321733 873:0.12381344 874:0.37299222 875:0.37299222 876:0.25423753 877:0.37299222 878:0.37299222 879:0.37299222 880:0.25394055 881:0.1901008 882:0.37299222 883:0.35695955 884:0.35695955 885:0.35695955 886:0.35695955 887:0.35695955 888:0.35695955 889:0.15906683 890:0.28767529 891:0.35695955 892:0.33764926 893:0.33764926 894:0.29655331 895:0.33764926 896:0.33764926 897:0.33764926 898:0.33764926 899:0.33764926 900:0.33764926 
1 1 1:0.34842664 2:0.34808913 3:0.34842664 4:0.34842664 5:0.34842664 6:0.34842664 7:0.34842664 8:0.34842664 9:0.1703704 10:0.16482575 11:0.094105445 12:0.20724766 13:0.49836615 14:0.49836615 15:0.49836615 16:0.33767071 17:0.20364226 18:0.14292286 19:0.36364368 20:0.22706789 21:0.36572996 22:0.38251787 23:0.38251787 24:0.38251787 25:0.34295741 26:0.27894756 27:0.21921173 28:0.028113214 29:0.046453435 30:0.43192998 31:0.43192998 32:0.43192998 33:0.43192998 34:0.43192998 35:0.24899177 36:0.047301225 37:0.24670629 38:0.3546859 39:0.21340123 40:0.42107728 41:0.42107728 42:0.42107728 43:0.34924719 44:0.17207165 45:0.29033327 46:0.071440257 47:0.080794647 48:0.22547951 49:0.55398077 50:0.55398077 51:0.55398077 52:0.11153401 53:0.053844657 54:0.038783506 55:0.20754977 56:0.41582307 57:0.41582307 58:0.41582307 59:0.41582307 60:0.41582307 61:0.21571888 62:0.11225003 63:0.18232997 64:0.47482574 65:0.47482574 66:0.47482574 67:0.3886708 68:0.19436917 69:0.15055665 70:0.14043258 71:0.16192813 72:0.25723091 73:0.37248912 74:0.37248912 75:0.37248912 76:0.37248912 77:0.37248912 78:0.37248912 79:0.27907819 80:0.20479138 81:0.21837315 82:0.10112089 83:0.25529498 84:0.43685502 85:0.43685502 86:0.43685502 87:0.43685502 88:0.28860703 89:0.25128654 90:0.12161746 91:0.17580803 92:0.20627151 93:0.26553658 94:0.43742585 95:0.43742585 96:0.43742585 97:0.43742585 98:0.26997098 99:0.13335678 100:0.36676642 101:0.29812896 102:0.28890514 103:0.14334284 104:0.36676642 105:0.36676642 106:0.36676642 107:0.36676642 108:0.36676642 109:0.048977647 110:0.053756509 111:0.082370229 112:0.44278699 113:0.4810572 114:0.4810572 115:0.4810572 116:0.29831058 117:0.092892699 118:0.040102594 119:0.054720737 120:0.22258228 121:0.55899233 122:0.55899233 123:0.55899233 124:0.084185578 125:0.020190796 126:0.030696603 127:0.20896806 128:0.23115091 129:0.42540029 130:0.42540029 131:0.42540029 132:0.42540029 133:0.34657013 134:0.15678893 135:0.18532735 136:0.041588619 137:0.15458837 138:0.45823011 139:0.45823011 140:0.45823011 141:0.45823011 142:0.34711477 143:0.082946993 144:0.08428932 145:0.11384311 146:0.24154007 147:0.4568477 148:0.4568477 149:0.4568477 150:0.4568477 151:0.27478755 152:0.09388753 153:0.097651392 154:0.39987659 155:0.33567077 156:0.39987659 157:0.39987659 158:0.39987659 159:0.35387164 160:0.244807 161:0.14882697 162:0.20103461 163:0.26140913 164:0.2180704 165:0.40128481 166:0.40128481 167:0.40128481 168:0.40128481 169:0.25868553 170:0.2665135 171:0.3194446 172:0.35241151 173:0.26218888 174:0.35241151 175:0.24879715 176:0.35241151 177:0.35241151 178:0.35241151 179:0.35241151 180:0.35241151 181:0.32879078 182:0.23861217 183:0.34536958 184:0.34536958 185:0.34536958 186:0.34536958 187:0.34536958 188:0.34536958 189:0.34536958 190:0.14645772 191:0.078681618 192:0.11969797 193:0.45355204 194:0.45355204 195:0.45355204 196:0.45355204 197:0.21787421 198:0.29618371 199:0.32865393 200:0.056379441 201:0.17054188 202:0.42140332 203:0.42140332 204:0.42140332 205:0.30808562 206:0.25697204 207:0.40746757 208:0.043207873 209:0.081690542 210:0.19866738 211:0.48642093 212:0.48642093 213:0.48642093 214:0.48642093 215:0.047542918 216:0.057528414 217:0.11998748 218:0.23860808 219:0.35746691 220:0.53725559 221:0.53725559 222:0.41858944 223:0.094594628 224:0.1210021 225:0.15745705 226:0.17961076 227:0.19862475 228:0.39020604 229:0.49337038 230:0.49337038 231:0.49337038 232:0.13170888 233:0.077471949 234:0.14978388 235:0.37233025 236:0.35049102 237:0.37233025 238:0.37233025 239:0.37233025 240:0.37233025 241:0.34119871 242:0.13996543 243:0.21908942 244:0.35182685 245:0.35182685 246:0.35182685 247:0.35182685 248:0.35182685 249:0.23590137 250:0.27906209 251:0.35182685 252:0.35182685 253:0.36877611 254:0.36877611 255:0.36877611 256:0.36877611 257:0.36877611 258:0.36877611 259:0.32989722 260:0.22540164 261:0.15616284 262:0.31086478 263:0.11826053 264:0.19960718 265:0.43956134 266:0.43956134 267:0.43956134 268:0.39783359 269:0.25083363 270:0.22068739 271:0.13007809 272:0.073018037 273:0.40071887 274:0.43885908 275:0.43885908 276:0.43885908 277:0.39780846 278:0.24277009 279:0.14896873 280:0.34017071 281:0.3099685 282:0.3064422 283:0.34017071 284:0.34017071 285:0.34017071 286:0.34017071 287:0.34017071 288:0.34017071 289:0.058213882 290:0.069776095 291:0.11825521 292:0.19304875 293:0.47078547 294:0.47078547 295:0.47078547 296:0.47078547 297:0.23223825 298:0.021462062 299:0.013508286 300:0.093571708 301:0.57021272 302:0.57021272 303:0.57021272 304:0.11664303 305:0.029532317 306:0.026379479 307:0.12592238 308:0.084044769 309:0.4573184 310:0.47902134 311:0.47902134 312:0.47902134 313:0.22101326 314:0.12911129 315:0.11848622 316:0.050290789 317:0.08494506 318:0.22214577 319:0.42806056 320:0.42806056 321:0.42806056 322:0.42806056 323:0.42806056 324:0.15724847 325:0.10665834 326:0.3990286 327:0.57167339 328:0.57167339 329:0.41835922 330:0.0013051163 331:0.010361368 332:0.0092632193 333:0.023663025 334:0.33572921 335:0.33572921 336:0.33572921 337:0.33572921 338:0.33572921 339:0.33572921 340:0.31350774 341:0.33572921 342:0.33572921 343:0.33532807 344:0.33532807 345:0.31692374 346:0.33532807 347:0.33532807 348:0.33532807 349:0.33532807 350:0.33532807 351:0.33532807 352:0.31767979 353:0.21117578 354:0.34938398 355:0.34938398 356:0.34938398 357:0.34938398 358:0.34938398 359:0.34938398 360:0.34938398 361:0.35550138 362:0.25208694 363:0.35550138 364:0.35550138 365:0.35550138 366:0.35550138 367:0.33184785 368:0.26084834 369:0.35550138 370:0.14090535 371:0.19543378 372:0.26803598 373:0.43958804 374:0.43958804 375:0.43958804 376:0.40719527 377:0.27901438 378:0.21618976 379:0.22918354 380:0.13344893 381:0.094872765 382:0.43140337 383:0.51434261 384:0.51434261 385:0.3661786 386:0.15282884 387:0.21912649 388:0.16097984 389:0.1482408 390:0.17185076 391:0.47174054 392:0.47174054 393:0.47174054 394:0.46296006 395:0.11341856 396:0.1666259 397:0.30444887 398:0.23526132 399:0.41345546 400:0.41345546 401:0.41345546 402:0.3208032 403:0.25282052 404:0.26013145 405:0.3234587 406:0.21288596 407:0.18146902 408:0.33866543 409:0.50859433 410:0.50859433 411:0.50859433 412:0.1192599 413:0.088230118 414:0.095090479 415:0.34678498 416:0.34678498 417:0.34678498 418:0.34678498 419:0.34678498 420:0.34678498 421:0.34678498 422:0.27700299 423:0.28539532 424:0.35329664 425:0.35329664 426:0.35329664 427:0.35329664 428:0.35329664 429:0.21004435 430:0.28662139 431:0.35329664 432:0.35329664 433:0.35663643 434:0.35663643 435:0.35663643 436:0.35663643 437:0.35663643 438:0.35663643 439:0.18549651 440:0.32128215 441:0.3150104 442:0.14520068 443:0.18132657 444:0.33679155 445:0.47198787 446:0.47198787 447:0.47198787 448:0.3140879 449:0.20821002 450:0.14929366 451:0.11833665 452:0.12362544 453:0.40134454 454:0.40596128 455:0.40596128 456:0.40596128 457:0.40596128 458:0.32573834 459:0.21050443 460:0.32414964 461:0.32097456 462:0.30537081 463:0.3446081 464:0.3446081 465:0.3446081 466:0.3446081 467:0.3446081 468:0.32384771 469:0.097461797 470:0.02277266 471:0.079978243 472:0.13758987 473:0.4666256 474:0.48281667 475:0.48281667 476:0.48281667 477:0.21812835 478:0.03200791 479:0.02803923 480:0.09492784 481:0.57167673 482:0.57167673 483:0.57167673 484:0.080362536 485:0.044540402 486:0.01712334 487:0.17407927 488:0.17170362 489:0.37571779 490:0.46296805 491:0.46296805 492:0.46296805 493:0.36324853 494:0.064509593 495:0.14114234 496:0.11046496 497:0.10850196 498:0.36874837 499:0.38709396 500:0.38709396 501:0.3855294 502:0.30339679 503:0.38709396 504:0.38709396 505:0.076365024 506:0.48130891 507:0.49940732 508:0.49940732 509:0.49940732 510:0.11184241 511:0.0037501303 512:0.005994576 513:0.041573323 514:0.33333331 515:0.33333331 516:0.33333331 517:0.33333331 518:0.33333331 519:0.33333331 520:0.33333331 521:0.33333331 522:0.33333331 523:0.33333331 524:0.33333331 525:0.33333331 526:0.33333331 527:0.33333331 528:0.33333331 529:0.33333331 530:0.33333331 531:0.33333331 532:0.32284537 533:0.28668153 534:0.35140967 535:0.35140967 536:0.35140967 537:0.35140967 538:0.33534658 539:0.31785372 540:0.3257933 541:0.33765763 542:0.26299271 543:0.34159756 544:0.34159756 545:0.34159756 546:0.34159756 547:0.34159756 548:0.34159756 549:0.34159756 550:0.24846031 551:0.18933403 552:0.16430393 553:0.50253206 554:0.50253206 555:0.50253206 556:0.25655851 557:0.095914982 558:0.20685035 559:0.28031191 560:0.18539041 561:0.26810616 562:0.4039897 563:0.4039897 564:0.4039897 565:0.34859866 566:0.34009197 567:0.29726776 568:0.05399964 569:0.13549845 570:0.15491229 571:0.48232839 572:0.48232839 573:0.48232839 574:0.48232839 575:0.12329712 576:0.094665535 577:0.19233002 578:0.25852191 579:0.4798075 580:0.4798075 581:0.4798075 582:0.36949348 583:0.14866099 584:0.16192973 585:0.14381616 586:0.11089114 587:0.19078209 588:0.48092958 589:0.48092958 590:0.48092958 591:0.48092958 592:0.11817113 593:0.051604684 594:0.097492971 595:0.28049052 596:0.33140224 597:0.4045071 598:0.4045071 599:0.4045071 600:0.4045071 601:0.26618102 602:0.21443023 603:0.2004018 604:0.47586226 605:0.47586226 606:0.47586226 607:0.31492406 608:0.18048522 609:0.11918482 610:0.1721426 611:0.2222794 612:0.30930078 613:0.30604476 614:0.27870476 615:0.3695305 616:0.3695305 617:0.3695305 618:0.3695305 619:0.33463752 620:0.18415779 621:0.3695305 622:0.15055947 623:0.1943536 624:0.3161138 625:0.38716164 626:0.38716164 627:0.38716164 628:0.38716164 629:0.30026621 630:0.38716164 631:0.15836377 632:0.17688332 633:0.40762562 634:0.40762562 635:0.40762562 636:0.40762562 637:0.40762562 638:0.18855079 639:0.27800846 640:0.33957782 641:0.28189814 642:0.3366628 643:0.33957782 644:0.33957782 645:0.33957782 646:0.33957782 647:0.33957782 648:0.33957782 649:0.059537485 650:0.03805723 651:0.13892062 652:0.30674598 653:0.4813759 654:0.4813759 655:0.4813759 656:0.42094645 657:0.096180424 658:0.066591203 659:0.049112707 660:0.10388666 661:0.56288397 662:0.56288397 663:0.56288397 664:0.14893092 665:0.066645011 666:0.072277844 667:0.04080829 668:0.10843527 669:0.40877441 670:0.45907733 671:0.45907733 672:0.45907733 673:0.4076305 674:0.10583112 675:0.099303104 676:0.070331253 677:0.11992004 678:0.31764498 679:0.46397051 680:0.46397051 681:0.46397051 682:0.46397051 683:0.096878245 684:0.096510768 685:0.12693743 686:0.45122352 687:0.50405729 688:0.50405729 689:0.50405729 690:0.10832696 691:0.026346132 692:0.0099512329 693:0.074398644 694:0.39253128 695:0.39253128 696:0.39253128 697:0.39253128 698:0.39253128 699:0.39253128 700:0.21822076 701:0.11489918 702:0.12121496 703:0.29966435 704:0.34213984 705:0.34213984 706:0.34213984 707:0.34213984 708:0.34213984 709:0.34213984 710:0.34213984 711:0.30130339 712:0.22663483 713:0.12057927 714:0.21044062 715:0.43271556 716:0.43271556 717:0.43271556 718:0.43271556 719:0.3077468 720:0.21478589 721:0.19174764 722:0.30599749 723:0.39315459 724:0.39315459 725:0.39315459 726:0.39315459 727:0.39315459 728:0.19955641 729:0.23858546 730:0.051486723 731:0.030475516 732:0.12967436 733:0.55760211 734:0.55760211 735:0.55760211 736:0.21034214 737:0.035077255 738:0.037019368 739:0.24683516 740:0.20901063 741:0.21898371 742:0.43102831 743:0.43102831 744:0.43102831 745:0.43102831 746:0.25414526 747:0.19925289 748:0.062817305 749:0.074649647 750:0.40435669 751:0.40435669 752:0.40435669 753:0.40435669 754:0.40435669 755:0.40435669 756:0.09723942 757:0.10136544 758:0.1257935 759:0.47871691 760:0.47871691 761:0.47871691 762:0.4311181 763:0.20923898 764:0.20319079 765:0.12434261 766:0.067413457 767:0.048712756 768:0.18120848 769:0.548002 770:0.548002 771:0.548002 772:0.22684968 773:0.034407008 774:0.081747957 775:0.19679572 776:0.26826832 777:0.41959679 778:0.41959679 779:0.41959679 780:0.41959679 781:0.35542628 782:0.16385341 783:0.17855462 784:0.41477287 785:0.41477287 786:0.41477287 787:0.27640313 788:0.32345647 789:0.2270031 790:0.18591215 791:0.21151197 792:0.41477287 793:0.33333331 794:0.33333331 795:0.33333331 796:0.33333331 797:0.33333331 798:0.33333331 799:0.33333331 800:0.33333331 801:0.33333331 802:0.13074249 803:0.1407889 804:0.38227239 805:0.41037461 806:0.41037461 807:0.41037461 808:0.36456409 809:0.18715875 810:0.37920371 811:0.34407604 812:0.22998592 813:0.34407604 814:0.34407604 815:0.34407604 816:0.34407604 817:0.34407604 818:0.34407604 819:0.34407604 820:0.21976787 821:0.35207179 822:0.35207179 823:0.35207179 824:0.2898626 825:0.35207179 826:0.35207179 827:0.35207179 828:0.35207179 829:0.092751302 830:0.0098835276 831:0.037419464 832:0.42025274 833:0.46948609 834:0.46948609 835:0.46948609 836:0.32903302 837:0.20921937 838:0.12451388 839:0.15886123 840:0.38406301 841:0.47855207 842:0.47855207 843:0.47855207 844:0.31608495 845:0.11574481 846:0.10682734 847:0.082477689 848:0.15034807 849:0.12874088 850:0.56364191 851:0.56364191 852:0.46974623 853:0.22091706 854:0.19186868 855:0.11115159 856:0.11298612 857:0.16051438 858:0.32510784 859:0.5029375 860:0.5029375 861:0.5029375 862:0.25781232 863:0.14916873 864:0.090649948 865:0.044763237 866:0.14896534 867:0.45475143 868:0.45475143 869:0.45475143 870:0.45475143 871:0.37325895 872:0.07540185 873:0.060019318 874:0.12602989 875:0.13779089 876:0.33035669 877:0.49061519 878:0.49061519 879:0.49061519 880:0.2400665 881:0.25013375 882:0.11698711 883:0.082477689 884:0.15034807 885:0.12874088 886:0.56364191 887:0.56364191 888:0.46974623 889:0.22091706 890:0.19186868 891:0.11115159 892:0.12451388 893:0.15886123 894:0.38406301 895:0.47855207 896:0.47855207 897:0.47855207 898:0.31608495 899:0.11574481 900:0.10682734 
1 1 1:0.29847905 2:0.16313839 3:0.26181829 4:0.3687247 5:0.3687247 6:0.3687247 7:0.3687247 8:0.3687247 9:0.3687247 10:0.049614239 11:0.018477719 12:0.14694075 13:0.56502986 14:0.56502986 15:0.56502986 16:0.10734273 17:0.031618696 18:0.072848737 19:0.019763062 20:0.00025720379 21:0.0071725301 22:0.55851209 23:0.55851209 24:0.55851209 25:0.24058396 26:0.066234782 27:0.038506545 28:0.022282949 29:0.020876314 30:0.059522372 31:0.39830199 32:0.59031343 33:0.59031343 34:0.37342641 35:0.011484971 36:0.01900309 37:0.026846664 38:0.038228512 39:0.11638481 40:0.56433338 41:0.56433338 42:0.56433338 43:0.15776734 44:0.056814346 45:0.027157998 46:0.11400917 47:0.020254482 48:0.081113249 49:0.5695132 50:0.5695132 51:0.56242323 52:0.063683204 53:0.063100398 54:0.083454259 55:0.14571655 56:0.23010869 57:0.4094989 58:0.4094989 59:0.4094989 60:0.4094989 61:0.31332502 62:0.25058299 63:0.30674905 64:0.10968696 65:0.14797923 66:0.50084269 67:0.50084269 68:0.50084269 69:0.34276119 70:0.2510035 71:0.17082024 72:0.062233493 73:0.24997178 74:0.18629046 75:0.44382691 76:0.44382691 77:0.44382691 78:0.44382691 79:0.23777944 80:0.1319371 81:0.20232192 82:0.11646382 83:0.21829373 84:0.36906359 85:0.41762954 86:0.41762954 87:0.41762954 88:0.41762954 89:0.28629452 90:0.15150504 91:0.098099649 92:0.036281791 93:0.12375648 94:0.45934695 95:0.48283932 96:0.48283932 97:0.48283932 98:0.18971676 99:0.1653816 100:0.22552635 101:0.22017516 102:0.18416643 103:0.24557197 104:0.43041041 105:0.43041041 106:0.43041041 107:0.43041041 108:0.25578362 109:0.061525702 110:0.031124549 111:0.054615088 112:0.29391763 113:0.54905987 114:0.54905987 115:0.54905987 116:0.021283161 117:0.031971764 118:0.039180044 119:0.050658092 120:0.062167123 121:0.56292903 122:0.56292903 123:0.56292903 124:0.17320065 125:0.091415569 126:0.054875631 127:0.054146051 128:0.12530272 129:0.16294846 130:0.49917418 131:0.49917418 132:0.49917418 133:0.44922227 134:0.071565688 135:0.019193886 136:0.039861381 137:0.14330241 138:0.28625685 139:0.52776724 140:0.52776724 141:0.52776724 142:0.22084583 143:0.061711684 144:0.087957367 145:0.030957427 146:0.039907675 147:0.56994855 148:0.56994855 149:0.56994855 150:0.13475367 151:0.048507158 152:0.036836516 153:0.032503877 154:0.080871724 155:0.19967501 156:0.39733523 157:0.4908528 158:0.4908528 159:0.4908528 160:0.17130546 161:0.17469895 162:0.11419092 163:0.058188513 164:0.18768717 165:0.26555517 166:0.52721876 167:0.52721876 168:0.52721876 169:0.21300016 170:0.061567865 171:0.088484369 172:0.028966025 173:0.012664737 174:0.071845882 175:0.56838948 176:0.56838948 177:0.56838948 178:0.14991182 179:0.038453255 180:0.026207466 181:0.26349264 182:0.3235594 183:0.34348652 184:0.34348652 185:0.34348652 186:0.34348652 187:0.34348652 188:0.34348652 189:0.34348652 190:0.018634707 191:0.014723051 192:0.14806314 193:0.57348651 194:0.57348651 195:0.55547202 196:0.086132161 197:0.056926314 198:0.023047186 199:0.04491166 200:0.0034557702 201:0.0045168493 202:0.53306121 203:0.58281934 204:0.58281934 205:0.15076569 206:0.096885189 207:0.048191834 208:0.016999023 209:0.027429001 210:0.14408258 211:0.34935486 212:0.64236635 213:0.64236635 214:0.17361866 215:0.018018534 216:0.02032255 217:0.037173394 218:0.037862577 219:0.23995076 220:0.55384004 221:0.55384004 222:0.55384004 223:0.13276042 224:0.019228082 225:0.037372675 226:0.095284387 227:0.061771434 228:0.064281784 229:0.3611621 230:0.64103901 231:0.64103901 232:0.14596161 233:0.036347337 234:0.089705437 235:0.041526385 236:0.069220014 237:0.3089965 238:0.46919531 239:0.46919531 240:0.46919531 241:0.46882099 242:0.12302914 243:0.051413201 244:0.35281801 245:0.17754084 246:0.35281801 247:0.35281801 248:0.35281801 249:0.35250583 250:0.31198636 251:0.35281801 252:0.35281801 253:0.052483633 254:0.31129283 255:0.3685489 256:0.47737205 257:0.47737205 258:0.47737205 259:0.27778327 260:0.053015422 261:0.029791571 262:0.055936258 263:0.020501468 264:0.21001944 265:0.48410147 266:0.48410147 267:0.48410147 268:0.48410147 269:0.11564928 270:0.039381716 271:0.17800489 272:0.18461458 273:0.26699594 274:0.45579484 275:0.45579484 276:0.45579484 277:0.44108868 278:0.17876461 279:0.11481293 280:0.2627849 281:0.11796226 282:0.23777753 283:0.3344987 284:0.41498759 285:0.41498759 286:0.41498759 287:0.41498759 288:0.24442324 289:0.049946643 290:0.028946945 291:0.083818242 292:0.37118873 293:0.51272321 294:0.51272321 295:0.51272321 296:0.20022117 297:0.15204269 298:0.08277978 299:0.093423836 300:0.16671954 301:0.55023474 302:0.55023474 303:0.55023474 304:0.15829836 305:0.13142219 306:0.077583715 307:0.14621094 308:0.093386613 309:0.11435106 310:0.55637884 311:0.55637884 312:0.55637884 313:0.148039 314:0.041350566 315:0.067286268 316:0.1269244 317:0.12513462 318:0.45315772 319:0.49236801 320:0.49236801 321:0.49236801 322:0.092428766 323:0.06211726 324:0.1523127 325:0.030031133 326:0.077423356 327:0.38039392 328:0.45728868 329:0.45728868 330:0.45728868 331:0.45728868 332:0.050736342 333:0.096841045 334:0.076812588 335:0.075121239 336:0.17023312 337:0.53911036 338:0.58798945 339:0.55492944 340:0.045295063 341:0.079140663 342:0.082729414 343:0.1109158 344:0.052149065 345:0.058564946 346:0.46184888 347:0.53477496 348:0.53477496 349:0.43022087 350:0.094771497 351:0.046945259 352:0.022856906 353:0.042282749 354:0.096286885 355:0.57073188 356:0.57073188 357:0.57073188 358:0.054699596 359:0.061659779 360:0.0664827 361:0.31950796 362:0.32755727 363:0.36998487 364:0.36998487 365:0.36998487 366:0.36998487 367:0.20805165 368:0.29961818 369:0.33167621 370:0.062360343 371:0.061451454 372:0.41416371 373:0.62590957 374:0.62590957 375:0.17613217 376:0.059127185 377:0.0307614 378:0.042577446 379:0.020467624 380:0.0097308736 381:0.036901549 382:0.57371855 383:0.57371855 384:0.57371855 385:0.091328062 386:0.038658615 387:0.028816761 388:0.01277571 389:0.021502862 390:0.045496531 391:0.35419804 392:0.54634774 393:0.54634774 394:0.52323472 395:0.025838822 396:0.02035523 397:0.070628688 398:0.074413002 399:0.32785779 400:0.50904804 401:0.50904804 402:0.50904804 403:0.30363828 404:0.1043652 405:0.038801733 406:0.018539226 407:0.020786297 408:0.13579592 409:0.57028097 410:0.57028097 411:0.57028097 412:0.068999834 413:0.0092945462 414:0.016593045 415:0.049259573 416:0.033311501 417:0.11977124 418:0.48747253 419:0.48747253 420:0.48747253 421:0.48747253 422:0.1758783 423:0.02583795 424:0.24401595 425:0.18663569 426:0.30470383 427:0.45009711 428:0.45009711 429:0.45009711 430:0.37433469 431:0.21729462 432:0.13294084 433:0.021747047 434:0.057757281 435:0.11995059 436:0.54879695 437:0.54879695 438:0.54879695 439:0.25629303 440:0.10820376 441:0.029573832 442:0.14949206 443:0.064683706 444:0.28055266 445:0.52822232 446:0.52822232 447:0.52822232 448:0.22541733 449:0.041037578 450:0.072145171 451:0.02035947 452:0.0035601333 453:0.042834256 454:0.26171887 455:0.53761595 456:0.53761595 457:0.53761595 458:0.24268486 459:0.057030078 460:0.33646047 461:0.32385901 462:0.32043058 463:0.33646047 464:0.33646047 465:0.33646047 466:0.33646047 467:0.33646047 468:0.33646047 469:0.04580795 470:0.24954101 471:0.34944507 472:0.48894185 473:0.48894185 474:0.48894185 475:0.30787811 476:0.034414984 477:0.018798051 478:0.043603655 479:0.030098215 480:0.13248323 481:0.56552672 482:0.56552672 483:0.56552672 484:0.11875474 485:0.060404692 486:0.04927757 487:0.068298779 488:0.11851685 489:0.29192793 490:0.54017526 491:0.54017526 492:0.54017526 493:0.12682578 494:0.039706048 495:0.055116121 496:0.04135349 497:0.021748764 498:0.17538039 499:0.64895225 500:0.64895225 501:0.32497141 502:0.099543594 503:0.070749216 504:0.065266527 505:0.06274648 506:0.2000715 507:0.46063894 508:0.46063894 509:0.46063894 510:0.46063894 511:0.32453689 512:0.040095568 513:0.01869625 514:0.04135349 515:0.021748764 516:0.17538039 517:0.64895225 518:0.64895225 519:0.32497141 520:0.099543594 521:0.070749216 522:0.065266527 523:0.068298779 524:0.11851685 525:0.29192793 526:0.54017526 527:0.54017526 528:0.54017526 529:0.12682578 530:0.039706048 531:0.055116121 532:0.043603655 533:0.030098215 534:0.13248323 535:0.56552672 536:0.56552672 537:0.56552672 538:0.11875474 539:0.060404692 540:0.04927757 541:0.27365682 542:0.23825395 543:0.22736818 544:0.38205782 545:0.38205782 546:0.38205782 547:0.38205782 548:0.38205782 549:0.29463518 550:0.11314398 551:0.04524501 552:0.35569158 553:0.52087116 554:0.52087116 555:0.52087116 556:0.15638459 557:0.070379794 558:0.12371358 559:0.019640833 561:0.021395031 562:0.56783575 563:0.56783575 564:0.56783575 565:0.17398942 566:0.031289276 567:0.024351297 568:0.027244126 569:0.0062658568 570:0.051820435 571:0.52441317 572:0.52441317 573:0.52441317 574:0.39988619 575:0.097017221 576:0.046738241 577:0.086711094 578:0.068781205 579:0.16705161 580:0.5550161 581:0.5550161 582:0.5550161 583:0.16643932 584:0.054123431 585:0.071302742 586:0.076389991 587:0.011631201 588:0.16068709 589:0.55962932 590:0.55962932 591:0.55962932 592:0.13527469 593:0.034671921 594:0.095669061 595:0.10358338 596:0.24617052 597:0.44817558 598:0.44817558 599:0.44817558 600:0.44817558 601:0.21538241 602:0.17303875 603:0.22111772 604:0.11273882 605:0.19384122 606:0.27357537 607:0.41310763 608:0.41310763 609:0.41310763 610:0.28568593 611:0.41310763 612:0.33260179 613:0.20523672 614:0.16420156 615:0.40268499 616:0.45550656 617:0.45550656 618:0.45550656 619:0.25863099 620:0.1101497 621:0.2593821 622:0.074307553 623:0.05527842 624:0.17113669 625:0.49647334 626:0.49647334 627:0.49647334 628:0.39119187 629:0.22688632 630:0.13479325 631:0.16158776 632:0.39086935 633:0.43476939 634:0.38441819 635:0.43476939 636:0.43476939 637:0.31091198 638:0.074959069 639:0.063046128 640:0.20716412 641:0.18442784 642:0.19016995 643:0.21459559 644:0.45990688 645:0.45990688 646:0.45990688 647:0.4111675 648:0.19300711 649:0.15216364 650:0.09827134 651:0.13111782 652:0.32374692 653:0.51226562 654:0.51226562 655:0.51226562 656:0.21880881 657:0.10029683 658:0.054297008 659:0.035860308 660:0.1483373 661:0.53968734 662:0.53968734 663:0.53968734 664:0.27518094 665:0.13705988 666:0.073923312 667:0.044601701 668:0.011668622 669:0.074668057 670:0.43525848 671:0.63187152 672:0.63187152 673:0.03927888 674:0.018383987 675:0.049448628 676:0.059015535 677:0.077127732 678:0.18929458 679:0.54519933 680:0.54519933 681:0.52010363 682:0.29322362 683:0.045442574 684:0.041213155 685:0.035686564 686:0.065729439 687:0.56145728 688:0.56145728 689:0.56145728 690:0.21140687 691:0.031133262 692:0.019628923 693:0.051534615 694:0.24081846 695:0.20547467 696:0.34227249 697:0.45916811 698:0.45916811 699:0.45916811 700:0.32304275 701:0.16512665 702:0.13603906 703:0.053771775 704:0.14266887 705:0.26210088 706:0.52175415 707:0.52175415 708:0.52175415 709:0.23606735 710:0.11490256 711:0.1498163 712:0.034954946 713:0.022254292 714:0.059331875 715:0.54477423 716:0.58530235 717:0.58530235 718:0.10344629 719:0.037313014 720:0.027065549 721:0.33333331 722:0.33333331 723:0.33333331 724:0.33333331 725:0.33333331 726:0.33333331 727:0.33333331 728:0.33333331 729:0.33333331 730:0.032535978 731:0.0092148837 732:0.060061011 733:0.56077957 734:0.56077957 735:0.56077957 736:0.19751628 737:0.090531535 738:0.067965716 739:0.019081213 740:0.0023198265 741:0.077967748 742:0.53511178 743:0.53511178 744:0.53511178 745:0.33301604 746:0.15144937 747:0.026097097 748:0.021324039 749:0.0072908616 750:0.040926766 751:0.4270409 752:0.60007882 753:0.60007882 754:0.28270343 755:0.11826069 756:0.036837723 757:0.063699283 758:0.052509502 759:0.39474285 760:0.51838762 761:0.51838762 762:0.51838762 763:0.16573754 764:0.036176153 765:0.049075652 766:0.090038575 767:0.039453283 768:0.18484686 769:0.5540719 770:0.5540719 771:0.5540719 772:0.16121934 773:0.043938339 774:0.085198939 775:0.24338646 776:0.088352382 777:0.44963488 778:0.44963488 779:0.44963488 780:0.44963488 781:0.2840735 782:0.17670667 783:0.11112089 784:0.24151403 785:0.33670267 786:0.38228101 787:0.38228101 788:0.38228101 789:0.38228101 790:0.32237354 791:0.27596453 792:0.25232142 793:0.16969076 794:0.049133338 795:0.20157605 796:0.49349514 797:0.49349514 798:0.49349514 799:0.30828708 800:0.15727231 801:0.27887297 802:0.19755539 803:0.11731657 804:0.13462198 805:0.47103688 806:0.47103688 807:0.47103688 808:0.42393774 809:0.1736894 810:0.23144588 811:0.18193132 812:0.11497554 813:0.23073734 814:0.46137252 815:0.46137252 816:0.46137252 817:0.46137252 818:0.12853433 819:0.18017349 820:0.3195827 821:0.12582466 822:0.16001578 823:0.32802793 824:0.38699552 825:0.38699552 826:0.38699552 827:0.38699552 828:0.38699552 829:0.13109842 830:0.15955499 831:0.21653467 832:0.39624339 833:0.48486108 834:0.48486108 835:0.48486108 836:0.18312567 837:0.12105122 838:0.054460187 839:0.018289141 840:0.081451394 841:0.56129152 842:0.56129152 843:0.56129152 844:0.19524609 845:0.050297067 846:0.065344632 847:0.087231956 848:0.076976568 849:0.23356868 850:0.54698533 851:0.54698533 852:0.54698533 853:0.1606963 854:0.074735597 855:0.054066285 856:0.039212205 857:0.063172102 858:0.37640297 859:0.55899453 860:0.55899453 861:0.46374887 862:0.092942975 863:0.033705644 864:0.054819331 865:0.031026818 866:0.033460982 867:0.57513803 868:0.57513803 869:0.57513803 870:0.067627288 871:0.011397232 872:0.00029602236 873:0.029378919 874:0.21330853 875:0.1297733 876:0.25026909 877:0.50790715 878:0.50790715 879:0.44659439 880:0.13791373 881:0.23664631 882:0.29088873 883:0.079603374 884:0.14759815 885:0.30516732 886:0.50656092 887:0.50656092 888:0.50656092 889:0.29768869 890:0.083528832 891:0.11551402 892:0.029283335 893:0.037647214 894:0.16351283 895:0.56525809 896:0.56525809 897:0.56525809 898:0.10284303 899:0.036163341 900:0.023539651 
1 1 1:0.1759017 2:0.31823856 3:0.43648908 4:0.43648908 5:0.43648908 6:0.43648908 7:0.2756831 8:0.096826203 9:0.14253247 10:0.025978107 11:0.02423062 12:0.38892752 13:0.58889925 14:0.58889925 15:0.24153623 16:0.30223021 17:0.059058428 18:0.02641725 19:0.032613326 20:0.04588284 21:0.11463513 22:0.6254335 23:0.6254335 24:0.44505253 25:0.024133174 26:0.02931056 27:0.042922921 28:0.11087783 29:0.046830777 30:0.043577131 31:0.31779543 32:0.5825814 33:0.5825814 34:0.41223198 35:0.15452363 36:0.10002615 37:0.25599399 38:0.3291074 39:0.49258092 40:0.49258092 41:0.49258092 42:0.12355728 43:0.13271241 44:0.19978158 45:0.15954921 46:0.1158759 47:0.10715622 48:0.10394359 49:0.22797914 50:0.59430963 51:0.59430963 52:0.42048445 53:0.16354859 54:0.048460342 55:0.33333331 56:0.33333331 57:0.33333331 58:0.33333331 59:0.33333331 60:0.33333331 61:0.33333331 62:0.33333331 63:0.33333331 64:0.18587181 65:0.41245088 66:0.41245088 67:0.41245088 68:0.41245088 69:0.41245088 70:0.25837952 71:0.1714296 72:0.13683902 73:0.2439951 74:0.18922457 75:0.31449088 76:0.37801453 77:0.37801453 78:0.37801453 79:0.37801453 80:0.37801453 81:0.30212742 82:0.31854916 83:0.33513549 84:0.33513549 85:0.33513549 86:0.33513549 87:0.33513549 88:0.33513549 89:0.33513549 90:0.33513549 91:0.36323333 92:0.36323333 93:0.25861421 94:0.097721212 95:0.36323333 96:0.36323333 97:0.36323333 98:0.36323333 99:0.36323333 100:0.16232623 101:0.047119126 102:0.14047879 103:0.29720101 104:0.41553998 105:0.41553998 106:0.41553998 107:0.41553998 108:0.41553998 109:0.019669328 110:0.038124029 111:0.23034789 112:0.66282356 113:0.66282356 114:0.25541008 115:0.018405132 116:0.018869419 117:0.022366799 118:0.057403646 119:0.026104271 120:0.12476398 121:0.55919659 122:0.55919659 123:0.55919659 124:0.20105441 125:0.020946579 126:0.038643539 127:0.043913692 128:0.037118189 129:0.0069849831 130:0.44527075 131:0.62395728 132:0.62395728 133:0.12901221 134:0.030476902 135:0.046481792 136:0.20333874 137:0.4384692 138:0.41216835 139:0.4384692 140:0.4384692 141:0.4384692 142:0.09872295 143:0.072043262 144:0.069377549 145:0.20060451 146:0.27405491 147:0.28119877 148:0.47842976 149:0.47842976 150:0.47842976 151:0.24081951 152:0.16507809 153:0.18343702 154:0.10728595 155:0.19454457 156:0.2473858 157:0.53764796 158:0.53764796 159:0.53764796 160:0.11724301 161:0.059914693 162:0.070076078 163:0.018970134 164:0.0241971 165:0.03693584 166:0.36670956 167:0.64722371 168:0.64722371 169:0.15597442 170:0.021744983 171:0.024832273 172:0.050484944 173:0.02260766 174:0.070815198 175:0.56306177 176:0.56306177 177:0.56306177 178:0.19480263 179:0.038981318 180:0.036633369 181:0.394225 182:0.394225 183:0.31635857 184:0.23721777 185:0.24772699 186:0.072177373 187:0.394225 188:0.394225 189:0.394225 190:0.024936015 191:0.033245463 192:0.56920552 193:0.56920552 194:0.56920552 195:0.14755388 196:0.060476389 197:0.012840195 198:0.026337516 199:0.093813561 200:0.065860204 201:0.15787917 202:0.5379498 203:0.5379498 204:0.50478172 205:0.22961813 206:0.20452397 207:0.18383838 208:0.043898616 209:0.028094856 210:0.025170954 211:0.40540299 212:0.58333808 213:0.58333808 214:0.36055237 215:0.12462819 216:0.07875061 217:0.26008525 218:0.24447958 219:0.38496944 220:0.38496944 221:0.38496944 222:0.37465221 223:0.38496944 224:0.21881627 225:0.30254683 226:0.077789135 227:0.065061592 228:0.17501988 229:0.47970164 230:0.47970164 231:0.47970164 232:0.47970164 233:0.18685663 234:0.06094053 235:0.37938565 236:0.37938565 237:0.37938565 238:0.37938565 239:0.37938565 240:0.15985359 241:0.23476067 242:0.23607907 243:0.37938565 244:0.41924202 245:0.41924202 246:0.41924202 247:0.41924202 248:0.41924202 249:0.21278799 250:0.22056024 251:0.082275391 252:0.14312898 253:0.19227064 254:0.21428451 255:0.37482294 256:0.37482294 257:0.37482294 258:0.37482294 259:0.37482294 260:0.33779103 261:0.31709632 262:0.24068482 263:0.3821466 264:0.3821466 265:0.3821466 266:0.3821466 267:0.3821466 268:0.29396808 269:0.23389968 270:0.26601598 271:0.19360135 272:0.14672603 273:0.17038101 274:0.31445852 275:0.40403551 276:0.40403551 277:0.40403551 278:0.40403551 279:0.40012172 280:0.22087166 281:0.090885624 282:0.082374938 283:0.13487116 284:0.42848095 285:0.42848095 286:0.42848095 287:0.42848095 288:0.42848095 289:0.39104664 290:0.39104664 291:0.39104664 292:0.21252264 293:0.15158373 294:0.11979802 295:0.39104664 296:0.39104664 297:0.39104664 298:0.3764945 299:0.3764945 300:0.3764945 301:0.3764945 302:0.3764945 303:0.3764945 304:0.27291435 305:0.21610895 306:0.16830312 307:0.1683155 308:0.25202262 309:0.46645269 310:0.46645269 311:0.46645269 312:0.31736434 313:0.32751623 314:0.19180514 315:0.10317016 316:0.10873774 317:0.26031294 318:0.5282135 319:0.5282135 320:0.5282135 321:0.24798004 322:0.13196684 323:0.03346971 324:0.057923984 325:0.39101753 326:0.39101753 327:0.39101753 328:0.073488712 329:0.13117284 330:0.24499969 331:0.39101753 332:0.39101753 333:0.39101753 334:0.37027714 335:0.37027714 336:0.37027714 337:0.37027714 338:0.37027714 339:0.34634265 340:0.18365033 341:0.23456241 342:0.32522905 343:0.34505537 344:0.34505537 345:0.34505537 346:0.34505537 347:0.34505537 348:0.21793163 349:0.34505537 350:0.34505537 351:0.34505537 352:0.33333331 353:0.33333331 354:0.33333331 355:0.33333331 356:0.33333331 357:0.33333331 358:0.33333331 359:0.33333331 360:0.33333331 361:0.35591704 362:0.35591704 363:0.35591704 364:0.35591704 365:0.35591704 366:0.35591704 367:0.21690354 368:0.28235242 369:0.33640504 370:0.035778921 371:0.039826099 372:0.53365237 373:0.57727349 374:0.57727349 375:0.099142358 376:0.15449059 377:0.076826088 378:0.079124555 379:0.16777594 380:0.37764445 381:0.45897433 382:0.49593678 383:0.49593678 384:0.31089151 385:0.07391534 386:0.077827282 387:0.13600622 388:0.035893619 389:0.0089763263 390:0.015530349 391:0.27358907 392:0.62474132 393:0.62474132 394:0.37284553 395:0.053695653 396:0.032224696 397:0.17019063 398:0.44115812 399:0.44115812 400:0.44115812 401:0.41407561 402:0.21666434 403:0.19866002 404:0.30337685 405:0.19304977 406:0.038103238 407:0.068907805 408:0.18108337 409:0.26501927 410:0.61174285 411:0.61174285 412:0.37274757 413:0.050696217 414:0.028355192 415:0.34358227 416:0.34358227 417:0.34358227 418:0.23581704 419:0.34358227 420:0.34358227 421:0.34358227 422:0.34358227 423:0.34358227 424:0.27192873 425:0.43347025 426:0.43347025 427:0.43347025 428:0.43347025 429:0.27270663 430:0.08833915 431:0.10378234 432:0.28552678 433:0.38342199 434:0.38342199 435:0.38342199 436:0.38342199 437:0.38342199 438:0.2774395 439:0.26243842 440:0.13136138 441:0.31911689 442:0.37078416 443:0.37078416 444:0.37078416 445:0.37078416 446:0.37078416 447:0.37078416 448:0.26534775 449:0.205264 450:0.25014374 451:0.40678459 452:0.20168483 453:0.064996846 454:0.061059825 455:0.40678459 456:0.35213873 457:0.40678459 458:0.40678459 459:0.40678459 460:0.30340934 461:0.20961663 462:0.076481968 463:0.1785142 464:0.46849102 465:0.46849102 466:0.46849102 467:0.29499924 468:0.28427249 469:0.096271656 470:0.13664307 471:0.30055836 472:0.46389195 473:0.46389195 474:0.46389195 475:0.46389195 476:0.12905341 477:0.065478139 478:0.1458005 479:0.21486281 480:0.47913697 481:0.47913697 482:0.47913697 483:0.47266757 484:0.10832582 485:0.038042314 486:0.085224569 487:0.12577434 488:0.16568063 489:0.21987019 490:0.47881946 491:0.51269835 492:0.51269835 493:0.28476781 494:0.23114996 495:0.13739602 496:0.038748551 497:0.043089151 498:0.33397153 499:0.5292232 500:0.5292232 501:0.5292232 502:0.15130922 503:0.12434165 504:0.080733322 505:0.24137348 506:0.21673584 507:0.44168174 508:0.44168174 509:0.44168174 510:0.44168174 511:0.25111893 512:0.11337979 513:0.19625917 514:0.065213323 515:0.03535457 516:0.303294 517:0.53996855 518:0.53996855 519:0.53996855 520:0.1589836 521:0.012640575 522:0.04874881 523:0.37693632 524:0.27984574 525:0.1944021 526:0.33536446 527:0.42384282 528:0.42384282 529:0.42384282 530:0.24009252 531:0.18102837 532:0.2573576 533:0.10596635 534:0.26590732 535:0.45234916 536:0.45234916 537:0.45234916 538:0.32216734 539:0.16983822 540:0.32455426 541:0.35854903 542:0.35854903 543:0.35854903 544:0.15562128 545:0.30862334 546:0.33043799 547:0.35854903 548:0.35854903 549:0.35854903 550:0.03443728 551:0.053841788 552:0.55890596 553:0.56378871 554:0.56378871 555:0.20131172 556:0.073675066 557:0.029595643 558:0.031520601 559:0.20837408 560:0.23168801 561:0.23701915 562:0.51729417 563:0.51729417 564:0.45777339 565:0.12289234 566:0.2105611 567:0.2062559 568:0.027953058 569:0.015988979 570:0.015664654 571:0.11730438 572:0.56803966 573:0.56803966 574:0.56803966 575:0.1257088 576:0.033870853 577:0.14607319 578:0.35306436 579:0.46127751 580:0.46127751 581:0.46127751 582:0.32106218 583:0.21091482 584:0.15324038 585:0.211255 586:0.11453962 587:0.14937812 588:0.4447372 589:0.45290717 590:0.45290717 591:0.45290717 592:0.22717416 593:0.1922269 594:0.25068229 595:0.37732601 596:0.37732601 597:0.37732601 598:0.26629582 599:0.37732601 600:0.061881661 601:0.26647276 602:0.37732601 603:0.37732601 604:0.43163538 605:0.43163538 606:0.43163538 607:0.43163538 608:0.43163538 609:0.20190668 610:0.084552608 611:0.039911851 612:0.13764495 613:0.35180992 614:0.35180992 615:0.35180992 616:0.35180992 617:0.35180992 618:0.35180992 619:0.35180992 620:0.32062209 621:0.17552763 622:0.35305274 623:0.32954749 624:0.34715009 625:0.35305274 626:0.35305274 627:0.35305274 628:0.35305274 629:0.26025775 630:0.28270113 631:0.36378083 632:0.33807644 633:0.25176364 634:0.22402585 635:0.36378083 636:0.33233923 637:0.36378083 638:0.36378083 639:0.36378083 640:0.056578316 641:0.024432974 642:0.024191095 643:0.050307792 644:0.30040529 645:0.47509012 646:0.47509012 647:0.47509012 648:0.47509012 649:0.34655809 650:0.34655809 651:0.34655809 652:0.34655809 653:0.19793905 654:0.34655809 655:0.34655809 656:0.34655809 657:0.34655809 658:0.34230551 659:0.46273324 660:0.46273324 661:0.46273324 662:0.46273324 663:0.11520797 664:0.0633706 665:0.070505634 666:0.063866667 667:0.12564865 668:0.43135783 669:0.43135783 670:0.43135783 671:0.43135783 672:0.2992422 673:0.25600508 674:0.24354522 675:0.15979807 676:0.12552106 677:0.31644642 678:0.45511481 679:0.45511481 680:0.45511481 681:0.45511481 682:0.18959066 683:0.090250678 684:0.10723019 685:0.3735885 686:0.3735885 687:0.3735885 688:0.28484267 689:0.31514424 690:0.21849933 691:0.31059358 692:0.34214756 693:0.3735885 694:0.22192016 695:0.33277726 696:0.44383025 697:0.44383025 698:0.44383025 699:0.44383025 700:0.20365405 701:0.071038626 702:0.074485719 703:0.34685162 704:0.34685162 705:0.34685162 706:0.34685162 707:0.34685162 708:0.34685162 709:0.34685162 710:0.31342974 711:0.24417117 712:0.29437095 713:0.20112154 714:0.23576146 715:0.37626198 716:0.37626198 717:0.37626198 718:0.37626198 719:0.37626198 720:0.33082771 721:0.31246924 722:0.34447309 723:0.34795901 724:0.34795901 725:0.34795901 726:0.34795901 727:0.23926653 728:0.34795901 729:0.34795901 730:0.031580042 731:0.049022604 732:0.53035003 733:0.53630209 734:0.53630209 735:0.200884 736:0.23830454 737:0.19511674 738:0.069818012 739:0.12038102 740:0.13592204 741:0.34587789 742:0.58566725 743:0.58566725 744:0.3912223 745:0.023806931 746:0.0094818585 747:0.087626316 748:0.067657322 749:0.044869971 750:0.27672645 751:0.39234379 752:0.58051044 753:0.58051044 754:0.24876663 755:0.14428329 756:0.078808725 757:0.35475421 758:0.39470559 759:0.40960535 760:0.40960535 761:0.40960535 762:0.30366343 763:0.25945425 764:0.12728769 765:0.19823529 766:0.036023155 767:0.094267353 768:0.14329813 769:0.34255746 770:0.62695175 771:0.62695175 772:0.24533001 773:0.069925673 774:0.026883425 775:0.35254431 776:0.35254431 777:0.35254431 778:0.35254431 779:0.31165376 780:0.35254431 781:0.29140204 782:0.26876 783:0.35254431 784:0.23594762 785:0.43261403 786:0.43261403 787:0.43261403 788:0.43261403 789:0.31814381 790:0.15306102 791:0.13229881 792:0.23143657 793:0.13781217 794:0.15505572 795:0.46162885 796:0.46162885 797:0.46162885 798:0.46162885 799:0.16116036 800:0.17030603 801:0.22267441 802:0.38616163 803:0.38616163 804:0.38616163 805:0.38616163 806:0.38616163 807:0.30178586 808:0.25949025 809:0.17154911 810:0.25798652 811:0.3717812 812:0.27090874 813:0.24447823 814:0.19367801 815:0.3717812 816:0.3717812 817:0.3717812 818:0.3717812 819:0.3717812 820:0.19074517 821:0.068202652 822:0.047430299 823:0.061192069 824:0.4321866 825:0.43766004 826:0.43766004 827:0.43766004 828:0.43766004 829:0.092168927 830:0.071828566 831:0.34981459 832:0.4513303 833:0.4513303 834:0.4513303 835:0.4513303 836:0.19638854 837:0.10300812 838:0.05705481 839:0.15143181 840:0.31073496 841:0.53832978 842:0.53832978 843:0.53832978 844:0.07987766 845:0.0081000719 846:0.03760526 847:0.067334242 848:0.11448725 849:0.13370697 850:0.41504097 851:0.58527225 852:0.58527225 853:0.28061178 854:0.15063326 855:0.075509839 856:0.11175184 857:0.081866711 858:0.48270693 859:0.49018693 860:0.49018693 861:0.49018693 862:0.13512057 863:0.053938664 864:0.076070294 865:0.25214729 866:0.36419046 867:0.41726318 868:0.41726318 869:0.41726318 870:0.41726318 871:0.23600662 872:0.1125818 873:0.19743124 874:0.058407582 875:0.043903612 876:0.42439336 877:0.50750875 878:0.50750875 879:0.50750875 880:0.19126935 881:0.049274676 882:0.053329643 883:0.3143301 884:0.2605986 885:0.19232944 886:0.43701723 887:0.48512802 888:0.48512802 889:0.30177379 890:0.16430485 891:0.12864107 892:0.25829867 893:0.17312779 894:0.32869607 895:0.37662601 896:0.37662601 897:0.37662601 898:0.37662601 899:0.29331169 900:0.37662601 
