svm_type c_svc
kernel_type rbf
gamma 0.0011111111111111111
nr_class 2
total_sv 14
rho -0.0060268044471740723
label 0 1
nr_sv 7 7
SV
1 1:0.10680181 2:0.06857428 3:0.12982237 4:0.45651415 5:0.45651415 6:0.45651415 7:0.45651415 8:0.32373324 9:0.16915467 10:0.020062221 11:0.012175319 12:0.31478691 13:0.60058874 14:0.60058874 15:0.39922279 16:0.1253148 17:0.055188216 18:0.028574379 19:0.023962462 20:0.032576889 21:0.52387941 22:0.52387941 23:0.52387941 24:0.4088904 25:0.075891972 26:0.037912007 27:0.025046678 28:0.010656908 29:0.0057349056 30:0.0092344815 31:0.13277695 32:0.69496226 33:0.69496226 34:0.11268757 35:0.056859907 36:0.016180227 37:0.096864365 38:0.16155916 39:0.47480991 40:0.47480991 41:0.47480991 42:0.38969004 43:0.33021128 44:0.11929146 45:0.11425567 46:0.1012048 47:0.12234938 48:0.56461376 49:0.56461376 50:0.56461376 51:0.080991849 52:0.013623391 53:0.028612124 54:0.10420287 55:0.200516 56:0.34546214 57:0.38245258 58:0.38245258 59:0.38245258 60:0.17190634 61:0.38245258 62:0.38245258 63:0.28204176 64:0.28802758 65:0.39884636 66:0.39884636 67:0.39884636 68:0.39884636 69:0.39884636 70:0.2102645 71:0.12034961 72:0.25090373 73:0.049452677 74:0.027979948 75:0.11018471 76:0.55679685 77:0.55679685 78:0.55679685 79:0.21470568 80:0.088923171 81:0.023598386 82:0.018688004 83:0.019902248 84:0.17748906 85:0.49725571 86:0.55521131 87:0.55521131 88:0.32086852 89:0.028409965 90:0.014356543 91:0.19249329 92:0.10599206 93:0.2830959 94:0.45007861 95:0.45007861 96:0.45007861 97:0.40398157 98:0.24398595 99:0.20279576 100:0.40110779 101:0.10201132 102:0.094498716 103:0.12384986 104:0.40110779 105:0.40110779 106:0.40110779 107:0.40110779 108:0.40110779 109:0.009066809 110:0.011030268 111:0.075916432 112:0.63090962 113:0.63090962 114:0.43792212 115:0.064884163 116:0.040360525 117:0.018006297 118:0.050793219 119:0.087544128 120:0.51586121 121:0.51586121 122:0.51586121 123:0.37882298 124:0.10793563 125:0.12893663 126:0.14012887 127:0.38276449 128:0.30837899 129:0.24578898 130:0.38276449 131:0.38276449 132:0.38276449 133:0.30122188 134:0.25766942 135:0.31831971 136:0.38636422 137:0.38636422 138:0.38636422 139:0.38636422 140:0.38636422 141:0.21808216 142:0.21521986 143:0.25637645 144:0.30660257 145:0.37066868 146:0.37066868 147:0.37066868 148:0.33184513 149:0.37066868 150:0.047853749 151:0.26573941 152:0.37066868 153:0.36054844 154:0.3764028 155:0.3764028 156:0.3764028 157:0.18150334 158:0.29099521 159:0.17973264 160:0.3764028 161:0.3764028 162:0.3764028 163:0.10617421 164:0.36665109 165:0.39729008 166:0.37988368 167:0.41837266 168:0.41837266 169:0.41837266 170:0.14889562 171:0.069757663 172:0.06642434 173:0.070630893 174:0.065403514 175:0.33619004 176:0.51793885 177:0.51793885 178:0.51793885 179:0.25775543 180:0.045583535 181:0.11384606 182:0.12748191 183:0.26244554 184:0.41365266 185:0.43907654 186:0.43907654 187:0.43907654 188:0.29927674 189:0.25073892 190:0.012909894 191:0.0016803966 192:0.0036673043 193:0.57290417 194:0.57290417 195:0.57290417 196:0.11267684 197:0.046540424 198:0.017246269 199:0.049233869 200:0.025056163 201:0.10418866 202:0.37728405 203:0.58550018 204:0.58550018 205:0.36474034 206:0.15575801 207:0.028855879 208:0.0035034192 209:0.02131277 210:0.2100513 211:0.47770157 212:0.59803045 213:0.59803045 214:0.10916034 215:0.0019965551 216:0.0035121415 217:0.051733945 218:0.2082475 219:0.61532336 220:0.61532336 221:0.43923917 222:0.0031493341 223:0.0084792376 224:0.016571259 225:0.058509428 226:0.015163234 227:0.021391453 228:0.098407 229:0.57374245 230:0.57374245 231:0.57374245 232:0.043651763 233:0.0028786242 234:0.013177511 235:0.19090736 236:0.21948764 237:0.43326977 238:0.43326977 239:0.43326977 240:0.43326977 241:0.22855736 242:0.20855533 243:0.26221144 244:0.36919469 245:0.36919469 246:0.36919469 247:0.36919469 248:0.36919469 249:0.25491598 250:0.22404261 251:0.25883299 252:0.36919469 253:0.15381706 254:0.26640812 255:0.4762904 256:0.4762904 257:0.4762904 258:0.44007716 259:0.085021295 260:0.072042532 261:0.13683085 262:0.020856334 263:0.0022152751 264:0.061404116 265:0.67052639 266:0.67052639 267:0.30845067 268:0.031683471 269:0.0081259105 270:0.019149711 271:0.11900128 272:0.11675026 273:0.47065359 274:0.54531646 275:0.54531646 276:0.36597547 277:0.11489825 278:0.070177823 279:0.062358558 280:0.35252497 281:0.24436684 282:0.27607146 283:0.34413123 284:0.35252497 285:0.35252497 286:0.35252497 287:0.35252497 288:0.35252497 289:0.011613841 290:0.020972727 291:0.046224631 292:0.21050735 293:0.6897614 294:0.6897614 295:0.036426827 296:0.0025960105 297:0.0099954857 298:0.012471578 299:0.0026977214 300:0.014782298 301:0.14766516 302:0.69904947 303:0.69904947 304:0.018395217 305:0.00393605 306:0.010925777 307:0.0088422978 308:0.018337088 309:0.072391801 310:0.62519193 311:0.62519193 312:0.4602927 313:0.022760453 314:0.004844544 315:0.014284885 316:0.032467175 317:0.18127169 318:0.55364704 319:0.55364704 320:0.55364704 321:0.20160782 322:0.073212415 323:0.008468193 324:0.02082704 325:0.038812235 326:0.11007001 327:0.49562871 328:0.49562871 329:0.49562871 330:0.49562871 331:0.05715834 332:0.0061604413 333:0.021953754 334:0.029000578 335:0.12064303 336:0.56413448 337:0.56413448 338:0.56413448 339:0.16612367 340:0.041382 341:0.0051401462 342:0.022915751 343:0.011367904 344:0.012645814 345:0.066054173 346:0.6717065 347:0.6717065 348:0.30438423 349:0.00016334472 350:0.0056844819 351:0.016918074 352:0.0082750823 353:0.0047188215 354:0.015035949 355:0.13470836 356:0.700463 357:0.700463 358:0.013086652 359:0.00068320346 360:0.0082750823 361:0.18761359 362:0.10303201 363:0.12198652 364:0.44528544 365:0.44528544 366:0.44528544 367:0.44528544 368:0.32295117 369:0.20467249 370:0.027092237 371:0.016489131 372:0.20734447 373:0.62079227 374:0.62079227 375:0.41977483 376:0.08458709 377:0.031740613 378:0.029376552 379:0.027133334 380:0.02142315 381:0.25974315 382:0.5475508 383:0.5475508 384:0.5475508 385:0.1678939 386:0.054326601 387:0.027620055 388:0.023419823 389:0.040346555 390:0.17799363 391:0.4749862 392:0.60285437 393:0.60285437 394:0.10706419 395:0.029369935 396:0.036579654 397:0.11658014 398:0.13342702 399:0.50263691 400:0.50263691 401:0.50263691 402:0.37895271 403:0.18448576 404:0.13389921 405:0.12290467 406:0.088594377 407:0.091885 408:0.51258993 409:0.56473112 410:0.56473112 411:0.21248221 412:0.14248234 413:0.10816654 414:0.077248126 415:0.22851558 416:0.29586715 417:0.37110141 418:0.37110141 419:0.37110141 420:0.18424383 421:0.37110141 422:0.37110141 423:0.37110141 424:0.4087472 425:0.4087472 426:0.4087472 427:0.4087472 428:0.4087472 429:0.32138735 430:0.11937312 431:0.19858728 432:0.087475903 433:0.057040341 434:0.033816453 435:0.13222897 436:0.48342499 437:0.48342499 438:0.48342499 439:0.4728958 440:0.19665937 441:0.12130101 442:0.014889649 443:0.019825861 444:0.098289117 445:0.50800163 446:0.52947021 447:0.52947021 448:0.40263298 449:0.091029517 450:0.024118984 451:0.1118141 452:0.21606451 453:0.24037473 454:0.44188455 455:0.47296175 456:0.47296175 457:0.47296175 458:0.10067491 459:0.08098051 460:0.39366421 461:0.19967033 462:0.11090872 463:0.17199655 464:0.37866944 465:0.39366421 466:0.39366421 467:0.39366421 468:0.39366421 469:0.016199471 470:0.046953183 471:0.041003823 472:0.55476558 473:0.56628388 474:0.56628388 475:0.18981147 476:0.10252076 477:0.013896654 478:0.10068233 479:0.16669126 480:0.41026539 481:0.41026539 482:0.41026539 483:0.41026539 484:0.41026539 485:0.2885994 486:0.19287042 487:0.34837997 488:0.34837997 489:0.29838842 490:0.34837997 491:0.34837997 492:0.34837997 493:0.29755059 494:0.30694664 495:0.34837997 496:0.39400008 497:0.39400008 498:0.39400008 499:0.39400008 500:0.39400008 501:0.23320423 502:0.12115584 503:0.1464982 504:0.36509591 505:0.37146327 506:0.37146327 507:0.37146327 508:0.37146327 509:0.37146327 510:0.063901618 511:0.17326805 512:0.37146327 513:0.37146327 514:0.32329658 515:0.2217481 516:0.26873967 517:0.35918567 518:0.35918567 519:0.35918567 520:0.35918567 521:0.35918567 522:0.35918567 523:0.21015103 524:0.20840751 525:0.3175635 526:0.41448501 527:0.41448501 528:0.41448501 529:0.41448501 530:0.32819587 531:0.12904443 532:0.14098895 533:0.12851676 534:0.13094276 535:0.32488793 536:0.51950717 537:0.51950717 538:0.51950717 539:0.15378545 540:0.087145306 541:0.18876246 542:0.21387286 543:0.24198732 544:0.46903163 545:0.46903163 546:0.46903163 547:0.36302987 548:0.1993998 549:0.16895618 550:0.025713189 551:0.013826197 552:0.07769005 553:0.56391943 554:0.56391943 555:0.54638618 556:0.23045947 557:0.068410054 558:0.027791834 559:0.068240732 560:0.10108481 561:0.48721543 562:0.48721543 563:0.48721543 564:0.48721543 565:0.14576799 566:0.090308458 567:0.078775436 568:0.015363506 569:0.020638816 570:0.043448865 571:0.21638897 572:0.67682135 573:0.67682135 574:0.18508594 575:0.0060096956 576:0.01260607 577:0.074330315 578:0.5467813 579:0.55956352 580:0.55956352 581:0.25965667 582:0.012330949 583:0.0084857922 584:0.011780011 585:0.038705409 586:0.0099104904 587:0.0080685103 588:0.039706483 589:0.56678456 590:0.56678456 591:0.56678456 592:0.18554813 593:0.00070783013 594:0.0098552741 595:0.16125393 596:0.17457688 597:0.15385546 598:0.45283967 599:0.45283967 600:0.45283967 601:0.45283967 602:0.25607234 603:0.18444611 604:0.33824232 605:0.33824232 606:0.33824232 607:0.29109621 608:0.33824232 609:0.33824232 610:0.33824232 611:0.33824232 612:0.33824232 613:0.035155006 614:0.022471394 615:0.12963657 616:0.62396491 617:0.62396491 618:0.44925019 619:0.0054735867 620:0.0025750452 621:0.030441571 622:0.018304497 623:0.010308594 624:0.031988151 625:0.62265426 626:0.62265426 627:0.47138393 628:0.027702305 629:0.0066794008 630:0.011133733 631:0.023502681 632:0.042814285 633:0.2052764 634:0.66223603 635:0.66223603 636:0.26506177 637:0.075435281 638:0.038653515 639:0.030344872 640:0.39066306 641:0.36572084 642:0.39066306 643:0.39066306 644:0.39066306 645:0.39066306 646:0.14410838 647:0.20364679 648:0.20228952 649:0.014552878 650:0.0057065557 651:0.014017566 652:0.24306758 653:0.68433475 654:0.68433475 655:0.058238126 656:0.016573753 657:0.013520029 658:0.046603709 659:0.043862972 660:0.077542886 661:0.37826952 662:0.64903945 663:0.64903945 664:0.041382756 665:0.02531267 666:0.044110153 667:0.01431857 668:0.0091682263 669:0.059297528 670:0.58570629 671:0.58570629 672:0.55384147 673:0.04397748 674:0.023338931 675:0.029528806 676:0.055780239 677:0.22259556 678:0.55263662 679:0.55263662 680:0.55263662 681:0.13832197 682:0.094220817 683:0.016425945 684:0.053271901 685:0.031997282 686:0.050596148 687:0.13532467 688:0.5532105 689:0.5532105 690:0.5532105 691:0.23324822 692:0.045709033 693:0.059023153 694:0.066106357 695:0.1709871 696:0.55822492 697:0.55822492 698:0.55822492 699:0.12727392 700:0.10957021 701:0.0222602 702:0.0533709 703:0.010466954 704:0.014821446 705:0.12104759 706:0.61722124 707:0.61722124 708:0.46892461 709:0.031700719 710:0.032497406 711:0.033805251 712:0.059607252 713:0.045361198 714:0.089971475 715:0.36319378 716:0.65120924 717:0.65120924 718:0.047121547 719:0.036052622 720:0.052130152 721:0.13492246 722:0.14507596 723:0.17798087 724:0.45873404 725:0.45873404 726:0.45873404 727:0.45873404 728:0.25481334 729:0.14964718 730:0.028951028 731:0.041478597 732:0.35227817 733:0.58607441 734:0.58607441 735:0.42249015 736:0.078181468 737:0.032600414 738:0.026493937 739:0.063062213 740:0.042704023 741:0.20600319 742:0.55372262 743:0.55372262 744:0.55372262 745:0.16250229 746:0.055555459 747:0.049420774 748:0.027042769 749:0.007233832 750:0.018744649 751:0.29814205 752:0.67016172 753:0.67016172 754:0.10282402 755:0.015528458 756:0.030477976 757:0.073116399 758:0.097067051 759:0.51858389 760:0.51858389 761:0.51858389 762:0.34113789 763:0.19593896 764:0.12284084 765:0.092667535 766:0.035828613 767:0.05813643 768:0.52154124 769:0.52154124 770:0.52154124 771:0.23924787 772:0.16978335 773:0.29288042 774:0.086462162 775:0.24776039 776:0.23853105 777:0.34127766 778:0.38016489 779:0.38016489 780:0.20644745 781:0.38016489 782:0.38016489 783:0.38016489 784:0.43251336 785:0.43251336 786:0.43251336 787:0.29823947 788:0.43251336 789:0.26481479 790:0.12628119 791:0.082191348 792:0.2644859 793:0.030730922 794:0.069078974 795:0.10128355 796:0.49140969 797:0.49140969 798:0.49140969 799:0.49140969 800:0.12584458 801:0.047481626 802:0.070050135 803:0.020889347 804:0.129583 805:0.49210387 806:0.53801465 807:0.53801465 808:0.38940671 809:0.066360958 810:0.027160745 811:0.12334161 812:0.10360172 813:0.29488742 814:0.48097321 815:0.48097321 816:0.48097321 817:0.36673114 818:0.2024923 819:0.13264391 820:0.39525202 821:0.24306215 822:0.11733974 823:0.097929716 824:0.39525202 825:0.36937937 826:0.39525202 827:0.39525202 828:0.39525202 829:0.015013952 830:0.029873829 831:0.12091267 832:0.56539041 833:0.56539041 834:0.56539041 835:0.14410402 836:0.062762313 837:0.023628769 838:0.14092644 839:0.23118341 840:0.47018796 841:0.47018796 842:0.47018796 843:0.33794966 844:0.29417443 845:0.19189912 846:0.16090354 847:0.37348595 848:0.37348595 849:0.26071751 850:0.37348595 851:0.37348595 852:0.37348595 853:0.23945761 854:0.19425724 855:0.37348595 856:0.43012881 857:0.40166271 858:0.43012881 859:0.43012881 860:0.43012881 861:0.14646962 862:0.11961881 863:0.10593639 864:0.22724271 865:0.36937153 866:0.36937153 867:0.36937153 868:0.36937153 869:0.36937153 870:0.074639581 871:0.19844775 872:0.36937153 873:0.36937153 874:0.34608701 875:0.2760798 876:0.2921412 877:0.34608701 878:0.34608701 879:0.34608701 880:0.34608701 881:0.34608701 882:0.34608701 883:0.19285561 884:0.14571586 885:0.14486307 886:0.28844294 887:0.48268506 888:0.48268506 889:0.48268506 890:0.29454637 891:0.22732562 892:0.032976221 893:0.071678087 894:0.14679936 895:0.37155375 896:0.50603473 897:0.50603473 898:0.50603473 899:0.24864745 900:0.06429372 
1 1:0.30793589 2:0.40030679 3:0.40030679 4:0.40030679 5:0.40030679 6:0.40030679 7:0.2171628 8:0.18393549 9:0.1515118 10:0.19709143 11:0.47512272 12:0.47512272 13:0.47512272 14:0.47512272 15:0.12954558 16:0.052602749 17:0.079231612 18:0.17989382 19:0.26520792 20:0.46092662 21:0.46092662 22:0.46092662 23:0.46092662 24:0.19169824 25:0.16786882 26:0.057433467 27:0.10781753 28:0.15367283 29:0.17804575 30:0.48633161 31:0.090064399 32:0.62047029 33:0.21019681 34:0.48265633 35:0.12695439 36:0.14769459 37:0.36300358 38:0.36300358 39:0.36300358 40:0.36300358 41:0.36300358 42:0.3023372 43:0.27073801 44:0.2113373 45:0.36300358 46:0.15505281 47:0.08578638 48:0.07778728 49:0.44356635 50:0.44356635 51:0.44356635 52:0.44356635 53:0.32191643 54:0.26816753 55:0.27784869 56:0.10230134 57:0.14960542 58:0.11273013 59:0.16720191 60:0.46078417 61:0.46078417 62:0.46078417 63:0.46078417 64:0.42844737 65:0.42844737 66:0.42844737 67:0.42844737 68:0.42844737 69:0.093613215 70:0.023266615 71:0.0042638397 72:0.2698915 73:0.034534249 74:0.014661812 75:0.064782657 76:0.16262567 77:0.56325459 78:0.56325459 79:0.56325459 80:0.12053674 81:0.040647238 82:0.11872303 83:0.14591265 84:0.38463524 85:0.50653148 86:0.50653148 87:0.50653148 88:0.18676631 89:0.048400283 90:0.098606758 91:0.071245171 92:0.27555364 93:0.41931435 94:0.41931435 95:0.41931435 96:0.41931435 97:0.41931435 98:0.19518057 99:0.042144071 100:0.27378601 101:0.21448328 102:0.27177477 103:0.21778853 104:0.4406437 105:0.4406437 106:0.4406437 107:0.31489605 108:0.27583468 109:0.054655515 110:0.095658965 111:0.53463441 112:0.53463441 113:0.53463441 114:0.35784969 115:0.023761755 116:0.0067400513 117:0.041154549 118:0.056011088 119:0.047571119 120:0.27049878 121:0.52186322 122:0.52186322 123:0.52186322 124:0.23881626 125:0.18787175 126:0.1098974 127:0.15876089 128:0.16114557 129:0.46962979 130:0.46962979 131:0.46962979 132:0.46962979 133:0.21099572 134:0.10717507 135:0.10301863 136:0.25008869 137:0.35877934 138:0.35877934 139:0.32446468 140:0.35877934 141:0.35877934 142:0.35877934 143:0.33454672 144:0.2768459 145:0.40040311 146:0.19476028 147:0.22991443 148:0.14590012 149:0.19292063 150:0.35944831 151:0.43250313 152:0.43250313 153:0.43250313 154:0.26503542 155:0.17176135 156:0.19436398 157:0.19911315 158:0.4234311 159:0.4234311 160:0.4234311 161:0.38341665 162:0.37140396 163:0.064989075 164:0.16919556 165:0.37081328 166:0.24358207 167:0.65647286 168:0.48673689 169:0.3014347 170:0.092540734 171:0.054940242 172:0.032322217 173:0.048111401 174:0.26186517 175:0.57174736 176:0.57174736 177:0.51029235 178:0.08742322 179:0.068595238 180:0.039124016 181:0.41139296 182:0.42117265 183:0.42117265 184:0.42117265 185:0.42117265 186:0.12876968 187:0.15976697 188:0.12665251 189:0.25112203 190:0.21924753 191:0.47284764 192:0.47284764 193:0.47284764 194:0.47284764 195:0.07565809 196:0.11432362 197:0.06887991 198:0.18453306 199:0.18241653 200:0.37844595 201:0.46635896 202:0.46635896 203:0.46635896 204:0.3458373 205:0.17203422 206:0.1116636 207:0.096761763 208:0.31540307 209:0.069976792 210:0.3518655 211:0.46890029 212:0.46890029 213:0.45134783 214:0.22291169 215:0.058651622 216:0.2742908 217:0.37044987 218:0.32304516 219:0.37044987 220:0.37044987 221:0.37044987 222:0.21746068 223:0.32656577 224:0.23567322 225:0.37044987 226:0.050725445 227:0.06205551 228:0.069450952 229:0.072088823 230:0.44749293 231:0.50433868 232:0.50433868 233:0.50433868 234:0.14224426 235:0.14284661 236:0.030616801 237:0.027184749 238:0.0041946569 239:0.062995367 240:0.069533855 241:0.56835943 242:0.56835943 243:0.56835943 244:0.063184388 245:0.085791059 246:0.48167545 247:0.50994486 248:0.50994486 249:0.44793484 250:0.18047184 251:0.022666346 252:0.053097252 253:0.036591336 254:0.024575215 255:0.076563239 256:0.28150764 257:0.56153852 258:0.56153852 259:0.52387816 260:0.08052782 261:0.03694059 262:0.046732206 263:0.047590461 264:0.32560104 265:0.51783699 266:0.51783699 267:0.51783699 268:0.28530389 269:0.047642156 270:0.037438773 271:0.16044962 272:0.23044237 273:0.4048419 274:0.4048419 275:0.4048419 276:0.4048419 277:0.34713346 278:0.29446521 279:0.24156384 280:0.39069271 281:0.20743243 282:0.33963946 283:0.24405697 284:0.39069271 285:0.39069271 286:0.39069271 287:0.15104474 288:0.38558435 289:0.064217731 290:0.13235721 291:0.50533104 292:0.50533104 293:0.50533104 294:0.45406941 295:0.06076711 296:0.033229515 297:0.036102608 298:0.37517345 299:0.22095573 300:0.17171469 301:0.1987315 302:0.4584769 303:0.4584769 304:0.4584769 305:0.23211777 306:0.23866595 307:0.31448734 308:0.38789248 309:0.38789248 310:0.38789248 311:0.38789248 312:0.38789248 313:0.32369334 314:0.13956252 315:0.1566515 316:0.20700125 317:0.36804968 318:0.36804968 319:0.36804968 320:0.36804968 321:0.36804968 322:0.36804968 323:0.36804968 324:0.094479933 325:0.46826613 326:0.21622735 327:0.10495768 329:0.24080396 330:0.084560052 331:0.46826613 332:0.46826613 333:0.46826613 334:0.12288888 335:0.19816838 336:0.42495477 337:0.42495477 338:0.42495477 339:0.42495477 340:0.42495477 341:0.11759721 342:0.16989902 343:0.086945206 344:0.072100192 345:0.2815311 346:0.3541775 347:0.58509761 348:0.58509761 349:0.28646737 350:0.087715276 351:0.090026267 352:0.014873692 353:0.14195333 354:0.44656861 355:0.52603459 356:0.52603459 357:0.44628114 358:0.16389582 359:0.023014955 360:0.014873692 361:0.33153671 362:0.36824283 363:0.40332758 364:0.40332758 365:0.40332758 366:0.39382914 367:0.16405985 368:0.13766688 369:0.25591415 370:0.039933298 371:0.47761169 372:0.50425613 373:0.50425613 374:0.50425613 375:0.058868442 376:0.033275027 377:0.042696882 378:0.032769565 379:0.1468707 380:0.11836271 381:0.36329529 382:0.45605507 383:0.45605507 384:0.45605507 385:0.36111659 386:0.20766415 387:0.1869424 388:0.2833173 389:0.17133428 390:0.25473329 391:0.45772424 392:0.50006032 393:0.3332929 394:0.36575931 395:0.20542161 396:0.28080767 397:0.35963914 398:0.35963914 399:0.32020718 400:0.23332399 401:0.35963914 402:0.25881526 403:0.35963914 404:0.35963914 405:0.35963914 406:0.17325695 407:0.1901882 408:0.26438096 409:0.45640752 410:0.45640752 411:0.45640752 412:0.45640752 413:0.11562566 414:0.13157763 415:0.068785913 416:0.036261335 417:0.040076569 418:0.12176388 419:0.48211989 420:0.48211989 421:0.48211989 422:0.48211989 423:0.2185467 424:0.28014776 425:0.41591811 426:0.47660413 427:0.47660413 428:0.47660413 429:0.048703264 430:0.12856685 431:0.053299885 432:0.21291435 433:0.37868404 434:0.21883455 435:0.2012305 436:0.30350813 437:0.37868404 438:0.37868404 439:0.37868404 440:0.32014436 441:0.37868404 442:0.18666017 443:0.20281701 444:0.29842418 445:0.45146525 446:0.45146525 447:0.45146525 448:0.44116747 449:0.12553792 450:0.11452124 451:0.41001546 452:0.41001546 453:0.41001546 454:0.41001546 455:0.41001546 456:0.2688992 457:0.23766491 458:0.098364241 459:0.14480904 460:0.24094214 461:0.088294797 462:0.25157985 463:0.014776505 464:0.51346689 465:0.51346689 466:0.51346689 467:0.14853622 468:0.2400675 469:0.093791597 470:0.11935753 471:0.55317712 472:0.55317712 473:0.55317712 474:0.22447667 475:0.06819199 476:0.014701627 477:0.060712662 478:0.026134416 479:0.063859664 480:0.14531989 481:0.53809923 482:0.58157009 483:0.58157009 484:0.082916848 485:0.030029135 486:0.018593051 487:0.055032384 488:0.056444705 489:0.1574773 490:0.57604569 491:0.57604569 492:0.47998831 493:0.25010988 494:0.095753133 495:0.056716356 496:0.02560352 497:0.097673491 498:0.55796444 499:0.55796444 500:0.55796444 501:0.22747029 502:0.048541289 503:0.036229521 504:0.020486152 505:0.072755314 506:0.084419869 507:0.17785966 508:0.27895126 509:0.51219714 510:0.51219714 511:0.51219714 512:0.2918267 513:0.077017419 514:0.071591042 515:0.056082737 516:0.19514902 517:0.55441338 518:0.61876291 519:0.41242576 520:0.28595716 521:0.080080152 522:0.071591042 523:0.087983593 524:0.11797653 525:0.31831998 526:0.531156 527:0.531156 528:0.47774172 529:0.23901063 530:0.13462481 531:0.096293338 532:0.053667083 533:0.11368752 534:0.4611316 535:0.4611316 536:0.4611316 537:0.4611316 538:0.33010551 539:0.14427884 540:0.061964478 541:0.337466 542:0.40600979 543:0.40600979 544:0.40600979 545:0.40600979 546:0.40295595 547:0.12079973 548:0.068099201 549:0.21245566 550:0.16895086 551:0.43778366 552:0.49108443 553:0.49108443 554:0.49108443 555:0.20079851 556:0.07757318 557:0.026632933 558:0.096240751 559:0.10548408 560:0.089580357 561:0.40863138 562:0.59865022 563:0.59865022 564:0.21467251 565:0.19615014 566:0.053817008 567:0.098230503 568:0.41891712 569:0.36333317 570:0.41851237 571:0.090640001 572:0.41891712 573:0.41891712 574:0.12251276 575:0.033088498 576:0.37688437 577:0.38833162 578:0.38833162 579:0.38833162 580:0.38833162 581:0.38833162 582:0.16943099 583:0.20205884 584:0.16017684 585:0.38833162 586:0.05868062 587:0.024362028 588:0.035579555 589:0.017072979 590:0.40230384 591:0.51147401 592:0.51147401 593:0.51147401 594:0.21849525 595:0.11913027 596:0.074150071 597:0.052417897 598:0.037685663 599:0.051328696 600:0.078963913 601:0.56782389 602:0.56782389 603:0.56782389 604:0.050341647 605:0.068919361 606:0.560709 607:0.560709 608:0.560709 609:0.20539661 610:0.050075315 611:0.036788702 612:0.059020471 613:0.087985344 614:0.020438705 615:0.059660353 616:0.05918977 617:0.59821814 618:0.59821814 619:0.50493151 620:0.073742636 621:0.093028136 622:0.022321353 623:0.060254067 624:0.1946784 625:0.54183066 626:0.54183066 627:0.54183066 628:0.27261716 629:0.05199156 630:0.014383483 631:0.14690889 632:0.065449141 633:0.19722141 634:0.37137479 635:0.60090387 636:0.60090387 637:0.24102269 638:0.050582424 639:0.12040449 640:0.18343933 641:0.023187621 642:0.13913414 643:0.33409452 644:0.49674407 645:0.49674407 646:0.49539813 647:0.23150069 648:0.20570298 649:0.08376307 650:0.17021477 651:0.48850784 652:0.48850784 653:0.48850784 654:0.48850784 655:0.071611047 656:0.005054981 657:0.065553844 658:0.28599146 659:0.25170085 660:0.35853073 661:0.35998583 662:0.35998583 663:0.35998583 664:0.35998583 665:0.35998583 666:0.2799325 667:0.37354714 668:0.37354714 669:0.37354714 670:0.37354714 671:0.37354714 672:0.3031517 673:0.31278455 674:0.22364163 675:0.25012383 676:0.36558333 677:0.41757378 678:0.41757378 679:0.41757378 680:0.41757378 681:0.28174368 682:0.18160069 683:0.17315365 684:0.16290176 685:0.3801513 686:0.3801513 687:0.3801513 688:0.094468862 689:0.34634534 690:0.06348598 691:0.3801513 692:0.3801513 693:0.3801513 694:0.36035886 695:0.36035886 696:0.36035886 697:0.23067686 698:0.30247915 699:0.36035886 700:0.36035886 701:0.27594113 702:0.36035886 703:0.12134919 704:0.16266939 705:0.42283627 706:0.42283627 707:0.42283627 708:0.42283627 709:0.42283627 710:0.21915726 711:0.12973258 712:0.097767822 713:0.28006083 714:0.43878496 715:0.43878496 716:0.43878496 717:0.37986252 718:0.41509366 719:0.10079523 720:0.08747986 721:0.41273999 722:0.41273999 723:0.41273999 724:0.41273999 725:0.41273999 726:0.14542103 727:0.085503593 728:0.1696682 729:0.30163416 730:0.16966397 731:0.34470409 732:0.52667081 733:0.52667081 734:0.52667081 735:0.052565001 736:0.073693261 737:0.024713606 738:0.10696819 739:0.10749654 740:0.073575303 741:0.35508287 742:0.56856883 743:0.56856883 744:0.39519468 745:0.20621455 746:0.030856233 747:0.10368701 748:0.29590645 749:0.34746358 750:0.34746358 751:0.34746358 752:0.34746358 753:0.34746358 754:0.34746358 755:0.28732333 756:0.32480606 757:0.40966713 758:0.30091438 759:0.40966713 760:0.40966713 761:0.40966713 762:0.073555171 763:0.16639473 764:0.19291748 765:0.40966713 766:0.052723356 767:0.023293 768:0.015615887 769:0.029880159 770:0.26215231 771:0.54285061 772:0.54285061 773:0.54285061 774:0.20677704 775:0.18333293 776:0.042092245 777:0.019179853 778:0.0083189337 779:0.066067077 780:0.068087704 781:0.5642634 782:0.5642634 783:0.5642634 784:0.05295299 785:0.12092792 786:0.49044949 787:0.60483032 788:0.60483032 789:0.049509235 790:0.071272768 791:0.04241674 792:0.032589387 793:0.10907237 794:0.039557222 795:0.11762697 796:0.13891283 797:0.54614371 798:0.54614371 799:0.54614371 800:0.19908403 801:0.13766749 802:0.0562043 803:0.00030622692 804:0.13922423 805:0.54826468 806:0.54826468 807:0.54826468 808:0.22113416 809:0.15051299 810:0.06419199 811:0.1277172 812:0.077651069 813:0.22023229 814:0.41544768 815:0.58823872 816:0.56755054 817:0.24662377 818:0.10174824 819:0.13132083 820:0.047182329 821:0.056918859 822:0.18612266 823:0.032318078 824:0.61195636 825:0.61195636 826:0.44802183 827:0.079340421 828:0.053369749 829:0.13466923 830:0.25419229 831:0.50044483 832:0.50044483 833:0.50044483 834:0.39760539 835:0.053410381 836:0.065152779 837:0.026976418 838:0.24026577 839:0.14753975 840:0.22046953 841:0.40527552 842:0.40527552 843:0.40527552 844:0.40527552 845:0.40527552 846:0.22506967 847:0.35869524 848:0.35869524 849:0.35869524 850:0.35869524 851:0.35869524 852:0.35869524 853:0.35869524 854:0.21764977 855:0.22801922 856:0.4111113 857:0.4111113 858:0.4111113 859:0.4111113 860:0.4111113 861:0.27483782 862:0.07137426 863:0.10069208 864:0.25331509 865:0.45521864 866:0.24695086 867:0.18227136 868:0.10290373 869:0.30791676 870:0.16642095 871:0.38861635 872:0.45521864 873:0.45521864 874:0.36639148 875:0.36639148 876:0.36639148 877:0.10853049 878:0.30366182 879:0.36639148 880:0.36639148 881:0.30092224 882:0.36639148 883:0.21200134 884:0.3133415 885:0.37904331 886:0.37904331 887:0.37904331 888:0.37904331 889:0.37904331 890:0.34241855 891:0.1457838 892:0.11365 893:0.23214707 894:0.43248144 895:0.48264229 896:0.48264229 897:0.37414661 898:0.33202133 899:0.13787892 900:0.10502199 
1 1:0.34554705 2:0.34554705 3:0.3301419 4:0.34554705 5:0.34554705 6:0.34554705 7:0.34554705 8:0.23491916 9:0.34554705 10:0.023245903 11:0.039949771 12:0.54939187 13:0.54939187 14:0.54939187 15:0.27348277 16:0.11529594 17:0.048828963 18:0.043578323 19:0.067004971 20:0.14256816 21:0.50470895 22:0.50470895 23:0.50470895 24:0.29278415 25:0.27826688 26:0.19712177 27:0.094759941 28:0.05398133 29:0.10250648 30:0.13664897 31:0.47705773 32:0.49413732 33:0.49413732 34:0.49413732 35:0.077050753 36:0.043239068 37:0.3584941 38:0.3584941 39:0.3584941 40:0.3584941 41:0.3584941 42:0.3584941 43:0.14686167 44:0.28072292 45:0.3584941 46:0.27842841 47:0.23266765 48:0.35992205 49:0.49228424 50:0.49228424 51:0.49228424 52:0.053953297 53:0.02046199 54:0.091861047 55:0.35360643 56:0.29638466 57:0.368857 58:0.368857 59:0.368857 60:0.368857 61:0.33876398 62:0.32194847 63:0.15647604 64:0.38947937 65:0.40813103 66:0.40813103 67:0.40813103 68:0.40813103 69:0.20459451 70:0.2493055 71:0.24958649 72:0.12536556 73:0.33333331 74:0.33333331 75:0.33333331 76:0.33333331 77:0.33333331 78:0.33333331 79:0.33333331 80:0.33333331 81:0.33333331 82:0.033603843 83:0.054427732 84:0.30900842 85:0.54171598 86:0.54171598 87:0.52890909 88:0.14991732 89:0.088784121 90:0.058371447 91:0.034965497 92:0.05497057 93:0.49572939 94:0.49572939 95:0.49572939 96:0.49572939 97:0.10454051 98:0.024584366 99:0.035101514 100:0.40830874 101:0.2665695 102:0.41638646 103:0.41638646 104:0.41638646 105:0.33359548 106:0.208159 107:0.21958864 108:0.19813216 109:0.059188824 110:0.2271353 111:0.41049865 112:0.48476884 113:0.48476884 114:0.48476884 115:0.2366993 116:0.10988035 117:0.057396907 118:0.30017453 119:0.40313497 120:0.26185074 121:0.38347158 122:0.40313497 123:0.40313497 124:0.23600267 125:0.27251852 126:0.27705938 127:0.37631917 128:0.37631917 129:0.37631917 130:0.37631917 131:0.37631917 132:0.25385699 133:0.19211471 134:0.2212504 135:0.37631917 136:0.11125714 137:0.44446015 138:0.44446015 139:0.44446015 140:0.44446015 141:0.38316286 142:0.12998517 143:0.16895016 144:0.07203117 145:0.10858364 146:0.49296173 147:0.49296173 148:0.49296173 149:0.49264252 150:0.074843571 151:0.030420402 152:0.039915126 153:0.091427453 154:0.32117763 155:0.39736322 156:0.30352515 157:0.33895156 158:0.39736322 159:0.39736322 160:0.39736322 161:0.084406272 162:0.22608584 163:0.23936118 164:0.10551724 165:0.10342667 166:0.4862158 167:0.5080685 168:0.5080685 169:0.32083198 170:0.14975859 171:0.20698151 172:0.013714221 173:0.019682368 174:0.014319739 175:0.29097551 176:0.67228997 177:0.67228997 178:0.093758054 179:0.035615806 180:0.02336782 181:0.12117781 182:0.1165712 183:0.51099825 184:0.55653161 185:0.55653161 186:0.2699765 187:0.084166735 188:0.075190924 189:0.074350089 190:0.032516077 191:0.11050003 192:0.56598234 193:0.56598234 194:0.56598234 195:0.15719412 196:0.021080695 197:0.013862526 198:0.019439494 199:0.038159911 200:0.12212378 201:0.34937829 202:0.53183889 203:0.53183889 204:0.53183889 205:0.074420646 206:0.070700027 207:0.049696915 208:0.11215359 209:0.10289788 210:0.15057087 211:0.23475313 212:0.54320735 213:0.54320735 214:0.54320735 215:0.08786685 216:0.078165613 217:0.34467193 218:0.34467193 219:0.34467193 220:0.22273302 221:0.34467193 222:0.34467193 223:0.34467193 224:0.34467193 225:0.34467193 226:0.023724001 227:0.029118292 228:0.087447934 229:0.49134564 230:0.49134564 231:0.49134564 232:0.49134564 233:0.15702987 234:0.024527349 235:0.2435049 236:0.049810655 237:0.18823674 238:0.44464326 239:0.44464326 240:0.44464326 241:0.37920576 242:0.37531751 243:0.15813944 244:0.3438521 245:0.3438521 246:0.3438521 247:0.3438521 248:0.3438521 249:0.30426571 250:0.28547865 251:0.3438521 252:0.34134838 253:0.32314357 254:0.065533854 255:0.036845781 256:0.13560444 257:0.41750148 258:0.41750148 259:0.41750148 260:0.41750148 261:0.41750148 262:0.067183942 263:0.097428203 264:0.22368141 265:0.59642887 266:0.59642887 267:0.45196146 268:0.1107775 269:0.061346814 270:0.064820573 271:0.022722378 272:0.053981688 273:0.43242159 274:0.62648958 275:0.62648958 276:0.15584195 277:0.010848781 278:0.004075876 279:0.013487636 280:0.31966025 281:0.27636164 282:0.42425472 283:0.42425472 284:0.42425472 285:0.42425472 286:0.23076682 287:0.13570416 288:0.17263944 289:0.035330351 290:0.055796117 291:0.20820267 292:0.56129873 293:0.56129873 294:0.56129873 295:0.07771346 296:0.018064091 297:0.027489187 298:0.038316309 299:0.0082751773 300:0.038475476 301:0.56937122 302:0.56937122 303:0.56937122 304:0.14267224 305:0.046646919 306:0.043600727 307:0.030541059 308:0.015252547 309:0.18744035 310:0.5430494 311:0.5430494 312:0.5430494 313:0.27446762 314:0.051845055 315:0.031184718 316:0.062848672 317:0.24946441 318:0.54467636 319:0.54467636 320:0.54467636 321:0.19954959 322:0.056584943 323:0.011804745 324:0.025283877 325:0.13315284 326:0.29057562 327:0.45476219 328:0.45476219 329:0.45476219 330:0.45476219 331:0.23932718 332:0.073192835 333:0.089257061 334:0.059943005 335:0.27520576 336:0.53906208 337:0.53906208 338:0.53906208 339:0.21413419 340:0.047199074 341:0.004597669 342:0.02833036 343:0.022995116 344:0.013461137 345:0.17724016 346:0.52899641 347:0.52899641 348:0.52899641 349:0.35590318 350:0.033701923 351:0.023695219 352:0.026239904 353:0.042671874 354:0.084955648 355:0.61585593 356:0.61585593 357:0.47245315 358:0.080352046 359:0.033369906 360:0.030561097 361:0.38538736 362:0.38538736 363:0.38538736 364:0.38538736 365:0.38538736 366:0.15764713 367:0.092261933 368:0.27476272 369:0.38538736 370:0.068084128 371:0.12646624 372:0.52648455 373:0.52648455 374:0.52648455 375:0.27371299 376:0.23246911 377:0.10648613 378:0.086676829 379:0.10567526 380:0.19846918 381:0.52527779 382:0.52527779 383:0.52527779 384:0.19997427 385:0.17698424 386:0.21124478 387:0.07586126 388:0.084137075 389:0.085340992 390:0.13769715 391:0.4857896 392:0.4857896 393:0.4857896 394:0.4857896 395:0.13664363 396:0.063558541 397:0.35626131 398:0.35626131 399:0.35626131 400:0.35626131 401:0.35626131 402:0.35626131 403:0.29227656 404:0.2467417 405:0.30357921 406:0.23385605 407:0.26696616 408:0.27034763 409:0.50514984 410:0.50514984 411:0.50514984 412:0.10133738 413:0.032253638 414:0.15528621 415:0.31802499 416:0.35833904 417:0.35833904 418:0.35833904 419:0.35833904 420:0.35833904 421:0.2728349 422:0.27385551 423:0.32770434 424:0.37810457 425:0.37810457 426:0.37810457 427:0.37810457 428:0.37810457 429:0.23647121 430:0.37810457 431:0.21818744 432:0.19671606 433:0.33333331 434:0.33333331 435:0.33333331 436:0.33333331 437:0.33333331 438:0.33333331 439:0.33333331 440:0.33333331 441:0.33333331 442:0.083017863 443:0.038109858 444:0.24303743 445:0.51837283 446:0.51837283 447:0.47575989 448:0.34695327 449:0.18895583 450:0.11286878 451:0.04344007 452:0.070619397 453:0.52720809 454:0.5327583 455:0.5327583 456:0.37689638 457:0.058560528 458:0.02085731 459:0.039993048 460:0.35347277 461:0.35347277 462:0.35347277 463:0.35347277 464:0.35347277 465:0.35347277 466:0.29721639 467:0.19251327 468:0.35347277 469:0.35635892 470:0.22770669 471:0.36844629 472:0.37277555 473:0.37277555 474:0.37277555 475:0.3312445 476:0.26075906 477:0.30133408 478:0.30065155 479:0.26661903 480:0.41377428 481:0.41377428 482:0.41377428 483:0.41377428 484:0.30308199 485:0.14206514 486:0.20407134 487:0.39584893 488:0.37503052 489:0.39584893 490:0.39584893 491:0.39584893 492:0.20864029 493:0.057687636 494:0.17032781 495:0.39584893 496:0.23553233 497:0.4264693 498:0.4264693 499:0.4264693 500:0.4264693 501:0.33599746 502:0.29363999 503:0.12938176 504:0.034087863 505:0.13472496 506:0.52180701 507:0.52180701 508:0.52180701 509:0.36784708 510:0.13130756 511:0.048240263 512:0.047751367 513:0.088549778 514:0.39450532 515:0.14503269 516:0.12810755 517:0.37765008 518:0.39450532 519:0.39450532 520:0.39450532 521:0.3704837 522:0.2452314 523:0.09526591 524:0.050013408 525:0.096292563 526:0.36093438 527:0.57018375 528:0.57018375 529:0.42353302 530:0.098056026 531:0.098300628 532:0.013352282 533:0.0051031876 534:0.011966017 535:0.39309868 536:0.61316538 537:0.61316538 538:0.29952109 539:0.056286093 540:0.017358497 541:0.3404398 542:0.27055308 543:0.38630781 544:0.38630781 545:0.38630781 546:0.38630781 547:0.38630781 548:0.19705066 549:0.16094823 550:0.010223032 551:0.020261107 552:0.59205979 553:0.59205979 554:0.54369313 555:0.045316044 556:0.013824882 557:0.013185504 558:0.019862384 559:0.030746471 560:0.029001798 561:0.41401601 562:0.60462862 563:0.60462862 564:0.28630638 565:0.10428303 566:0.023832737 567:0.047311239 568:0.071237609 569:0.059374336 570:0.071640432 571:0.36807838 572:0.5337308 573:0.5337308 574:0.45164073 575:0.24758606 576:0.12558129 577:0.34812796 578:0.34812796 579:0.34812796 580:0.34812796 581:0.34812796 582:0.34812796 583:0.34812796 584:0.17451498 585:0.34812796 586:0.29680115 587:0.26954705 588:0.14797992 589:0.40060285 590:0.54386598 591:0.54386598 592:0.2263937 593:0.039455824 594:0.11172108 595:0.31754977 596:0.2675378 597:0.39195055 598:0.39195055 599:0.39195055 600:0.39195055 601:0.39195055 602:0.2117357 603:0.12094436 604:0.33919761 605:0.33919761 606:0.33919761 607:0.33919761 608:0.33919761 609:0.33919761 610:0.33919761 611:0.28905794 612:0.33325717 613:0.37075359 614:0.11773957 615:0.15524222 616:0.27454931 617:0.38709217 618:0.38709217 619:0.38709217 620:0.38709217 621:0.38709217 622:0.083656304 623:0.023721045 624:0.068969019 625:0.44918659 626:0.62110281 627:0.62110281 628:0.082999319 629:0.033003833 630:0.079987265 631:0.027817747 632:0.045397945 633:0.20235375 634:0.594805 635:0.594805 636:0.48926359 637:0.079018183 638:0.044932593 639:0.03147221 640:0.37124479 641:0.37124479 642:0.37124479 643:0.37124479 644:0.37124479 645:0.37124479 646:0.20468675 647:0.24568485 648:0.266094 649:0.051396552 650:0.040189065 651:0.11920777 652:0.52455753 653:0.52455753 654:0.52455753 655:0.37950179 656:0.093851224 657:0.05675482 658:0.15293276 659:0.021382514 660:0.12106582 661:0.48448157 662:0.48448157 663:0.48448157 664:0.2446309 665:0.22133835 666:0.38535085 667:0.34408104 668:0.34408104 669:0.34408104 670:0.34408104 671:0.34408104 672:0.34408104 673:0.29221201 674:0.29303554 675:0.34408104 676:0.3431682 677:0.3431682 678:0.3431682 679:0.3431682 680:0.3431682 681:0.24059244 682:0.3431682 683:0.3431682 684:0.3431682 685:0.36411917 686:0.45478007 687:0.45478007 688:0.45478007 689:0.45478007 690:0.16243878 691:0.058201525 692:0.037450843 693:0.09455841 694:0.22332431 695:0.18195537 696:0.39482379 697:0.39482379 698:0.39482379 699:0.39482379 700:0.15715539 701:0.33599356 702:0.39482379 703:0.10024238 704:0.09043324 705:0.09544903 706:0.45156488 707:0.59812152 708:0.59812152 709:0.2079673 710:0.011445603 711:0.099357314 712:0.01736233 713:0.023520717 714:0.1234316 715:0.55289966 716:0.55289966 717:0.55289966 718:0.2469365 719:0.057038214 720:0.050841145 721:0.36639476 722:0.36639476 723:0.28259143 724:0.36639476 725:0.36639476 726:0.36639476 727:0.27878842 728:0.24332781 729:0.33464184 730:0.01958547 731:0.0065507377 732:0.44547558 733:0.62643087 734:0.62643087 735:0.12444157 736:0.01171771 737:0.016628003 738:0.019856449 739:0.10359298 740:0.078816205 741:0.53835219 742:0.53835219 743:0.53835219 744:0.25597444 745:0.17979021 746:0.10504079 747:0.068603285 748:0.11735038 749:0.073123083 750:0.14960462 751:0.48378134 752:0.48378134 753:0.48378134 754:0.48378134 755:0.1140517 756:0.096514016 757:0.27040747 758:0.21027453 759:0.37450477 760:0.37450477 761:0.37450477 762:0.36271262 763:0.3123484 764:0.34032583 765:0.34199321 766:0.18147308 767:0.20411709 768:0.32770211 769:0.51400399 770:0.51400399 771:0.51400399 772:0.078186654 773:0.044166252 774:0.13172258 775:0.15054642 776:0.36285299 777:0.41610241 778:0.41610241 779:0.41610241 780:0.40924066 781:0.26345214 782:0.23388535 783:0.18617858 784:0.40427929 785:0.43463948 786:0.43463948 787:0.43463948 788:0.43463948 789:0.20432231 790:0.073004827 791:0.094494127 792:0.15781614 793:0.33603156 794:0.33603156 795:0.33603156 796:0.31090564 797:0.33603156 798:0.33603156 799:0.33603156 800:0.33603156 801:0.33603156 802:0.10029455 803:0.089754134 804:0.30921477 805:0.46659231 806:0.46659231 807:0.46659231 808:0.40564767 809:0.22953512 810:0.12613422 811:0.037616793 812:0.11118514 813:0.48458859 814:0.49034855 815:0.49034855 816:0.49034855 817:0.17028153 818:0.026154781 819:0.019792408 820:0.27859804 821:0.32854798 822:0.48431668 823:0.48431668 824:0.48431668 825:0.18884148 826:0.15072414 827:0.11679062 828:0.19680572 829:0.024191458 830:0.085290521 831:0.22874276 832:0.54947239 833:0.54947239 834:0.54947239 835:0.17194434 836:0.033785477 837:0.057887476 838:0.35859528 839:0.28123114 840:0.34494123 841:0.35859528 842:0.35859528 843:0.35859528 844:0.31006351 845:0.25066355 846:0.35859528 847:0.36500558 848:0.36500558 849:0.36500558 850:0.36500558 851:0.36500558 852:0.36500558 853:0.23449735 854:0.28709188 855:0.2514255 856:0.36380616 857:0.36380616 858:0.36380616 859:0.36380616 860:0.36380616 861:0.36380616 862:0.23107655 863:0.21112156 864:0.328484 865:0.20517893 866:0.55126196 867:0.55126196 868:0.55126196 869:0.20331374 870:0.03451357 871:0.011669983 872:0.031340841 873:0.05085348 874:0.37034574 875:0.18352462 876:0.24098518 877:0.40279415 878:0.40279415 879:0.40279415 880:0.40279415 881:0.21257812 882:0.27735713 883:0.080571555 884:0.054513592 885:0.11829122 886:0.40666413 887:0.53950095 888:0.53950095 889:0.46809193 890:0.063725121 891:0.076645702 892:0.013188739 893:0.0060403231 894:0.010505969 895:0.30033067 896:0.65845919 897:0.65845919 898:0.20507957 899:0.014009417 900:0.0094747515 
1 1:0.33333331 2:0.33333331 3:0.33333331 4:0.33333331 5:0.33333331 6:0.33333331 7:0.33333331 8:0.33333331 9:0.33333331 10:0.38656425 11:0.41500935 12:0.41500935 13:0.41500935 14:0.41500935 15:0.14402437 16:0.077882089 17:0.11357407 18:0.34918374 19:0.25882539 20:0.35275203 21:0.35275203 22:0.35275203 23:0.35275203 24:0.26423365 25:0.34144691 26:0.35275203 27:0.35275203 28:0.035948433 29:0.033664215 30:0.082668133 31:0.49271259 32:0.49271259 33:0.49271259 34:0.49271259 35:0.12070592 36:0.071468107 37:0.14014587 38:0.15790637 39:0.090400964 40:0.38145798 41:0.58174634 42:0.58174634 43:0.31032076 44:0.13235939 45:0.10519803 46:0.016196104 47:0.010608065 48:0.0057856143 49:0.032334834 50:0.33547372 51:0.63607669 52:0.63607669 53:0.27427921 54:0.039840039 55:0.16693556 56:0.16966811 57:0.30293325 58:0.42276892 59:0.42276892 60:0.42276892 61:0.42276892 62:0.33718264 63:0.15149346 64:0.12373126 65:0.1709238 66:0.1222211 67:0.17736891 68:0.46788803 69:0.46788803 70:0.46788803 71:0.2955583 72:0.40615952 73:0.22615492 74:0.29847488 75:0.37862659 76:0.42733249 77:0.42733249 78:0.42733249 79:0.35911202 80:0.12409758 81:0.15558828 82:0.090076245 83:0.034409128 84:0.203246 85:0.25044551 86:0.49725217 87:0.49725217 88:0.49725217 89:0.36043718 90:0.12237766 91:0.26623899 92:0.051494978 93:0.064713575 94:0.2514455 95:0.41528943 96:0.41528943 97:0.41528943 98:0.41528943 99:0.41132849 100:0.31839281 101:0.30612606 102:0.40877479 103:0.24418078 104:0.40877479 105:0.28634045 106:0.40877479 107:0.18062277 108:0.35969803 109:0.11045985 110:0.08388868 111:0.17773353 112:0.47047505 113:0.47047505 114:0.47047505 115:0.45610324 116:0.21390061 117:0.17705405 118:0.26110643 119:0.34128863 120:0.34128863 121:0.34128863 122:0.34128863 123:0.34128863 124:0.34128863 125:0.34128863 126:0.34128863 127:0.31972238 128:0.33661065 129:0.33661065 130:0.32346642 131:0.33661065 132:0.33661065 133:0.33661065 134:0.33661065 135:0.33661065 136:0.07572484 137:0.047061536 138:0.10772664 139:0.56353766 140:0.56353766 141:0.56353766 142:0.13744114 143:0.059964992 144:0.072359934 145:0.34932625 146:0.34932625 147:0.33830604 148:0.17705174 149:0.34932625 150:0.34932625 151:0.34932625 152:0.34932625 153:0.34932625 154:0.12388889 155:0.1934648 156:0.40573257 157:0.40573257 158:0.40573257 159:0.21687751 160:0.40573257 161:0.40573257 162:0.27765521 163:0.39318889 164:0.39318889 165:0.39318889 166:0.39318889 167:0.39318889 168:0.046569083 169:0.19618358 170:0.37359974 171:0.21628483 172:0.041255273 173:0.091095805 174:0.17383549 175:0.16837212 176:0.62662601 177:0.62662601 178:0.37889433 179:0.042053711 180:0.027959634 181:0.23810089 182:0.38467321 183:0.38467321 184:0.38467321 185:0.38467321 186:0.38467321 187:0.3580372 188:0.14070319 189:0.23548356 190:0.15996638 191:0.49086967 192:0.49086967 193:0.49086967 194:0.49086967 195:0.055341128 196:0.046030156 197:0.014424949 198:0.07217402 199:0.14312074 200:0.088116273 201:0.26766849 202:0.41760558 203:0.41760558 204:0.31139264 205:0.41760558 206:0.41760558 207:0.3249037 208:0.036722388 209:0.018014161 210:0.032162607 211:0.21940519 212:0.53553218 213:0.53553218 214:0.53553218 215:0.27920708 216:0.10398684 217:0.094245255 218:0.10678603 219:0.19477133 220:0.52954346 221:0.52954346 222:0.52954346 223:0.28792018 224:0.096314505 225:0.091407411 226:0.0089473044 227:0.0025220001 228:0.0016204802 229:0.21728535 230:0.56166005 231:0.56166005 232:0.56166005 233:0.078541175 234:0.011968443 235:0.085077286 236:0.054458864 237:0.14305781 238:0.23115364 239:0.55983478 240:0.55983478 241:0.52067202 242:0.10612524 243:0.081894509 244:0.32901108 245:0.24052449 246:0.17775273 247:0.36567375 248:0.36567375 249:0.36567375 250:0.36567375 251:0.36567375 252:0.36567375 253:0.32580733 254:0.13710207 255:0.31972808 256:0.31504208 257:0.41709381 258:0.41709381 259:0.41709381 260:0.18661524 261:0.34183052 262:0.094008543 263:0.057276577 264:0.39228883 265:0.56132519 266:0.56132519 267:0.40848953 268:0.14852309 269:0.078224167 270:0.093688369 271:0.11682577 272:0.089096271 273:0.25053293 274:0.52136165 275:0.52136165 276:0.52136165 277:0.27532786 278:0.10818108 279:0.11262462 280:0.075749554 281:0.050942574 282:0.15020066 283:0.5322603 284:0.5322603 285:0.5322603 286:0.29211003 287:0.16110566 288:0.088995285 289:0.040430441 290:0.062979952 291:0.16672815 292:0.55541164 293:0.55541164 294:0.55541164 295:0.19327477 296:0.031283643 297:0.053109732 298:0.023633886 299:0.038833506 300:0.13086183 301:0.56534266 302:0.60594219 303:0.54011953 304:0.03481121 305:0.022766905 306:0.023897408 307:0.008198713 308:0.009564898 309:0.076711833 310:0.43580663 311:0.62727654 312:0.62727654 313:0.1287314 314:0.02060255 315:0.0090162307 316:0.021620464 317:0.14634176 318:0.35045594 319:0.60760641 320:0.60760641 321:0.33830914 322:0.042377755 323:0.019276975 324:0.017485242 325:0.1462163 326:0.070717402 327:0.21053097 328:0.39898539 329:0.56748658 330:0.56748658 331:0.32455209 332:0.093884535 333:0.10898017 334:0.23346229 335:0.19113037 336:0.44976008 337:0.44976008 338:0.44976008 339:0.44976008 340:0.20249917 341:0.030948741 342:0.24054983 343:0.30751789 344:0.41672367 345:0.41672367 346:0.41672367 347:0.41672367 348:0.41672367 349:0.10618019 350:0.019017158 351:0.15969865 352:0.2937189 353:0.3150965 354:0.41925004 355:0.41925004 356:0.41925004 357:0.39173797 358:0.15475118 359:0.14882116 360:0.29593462 361:0.3723745 362:0.38733429 363:0.38733429 364:0.38733429 365:0.38733429 366:0.38733429 367:0.23215553 368:0.14821114 369:0.18797633 370:0.42495972 371:0.42495972 372:0.42495972 373:0.42495972 374:0.42495972 375:0.10080496 376:0.11733843 377:0.13059098 378:0.23677488 379:0.33967724 380:0.27740753 381:0.33967724 382:0.33967724 383:0.33967724 384:0.33967724 385:0.33967724 386:0.33967724 387:0.33967724 388:0.077481598 389:0.11693067 390:0.18830745 391:0.44034865 392:0.47158948 393:0.47158948 394:0.47158948 395:0.27536845 396:0.08910393 397:0.066039972 398:0.1410253 399:0.16302398 400:0.2894181 401:0.52348435 402:0.52348435 403:0.52348435 404:0.1944326 405:0.074156843 406:0.015595901 407:0.0031264385 408:0.0051453048 409:0.16110376 410:0.49571463 411:0.56686157 412:0.56686157 413:0.29126129 414:0.023147246 415:0.08277452 416:0.078333534 417:0.14680248 418:0.3062703 419:0.4924933 420:0.4924933 421:0.4924933 422:0.36961737 423:0.08598683 424:0.22012442 425:0.13110761 426:0.1312657 427:0.37258527 428:0.48410153 429:0.48410153 430:0.48410153 431:0.20459445 432:0.18271214 433:0.18974091 434:0.1381629 435:0.1534576 436:0.4317739 437:0.43732959 438:0.43732959 439:0.43732959 440:0.33558002 441:0.22033173 442:0.10738236 443:0.13419051 444:0.49513769 445:0.49513769 446:0.49513769 447:0.41751432 448:0.17439045 449:0.10369415 450:0.13962546 451:0.10679395 452:0.17928627 453:0.41051477 454:0.41725105 455:0.41725105 456:0.41725105 457:0.41725105 458:0.27881345 459:0.11746626 460:0.11169399 461:0.16778785 462:0.24865887 463:0.4539707 464:0.4539707 465:0.4539707 466:0.43369919 467:0.25861213 468:0.15587503 469:0.033828814 470:0.1111628 471:0.18260619 472:0.56218892 473:0.56218892 474:0.56218892 475:0.059100743 476:0.025047172 477:0.029396603 478:0.022472639 479:0.048526868 480:0.13629629 481:0.62635547 482:0.62635547 483:0.43423104 484:0.059917256 485:0.031362288 486:0.028119067 487:0.023213273 488:0.085796215 489:0.44181773 490:0.49891323 491:0.49891323 492:0.49891323 493:0.2000787 494:0.084018521 495:0.055347245 496:0.077749692 497:0.052143455 498:0.23523198 499:0.54825157 500:0.54825157 501:0.54825157 502:0.15939771 503:0.054853305 504:0.075802088 505:0.04082118 506:0.035261411 507:0.098841429 508:0.24885206 509:0.55044395 510:0.55044395 511:0.55044395 512:0.12399483 513:0.0324465 514:0.1090439 515:0.15752427 516:0.48554572 517:0.48554572 518:0.48554572 519:0.48554572 520:0.097117469 521:0.080629751 522:0.06590943 523:0.16466065 524:0.43262616 525:0.43262616 526:0.43262616 527:0.43262616 528:0.2997098 529:0.30020225 530:0.18704973 531:0.096386857 532:0.15762141 533:0.30974397 534:0.37269941 535:0.55445409 536:0.55445409 537:0.28585219 538:0.13731068 539:0.10838979 540:0.11470158 541:0.33333331 542:0.33333331 543:0.33333331 544:0.33333331 545:0.33333331 546:0.33333331 547:0.33333331 548:0.33333331 549:0.33333331 550:0.37195072 551:0.44600162 552:0.44600162 553:0.44600162 554:0.44600162 555:0.053103704 556:0.090002239 557:0.14410776 558:0.18519007 559:0.3040131 560:0.32077506 561:0.36220813 562:0.36220813 563:0.36220813 564:0.32560983 565:0.36220813 566:0.2568385 567:0.32850078 568:0.065278701 569:0.096266739 570:0.27134597 571:0.45386192 572:0.45386192 573:0.45386192 574:0.45386192 575:0.2755219 576:0.11387661 577:0.2424143 578:0.18963572 579:0.078823991 580:0.29641643 581:0.4799805 582:0.4799805 583:0.4799805 584:0.28906834 585:0.19103241 586:0.017742919 587:0.01224115 588:0.006500355 589:0.029444888 590:0.55545688 591:0.55545688 592:0.55545688 593:0.26729891 594:0.039752141 595:0.13528834 596:0.15258864 597:0.38062915 598:0.42881635 599:0.42881635 600:0.42881635 601:0.42881635 602:0.20250644 603:0.19233432 604:0.27619171 605:0.18042505 606:0.084047414 607:0.38001323 608:0.39874512 609:0.39874512 610:0.39874512 611:0.39874512 612:0.32202527 613:0.33219168 614:0.13890037 615:0.23690219 616:0.39862269 617:0.43620852 618:0.43620852 619:0.43620852 620:0.19838446 621:0.2124678 622:0.10458585 623:0.086543739 624:0.32071063 625:0.45742351 626:0.45742351 627:0.45742351 628:0.45742351 629:0.15056749 630:0.13820647 631:0.33572569 632:0.23871458 633:0.35221767 634:0.35221767 635:0.35221767 636:0.35221767 637:0.35221767 638:0.35221767 639:0.2931892 640:0.26123083 641:0.27673832 642:0.25265154 643:0.22759862 644:0.45989409 645:0.45989409 646:0.45989409 647:0.24969456 648:0.20660406 649:0.069323011 650:0.051120702 651:0.1713617 652:0.37290853 653:0.47862929 654:0.47862929 655:0.47862929 656:0.35115269 657:0.11657221 658:0.25874403 659:0.29434583 660:0.34772977 661:0.34772977 662:0.34772977 663:0.34772977 664:0.34772977 665:0.34772977 666:0.34772977 667:0.33333331 668:0.33333331 669:0.33333331 670:0.33333331 671:0.33333331 672:0.33333331 673:0.33333331 674:0.33333331 675:0.33333331 676:0.040883195 677:0.049074251 678:0.25267914 679:0.57393259 680:0.57393259 681:0.47809526 682:0.19802964 683:0.056647055 684:0.047712885 685:0.3430765 686:0.33870137 687:0.21769409 688:0.36652464 689:0.36652464 690:0.36652464 691:0.36652464 692:0.36652464 693:0.22019941 694:0.115671 695:0.12435772 696:0.3206085 697:0.56539905 698:0.56539905 699:0.39016032 700:0.18230894 701:0.16071016 702:0.13313177 703:0.38198549 704:0.38198549 705:0.38198549 706:0.38198549 707:0.38198549 708:0.10908262 709:0.15865423 710:0.29572335 711:0.38198549 712:0.28433713 713:0.36723307 714:0.36723307 715:0.36723307 716:0.36723307 717:0.36723307 718:0.35241863 719:0.21687739 720:0.27132449 721:0.33787283 722:0.33787283 723:0.33787283 724:0.33787283 725:0.33787283 726:0.33787283 727:0.33787283 728:0.29450911 729:0.33787283 730:0.38280007 731:0.45144543 732:0.45144543 733:0.45144543 734:0.45144543 735:0.076561555 736:0.088088393 737:0.084125228 738:0.13249138 739:0.24585274 740:0.31427521 741:0.38798383 742:0.38798383 743:0.38798383 744:0.2385373 745:0.17672071 746:0.38798383 747:0.38798383 748:0.061447084 749:0.073832899 750:0.16288152 751:0.46297595 752:0.46297595 753:0.46297595 754:0.46297595 755:0.30174917 756:0.12570995 757:0.16558142 758:0.13890138 759:0.053921457 760:0.3608869 761:0.54614127 762:0.54614127 763:0.40503401 764:0.21569894 765:0.11411908 766:0.026406731 767:0.018941915 768:0.020294381 769:0.042292699 770:0.47395396 771:0.58398521 772:0.58398521 773:0.29232591 774:0.067668609 775:0.22349323 776:0.20719966 777:0.40703788 778:0.40703788 779:0.40703788 780:0.40703788 781:0.40703788 782:0.23743235 783:0.14948536 784:0.30086103 785:0.2109089 786:0.14043067 787:0.3110511 788:0.38691768 789:0.38691768 790:0.38691768 791:0.38691768 792:0.38691768 793:0.13055116 794:0.12412705 795:0.22585741 796:0.2774117 797:0.55827743 798:0.55827743 799:0.41121277 800:0.10183951 801:0.19174303 802:0.068525709 803:0.055799738 804:0.080030769 805:0.10083245 806:0.51937467 807:0.51937467 808:0.51937467 809:0.37256005 810:0.16603392 811:0.29061234 812:0.12966621 813:0.34764561 814:0.17140166 815:0.3869096 816:0.3869096 817:0.3869096 818:0.3869096 819:0.3869096 820:0.37952644 821:0.30199194 822:0.37952644 823:0.11090171 824:0.37952644 825:0.17960991 826:0.37952644 827:0.37952644 828:0.37952644 829:0.27486491 830:0.088809937 831:0.14247847 832:0.40606955 833:0.40606955 834:0.40606955 835:0.40606955 836:0.34261462 837:0.34540904 838:0.33333331 839:0.33333331 840:0.33333331 841:0.33333331 842:0.33333331 843:0.33333331 844:0.33333331 845:0.33333331 846:0.33333331 847:0.33333331 848:0.33333331 849:0.33333331 850:0.33333331 851:0.33333331 852:0.33333331 853:0.33333331 854:0.33333331 855:0.33333331 856:0.055439681 857:0.030519579 858:0.14251755 859:0.56027967 860:0.56027967 861:0.56027967 862:0.17405704 863:0.028799184 864:0.053092152 865:0.33923259 866:0.33923259 867:0.33923259 868:0.28172678 869:0.33923259 870:0.33923259 871:0.33923259 872:0.33923259 873:0.33923259 874:0.22501671 875:0.24603401 876:0.37827551 877:0.37827551 878:0.37827551 879:0.33593151 880:0.37827551 881:0.37827551 882:0.24601419 883:0.37711948 884:0.37711948 885:0.37711948 886:0.37711948 887:0.37711948 888:0.20919536 889:0.10181957 890:0.30422944 891:0.37711948 892:0.037049517 893:0.028533513 894:0.029006507 895:0.11051173 896:0.58507347 897:0.58507347 898:0.54109716 899:0.07531929 900:0.040963136 
1 1:0.33333331 2:0.33333331 3:0.33333331 4:0.33333331 5:0.33333331 6:0.33333331 7:0.33333331 8:0.33333331 9:0.33333331 10:0.38656425 11:0.41500935 12:0.41500935 13:0.41500935 14:0.41500935 15:0.14402437 16:0.077882089 17:0.11357407 18:0.34918374 19:0.25882539 20:0.35275203 21:0.35275203 22:0.35275203 23:0.35275203 24:0.26423365 25:0.34144691 26:0.35275203 27:0.35275203 28:0.035948433 29:0.033664215 30:0.082668133 31:0.49271259 32:0.49271259 33:0.49271259 34:0.49271259 35:0.12070592 36:0.071468107 37:0.14014587 38:0.15790637 39:0.090400964 40:0.38145798 41:0.58174634 42:0.58174634 43:0.31032076 44:0.13235939 45:0.10519803 46:0.016196104 47:0.010608065 48:0.0057856143 49:0.032334834 50:0.33547372 51:0.63607669 52:0.63607669 53:0.27427921 54:0.039840039 55:0.16693556 56:0.16966811 57:0.30293325 58:0.42276892 59:0.42276892 60:0.42276892 61:0.42276892 62:0.33718264 63:0.15149346 64:0.12373126 65:0.1709238 66:0.1222211 67:0.17736891 68:0.46788803 69:0.46788803 70:0.46788803 71:0.2955583 72:0.40615952 73:0.22615492 74:0.29847488 75:0.37862659 76:0.42733249 77:0.42733249 78:0.42733249 79:0.35911202 80:0.12409758 81:0.15558828 82:0.090076245 83:0.034409128 84:0.203246 85:0.25044551 86:0.49725217 87:0.49725217 88:0.49725217 89:0.36043718 90:0.12237766 91:0.26623899 92:0.051494978 93:0.064713575 94:0.2514455 95:0.41528943 96:0.41528943 97:0.41528943 98:0.41528943 99:0.41132849 100:0.31839281 101:0.30612606 102:0.40877479 103:0.24418078 104:0.40877479 105:0.28634045 106:0.40877479 107:0.18062277 108:0.35969803 109:0.11045985 110:0.08388868 111:0.17773353 112:0.47047505 113:0.47047505 114:0.47047505 115:0.45610324 116:0.21390061 117:0.17705405 118:0.26110643 119:0.34128863 120:0.34128863 121:0.34128863 122:0.34128863 123:0.34128863 124:0.34128863 125:0.34128863 126:0.34128863 127:0.31972238 128:0.33661065 129:0.33661065 130:0.32346642 131:0.33661065 132:0.33661065 133:0.33661065 134:0.33661065 135:0.33661065 136:0.07572484 137:0.047061536 138:0.10772664 139:0.56353766 140:0.56353766 141:0.56353766 142:0.13744114 143:0.059964992 144:0.072359934 145:0.34932625 146:0.34932625 147:0.33830604 148:0.17705174 149:0.34932625 150:0.34932625 151:0.34932625 152:0.34932625 153:0.34932625 154:0.12388889 155:0.1934648 156:0.40573257 157:0.40573257 158:0.40573257 159:0.21687751 160:0.40573257 161:0.40573257 162:0.27765521 163:0.39318889 164:0.39318889 165:0.39318889 166:0.39318889 167:0.39318889 168:0.046569083 169:0.19618358 170:0.37359974 171:0.21628483 172:0.041255273 173:0.091095805 174:0.17383549 175:0.16837212 176:0.62662601 177:0.62662601 178:0.37889433 179:0.042053711 180:0.027959634 181:0.23810089 182:0.38467321 183:0.38467321 184:0.38467321 185:0.38467321 186:0.38467321 187:0.3580372 188:0.14070319 189:0.23548356 190:0.15996638 191:0.49086967 192:0.49086967 193:0.49086967 194:0.49086967 195:0.055341128 196:0.046030156 197:0.014424949 198:0.07217402 199:0.14312074 200:0.088116273 201:0.26766849 202:0.41760558 203:0.41760558 204:0.31139264 205:0.41760558 206:0.41760558 207:0.3249037 208:0.036722388 209:0.018014161 210:0.032162607 211:0.21940519 212:0.53553218 213:0.53553218 214:0.53553218 215:0.27920708 216:0.10398684 217:0.094245255 218:0.10678603 219:0.19477133 220:0.52954346 221:0.52954346 222:0.52954346 223:0.28792018 224:0.096314505 225:0.091407411 226:0.0089473044 227:0.0025220001 228:0.0016204802 229:0.21728535 230:0.56166005 231:0.56166005 232:0.56166005 233:0.078541175 234:0.011968443 235:0.085077286 236:0.054458864 237:0.14305781 238:0.23115364 239:0.55983478 240:0.55983478 241:0.52067202 242:0.10612524 243:0.081894509 244:0.32901108 245:0.24052449 246:0.17775273 247:0.36567375 248:0.36567375 249:0.36567375 250:0.36567375 251:0.36567375 252:0.36567375 253:0.32580733 254:0.13710207 255:0.31972808 256:0.31504208 257:0.41709381 258:0.41709381 259:0.41709381 260:0.18661524 261:0.34183052 262:0.094008543 263:0.057276577 264:0.39228883 265:0.56132519 266:0.56132519 267:0.40848953 268:0.14852309 269:0.078224167 270:0.093688369 271:0.11682577 272:0.089096271 273:0.25053293 274:0.52136165 275:0.52136165 276:0.52136165 277:0.27532786 278:0.10818108 279:0.11262462 280:0.075749554 281:0.050942574 282:0.15020066 283:0.5322603 284:0.5322603 285:0.5322603 286:0.29211003 287:0.16110566 288:0.088995285 289:0.040430441 290:0.062979952 291:0.16672815 292:0.55541164 293:0.55541164 294:0.55541164 295:0.19327477 296:0.031283643 297:0.053109732 298:0.023633886 299:0.038833506 300:0.13086183 301:0.56534266 302:0.60594219 303:0.54011953 304:0.03481121 305:0.022766905 306:0.023897408 307:0.008198713 308:0.009564898 309:0.076711833 310:0.43580663 311:0.62727654 312:0.62727654 313:0.1287314 314:0.02060255 315:0.0090162307 316:0.021620464 317:0.14634176 318:0.35045594 319:0.60760641 320:0.60760641 321:0.33830914 322:0.042377755 323:0.019276975 324:0.017485242 325:0.1462163 326:0.070717402 327:0.21053097 328:0.39898539 329:0.56748658 330:0.56748658 331:0.32455209 332:0.093884535 333:0.10898017 334:0.23346229 335:0.19113037 336:0.44976008 337:0.44976008 338:0.44976008 339:0.44976008 340:0.20249917 341:0.030948741 342:0.24054983 343:0.30751789 344:0.41672367 345:0.41672367 346:0.41672367 347:0.41672367 348:0.41672367 349:0.10618019 350:0.019017158 351:0.15969865 352:0.2937189 353:0.3150965 354:0.41925004 355:0.41925004 356:0.41925004 357:0.39173797 358:0.15475118 359:0.14882116 360:0.29593462 361:0.3723745 362:0.38733429 363:0.38733429 364:0.38733429 365:0.38733429 366:0.38733429 367:0.23215553 368:0.14821114 369:0.18797633 370:0.42495972 371:0.42495972 372:0.42495972 373:0.42495972 374:0.42495972 375:0.10080496 376:0.11733843 377:0.13059098 378:0.23677488 379:0.33967724 380:0.27740753 381:0.33967724 382:0.33967724 383:0.33967724 384:0.33967724 385:0.33967724 386:0.33967724 387:0.33967724 388:0.077481598 389:0.11693067 390:0.18830745 391:0.44034865 392:0.47158948 393:0.47158948 394:0.47158948 395:0.27536845 396:0.08910393 397:0.066039972 398:0.1410253 399:0.16302398 400:0.2894181 401:0.52348435 402:0.52348435 403:0.52348435 404:0.1944326 405:0.074156843 406:0.015595901 407:0.0031264385 408:0.0051453048 409:0.16110376 410:0.49571463 411:0.56686157 412:0.56686157 413:0.29126129 414:0.023147246 415:0.08277452 416:0.078333534 417:0.14680248 418:0.3062703 419:0.4924933 420:0.4924933 421:0.4924933 422:0.36961737 423:0.08598683 424:0.22012442 425:0.13110761 426:0.1312657 427:0.37258527 428:0.48410153 429:0.48410153 430:0.48410153 431:0.20459445 432:0.18271214 433:0.18974091 434:0.1381629 435:0.1534576 436:0.4317739 437:0.43732959 438:0.43732959 439:0.43732959 440:0.33558002 441:0.22033173 442:0.10738236 443:0.13419051 444:0.49513769 445:0.49513769 446:0.49513769 447:0.41751432 448:0.17439045 449:0.10369415 450:0.13962546 451:0.10679395 452:0.17928627 453:0.41051477 454:0.41725105 455:0.41725105 456:0.41725105 457:0.41725105 458:0.27881345 459:0.11746626 460:0.11169399 461:0.16778785 462:0.24865887 463:0.4539707 464:0.4539707 465:0.4539707 466:0.43369919 467:0.25861213 468:0.15587503 469:0.033828814 470:0.1111628 471:0.18260619 472:0.56218892 473:0.56218892 474:0.56218892 475:0.059100743 476:0.025047172 477:0.029396603 478:0.022472639 479:0.048526868 480:0.13629629 481:0.62635547 482:0.62635547 483:0.43423104 484:0.059917256 485:0.031362288 486:0.028119067 487:0.023213273 488:0.085796215 489:0.44181773 490:0.49891323 491:0.49891323 492:0.49891323 493:0.2000787 494:0.084018521 495:0.055347245 496:0.077749692 497:0.052143455 498:0.23523198 499:0.54825157 500:0.54825157 501:0.54825157 502:0.15939771 503:0.054853305 504:0.075802088 505:0.04082118 506:0.035261411 507:0.098841429 508:0.24885206 509:0.55044395 510:0.55044395 511:0.55044395 512:0.12399483 513:0.0324465 514:0.1090439 515:0.15752427 516:0.48554572 517:0.48554572 518:0.48554572 519:0.48554572 520:0.097117469 521:0.080629751 522:0.06590943 523:0.16466065 524:0.43262616 525:0.43262616 526:0.43262616 527:0.43262616 528:0.2997098 529:0.30020225 530:0.18704973 531:0.096386857 532:0.15762141 533:0.30974397 534:0.37269941 535:0.55445409 536:0.55445409 537:0.28585219 538:0.13731068 539:0.10838979 540:0.11470158 541:0.33787283 542:0.33787283 543:0.33787283 544:0.33787283 545:0.33787283 546:0.33787283 547:0.33787283 548:0.29450911 549:0.33787283 550:0.38280007 551:0.45144543 552:0.45144543 553:0.45144543 554:0.45144543 555:0.076561555 556:0.088088393 557:0.084125228 558:0.13249138 559:0.24585274 560:0.31427521 561:0.38798383 562:0.38798383 563:0.38798383 564:0.2385373 565:0.17672071 566:0.38798383 567:0.38798383 568:0.061447084 569:0.073832899 570:0.16288152 571:0.46297595 572:0.46297595 573:0.46297595 574:0.46297595 575:0.30174917 576:0.12570995 577:0.16558142 578:0.13890138 579:0.053921457 580:0.3608869 581:0.54614127 582:0.54614127 583:0.40503401 584:0.21569894 585:0.11411908 586:0.026406731 587:0.018941915 588:0.020294381 589:0.042292699 590:0.47395396 591:0.58398521 592:0.58398521 593:0.29232591 594:0.067668609 595:0.22349323 596:0.20719966 597:0.40703788 598:0.40703788 599:0.40703788 600:0.40703788 601:0.40703788 602:0.23743235 603:0.14948536 604:0.30086103 605:0.2109089 606:0.14043067 607:0.3110511 608:0.38691768 609:0.38691768 610:0.38691768 611:0.38691768 612:0.38691768 613:0.13055116 614:0.12412705 615:0.22585741 616:0.2774117 617:0.55827743 618:0.55827743 619:0.41121277 620:0.10183951 621:0.19174303 622:0.068525709 623:0.055799738 624:0.080030769 625:0.10083245 626:0.51937467 627:0.51937467 628:0.51937467 629:0.37256005 630:0.16603392 631:0.29061234 632:0.12966621 633:0.34764561 634:0.17140166 635:0.3869096 636:0.3869096 637:0.3869096 638:0.3869096 639:0.3869096 640:0.37952644 641:0.30199194 642:0.37952644 643:0.11090171 644:0.37952644 645:0.17960991 646:0.37952644 647:0.37952644 648:0.37952644 649:0.27486491 650:0.088809937 651:0.14247847 652:0.40606955 653:0.40606955 654:0.40606955 655:0.40606955 656:0.34261462 657:0.34540904 658:0.33333331 659:0.33333331 660:0.33333331 661:0.33333331 662:0.33333331 663:0.33333331 664:0.33333331 665:0.33333331 666:0.33333331 667:0.33333331 668:0.33333331 669:0.33333331 670:0.33333331 671:0.33333331 672:0.33333331 673:0.33333331 674:0.33333331 675:0.33333331 676:0.055439681 677:0.030519579 678:0.14251755 679:0.56027967 680:0.56027967 681:0.56027967 682:0.17405704 683:0.028799184 684:0.053092152 685:0.33923259 686:0.33923259 687:0.33923259 688:0.28172678 689:0.33923259 690:0.33923259 691:0.33923259 692:0.33923259 693:0.33923259 694:0.22501671 695:0.24603401 696:0.37827551 697:0.37827551 698:0.37827551 699:0.33593151 700:0.37827551 701:0.37827551 702:0.24601419 703:0.37711948 704:0.37711948 705:0.37711948 706:0.37711948 707:0.37711948 708:0.20919536 709:0.10181957 710:0.30422944 711:0.37711948 712:0.037049517 713:0.028533513 714:0.029006507 715:0.11051173 716:0.58507347 717:0.58507347 718:0.54109716 719:0.07531929 720:0.040963136 721:0.33333331 722:0.33333331 723:0.33333331 724:0.33333331 725:0.33333331 726:0.33333331 727:0.33333331 728:0.33333331 729:0.33333331 730:0.37195072 731:0.44600162 732:0.44600162 733:0.44600162 734:0.44600162 735:0.053103704 736:0.090002239 737:0.14410776 738:0.18519007 739:0.3040131 740:0.32077506 741:0.36220813 742:0.36220813 743:0.36220813 744:0.32560983 745:0.36220813 746:0.2568385 747:0.32850078 748:0.065278701 749:0.096266739 750:0.27134597 751:0.45386192 752:0.45386192 753:0.45386192 754:0.45386192 755:0.2755219 756:0.11387661 757:0.2424143 758:0.18963572 759:0.078823991 760:0.29641643 761:0.4799805 762:0.4799805 763:0.4799805 764:0.28906834 765:0.19103241 766:0.017742919 767:0.01224115 768:0.006500355 769:0.029444888 770:0.55545688 771:0.55545688 772:0.55545688 773:0.26729891 774:0.039752141 775:0.13528834 776:0.15258864 777:0.38062915 778:0.42881635 779:0.42881635 780:0.42881635 781:0.42881635 782:0.20250644 783:0.19233432 784:0.27619171 785:0.18042505 786:0.084047414 787:0.38001323 788:0.39874512 789:0.39874512 790:0.39874512 791:0.39874512 792:0.32202527 793:0.33219168 794:0.13890037 795:0.23690219 796:0.39862269 797:0.43620852 798:0.43620852 799:0.43620852 800:0.19838446 801:0.2124678 802:0.10458585 803:0.086543739 804:0.32071063 805:0.45742351 806:0.45742351 807:0.45742351 808:0.45742351 809:0.15056749 810:0.13820647 811:0.33572569 812:0.23871458 813:0.35221767 814:0.35221767 815:0.35221767 816:0.35221767 817:0.35221767 818:0.35221767 819:0.2931892 820:0.26123083 821:0.27673832 822:0.25265154 823:0.22759862 824:0.45989409 825:0.45989409 826:0.45989409 827:0.24969456 828:0.20660406 829:0.069323011 830:0.051120702 831:0.1713617 832:0.37290853 833:0.47862929 834:0.47862929 835:0.47862929 836:0.35115269 837:0.11657221 838:0.25874403 839:0.29434583 840:0.34772977 841:0.34772977 842:0.34772977 843:0.34772977 844:0.34772977 845:0.34772977 846:0.34772977 847:0.33333331 848:0.33333331 849:0.33333331 850:0.33333331 851:0.33333331 852:0.33333331 853:0.33333331 854:0.33333331 855:0.33333331 856:0.040883195 857:0.049074251 858:0.25267914 859:0.57393259 860:0.57393259 861:0.47809526 862:0.19802964 863:0.056647055 864:0.047712885 865:0.3430765 866:0.33870137 867:0.21769409 868:0.36652464 869:0.36652464 870:0.36652464 871:0.36652464 872:0.36652464 873:0.22019941 874:0.115671 875:0.12435772 876:0.3206085 877:0.56539905 878:0.56539905 879:0.39016032 880:0.18230894 881:0.16071016 882:0.13313177 883:0.38198549 884:0.38198549 885:0.38198549 886:0.38198549 887:0.38198549 888:0.10908262 889:0.15865423 890:0.29572335 891:0.38198549 892:0.28433713 893:0.36723307 894:0.36723307 895:0.36723307 896:0.36723307 897:0.36723307 898:0.35241863 899:0.21687739 900:0.27132449 
1 1:0.3723745 2:0.38733429 3:0.38733429 4:0.38733429 5:0.38733429 6:0.38733429 7:0.23215553 8:0.14821114 9:0.18797633 10:0.42495972 11:0.42495972 12:0.42495972 13:0.42495972 14:0.42495972 15:0.10080496 16:0.11733843 17:0.13059098 18:0.23677488 19:0.33967724 20:0.27740753 21:0.33967724 22:0.33967724 23:0.33967724 24:0.33967724 25:0.33967724 26:0.33967724 27:0.33967724 28:0.077481598 29:0.11693067 30:0.18830745 31:0.44034865 32:0.47158948 33:0.47158948 34:0.47158948 35:0.27536845 36:0.08910393 37:0.066039972 38:0.1410253 39:0.16302398 40:0.2894181 41:0.52348435 42:0.52348435 43:0.52348435 44:0.1944326 45:0.074156843 46:0.015595901 47:0.0031264385 48:0.0051453048 49:0.16110376 50:0.49571463 51:0.56686157 52:0.56686157 53:0.29126129 54:0.023147246 55:0.08277452 56:0.078333534 57:0.14680248 58:0.3062703 59:0.4924933 60:0.4924933 61:0.4924933 62:0.36961737 63:0.08598683 64:0.22012442 65:0.13110761 66:0.1312657 67:0.37258527 68:0.48410153 69:0.48410153 70:0.48410153 71:0.20459445 72:0.18271214 73:0.18974091 74:0.1381629 75:0.1534576 76:0.4317739 77:0.43732959 78:0.43732959 79:0.43732959 80:0.33558002 81:0.22033173 82:0.10738236 83:0.13419051 84:0.49513769 85:0.49513769 86:0.49513769 87:0.41751432 88:0.17439045 89:0.10369415 90:0.13962546 91:0.10679395 92:0.17928627 93:0.41051477 94:0.41725105 95:0.41725105 96:0.41725105 97:0.41725105 98:0.27881345 99:0.11746626 100:0.11169399 101:0.16778785 102:0.24865887 103:0.4539707 104:0.4539707 105:0.4539707 106:0.43369919 107:0.25861213 108:0.15587503 109:0.033828814 110:0.1111628 111:0.18260619 112:0.56218892 113:0.56218892 114:0.56218892 115:0.059100743 116:0.025047172 117:0.029396603 118:0.022472639 119:0.048526868 120:0.13629629 121:0.62635547 122:0.62635547 123:0.43423104 124:0.059917256 125:0.031362288 126:0.028119067 127:0.023213273 128:0.085796215 129:0.44181773 130:0.49891323 131:0.49891323 132:0.49891323 133:0.2000787 134:0.084018521 135:0.055347245 136:0.077749692 137:0.052143455 138:0.23523198 139:0.54825157 140:0.54825157 141:0.54825157 142:0.15939771 143:0.054853305 144:0.075802088 145:0.04082118 146:0.035261411 147:0.098841429 148:0.24885206 149:0.55044395 150:0.55044395 151:0.55044395 152:0.12399483 153:0.0324465 154:0.1090439 155:0.15752427 156:0.48554572 157:0.48554572 158:0.48554572 159:0.48554572 160:0.097117469 161:0.080629751 162:0.06590943 163:0.16466065 164:0.43262616 165:0.43262616 166:0.43262616 167:0.43262616 168:0.2997098 169:0.30020225 170:0.18704973 171:0.096386857 172:0.15762141 173:0.30974397 174:0.37269941 175:0.55445409 176:0.55445409 177:0.28585219 178:0.13731068 179:0.10838979 180:0.11470158 181:0.33333331 182:0.33333331 183:0.33333331 184:0.33333331 185:0.33333331 186:0.33333331 187:0.33333331 188:0.33333331 189:0.33333331 190:0.37195072 191:0.44600162 192:0.44600162 193:0.44600162 194:0.44600162 195:0.053103704 196:0.090002239 197:0.14410776 198:0.18519007 199:0.3040131 200:0.32077506 201:0.36220813 202:0.36220813 203:0.36220813 204:0.32560983 205:0.36220813 206:0.2568385 207:0.32850078 208:0.065278701 209:0.096266739 210:0.27134597 211:0.45386192 212:0.45386192 213:0.45386192 214:0.45386192 215:0.2755219 216:0.11387661 217:0.2424143 218:0.18963572 219:0.078823991 220:0.29641643 221:0.4799805 222:0.4799805 223:0.4799805 224:0.28906834 225:0.19103241 226:0.017742919 227:0.01224115 228:0.006500355 229:0.029444888 230:0.55545688 231:0.55545688 232:0.55545688 233:0.26729891 234:0.039752141 235:0.13528834 236:0.15258864 237:0.38062915 238:0.42881635 239:0.42881635 240:0.42881635 241:0.42881635 242:0.20250644 243:0.19233432 244:0.27619171 245:0.18042505 246:0.084047414 247:0.38001323 248:0.39874512 249:0.39874512 250:0.39874512 251:0.39874512 252:0.32202527 253:0.33219168 254:0.13890037 255:0.23690219 256:0.39862269 257:0.43620852 258:0.43620852 259:0.43620852 260:0.19838446 261:0.2124678 262:0.10458585 263:0.086543739 264:0.32071063 265:0.45742351 266:0.45742351 267:0.45742351 268:0.45742351 269:0.15056749 270:0.13820647 271:0.33572569 272:0.23871458 273:0.35221767 274:0.35221767 275:0.35221767 276:0.35221767 277:0.35221767 278:0.35221767 279:0.2931892 280:0.26123083 281:0.27673832 282:0.25265154 283:0.22759862 284:0.45989409 285:0.45989409 286:0.45989409 287:0.24969456 288:0.20660406 289:0.069323011 290:0.051120702 291:0.1713617 292:0.37290853 293:0.47862929 294:0.47862929 295:0.47862929 296:0.35115269 297:0.11657221 298:0.25874403 299:0.29434583 300:0.34772977 301:0.34772977 302:0.34772977 303:0.34772977 304:0.34772977 305:0.34772977 306:0.34772977 307:0.33333331 308:0.33333331 309:0.33333331 310:0.33333331 311:0.33333331 312:0.33333331 313:0.33333331 314:0.33333331 315:0.33333331 316:0.040883195 317:0.049074251 318:0.25267914 319:0.57393259 320:0.57393259 321:0.47809526 322:0.19802964 323:0.056647055 324:0.047712885 325:0.3430765 326:0.33870137 327:0.21769409 328:0.36652464 329:0.36652464 330:0.36652464 331:0.36652464 332:0.36652464 333:0.22019941 334:0.115671 335:0.12435772 336:0.3206085 337:0.56539905 338:0.56539905 339:0.39016032 340:0.18230894 341:0.16071016 342:0.13313177 343:0.38198549 344:0.38198549 345:0.38198549 346:0.38198549 347:0.38198549 348:0.10908262 349:0.15865423 350:0.29572335 351:0.38198549 352:0.28433713 353:0.36723307 354:0.36723307 355:0.36723307 356:0.36723307 357:0.36723307 358:0.35241863 359:0.21687739 360:0.27132449 361:0.33333331 362:0.33333331 363:0.33333331 364:0.33333331 365:0.33333331 366:0.33333331 367:0.33333331 368:0.33333331 369:0.33333331 370:0.38656425 371:0.41500935 372:0.41500935 373:0.41500935 374:0.41500935 375:0.14402437 376:0.077882089 377:0.11357407 378:0.34918374 379:0.25882539 380:0.35275203 381:0.35275203 382:0.35275203 383:0.35275203 384:0.26423365 385:0.34144691 386:0.35275203 387:0.35275203 388:0.035948433 389:0.033664215 390:0.082668133 391:0.49271259 392:0.49271259 393:0.49271259 394:0.49271259 395:0.12070592 396:0.071468107 397:0.14014587 398:0.15790637 399:0.090400964 400:0.38145798 401:0.58174634 402:0.58174634 403:0.31032076 404:0.13235939 405:0.10519803 406:0.016196104 407:0.010608065 408:0.0057856143 409:0.032334834 410:0.33547372 411:0.63607669 412:0.63607669 413:0.27427921 414:0.039840039 415:0.16693556 416:0.16966811 417:0.30293325 418:0.42276892 419:0.42276892 420:0.42276892 421:0.42276892 422:0.33718264 423:0.15149346 424:0.12373126 425:0.1709238 426:0.1222211 427:0.17736891 428:0.46788803 429:0.46788803 430:0.46788803 431:0.2955583 432:0.40615952 433:0.22615492 434:0.29847488 435:0.37862659 436:0.42733249 437:0.42733249 438:0.42733249 439:0.35911202 440:0.12409758 441:0.15558828 442:0.090076245 443:0.034409128 444:0.203246 445:0.25044551 446:0.49725217 447:0.49725217 448:0.49725217 449:0.36043718 450:0.12237766 451:0.26623899 452:0.051494978 453:0.064713575 454:0.2514455 455:0.41528943 456:0.41528943 457:0.41528943 458:0.41528943 459:0.41132849 460:0.31839281 461:0.30612606 462:0.40877479 463:0.24418078 464:0.40877479 465:0.28634045 466:0.40877479 467:0.18062277 468:0.35969803 469:0.11045985 470:0.08388868 471:0.17773353 472:0.47047505 473:0.47047505 474:0.47047505 475:0.45610324 476:0.21390061 477:0.17705405 478:0.26110643 479:0.34128863 480:0.34128863 481:0.34128863 482:0.34128863 483:0.34128863 484:0.34128863 485:0.34128863 486:0.34128863 487:0.31972238 488:0.33661065 489:0.33661065 490:0.32346642 491:0.33661065 492:0.33661065 493:0.33661065 494:0.33661065 495:0.33661065 496:0.07572484 497:0.047061536 498:0.10772664 499:0.56353766 500:0.56353766 501:0.56353766 502:0.13744114 503:0.059964992 504:0.072359934 505:0.34932625 506:0.34932625 507:0.33830604 508:0.17705174 509:0.34932625 510:0.34932625 511:0.34932625 512:0.34932625 513:0.34932625 514:0.12388889 515:0.1934648 516:0.40573257 517:0.40573257 518:0.40573257 519:0.21687751 520:0.40573257 521:0.40573257 522:0.27765521 523:0.39318889 524:0.39318889 525:0.39318889 526:0.39318889 527:0.39318889 528:0.046569083 529:0.19618358 530:0.37359974 531:0.21628483 532:0.041255273 533:0.091095805 534:0.17383549 535:0.16837212 536:0.62662601 537:0.62662601 538:0.37889433 539:0.042053711 540:0.027959634 541:0.33787283 542:0.33787283 543:0.33787283 544:0.33787283 545:0.33787283 546:0.33787283 547:0.33787283 548:0.29450911 549:0.33787283 550:0.38280007 551:0.45144543 552:0.45144543 553:0.45144543 554:0.45144543 555:0.076561555 556:0.088088393 557:0.084125228 558:0.13249138 559:0.24585274 560:0.31427521 561:0.38798383 562:0.38798383 563:0.38798383 564:0.2385373 565:0.17672071 566:0.38798383 567:0.38798383 568:0.061447084 569:0.073832899 570:0.16288152 571:0.46297595 572:0.46297595 573:0.46297595 574:0.46297595 575:0.30174917 576:0.12570995 577:0.16558142 578:0.13890138 579:0.053921457 580:0.3608869 581:0.54614127 582:0.54614127 583:0.40503401 584:0.21569894 585:0.11411908 586:0.026406731 587:0.018941915 588:0.020294381 589:0.042292699 590:0.47395396 591:0.58398521 592:0.58398521 593:0.29232591 594:0.067668609 595:0.22349323 596:0.20719966 597:0.40703788 598:0.40703788 599:0.40703788 600:0.40703788 601:0.40703788 602:0.23743235 603:0.14948536 604:0.30086103 605:0.2109089 606:0.14043067 607:0.3110511 608:0.38691768 609:0.38691768 610:0.38691768 611:0.38691768 612:0.38691768 613:0.13055116 614:0.12412705 615:0.22585741 616:0.2774117 617:0.55827743 618:0.55827743 619:0.41121277 620:0.10183951 621:0.19174303 622:0.068525709 623:0.055799738 624:0.080030769 625:0.10083245 626:0.51937467 627:0.51937467 628:0.51937467 629:0.37256005 630:0.16603392 631:0.29061234 632:0.12966621 633:0.34764561 634:0.17140166 635:0.3869096 636:0.3869096 637:0.3869096 638:0.3869096 639:0.3869096 640:0.37952644 641:0.30199194 642:0.37952644 643:0.11090171 644:0.37952644 645:0.17960991 646:0.37952644 647:0.37952644 648:0.37952644 649:0.27486491 650:0.088809937 651:0.14247847 652:0.40606955 653:0.40606955 654:0.40606955 655:0.40606955 656:0.34261462 657:0.34540904 658:0.33333331 659:0.33333331 660:0.33333331 661:0.33333331 662:0.33333331 663:0.33333331 664:0.33333331 665:0.33333331 666:0.33333331 667:0.33333331 668:0.33333331 669:0.33333331 670:0.33333331 671:0.33333331 672:0.33333331 673:0.33333331 674:0.33333331 675:0.33333331 676:0.055439681 677:0.030519579 678:0.14251755 679:0.56027967 680:0.56027967 681:0.56027967 682:0.17405704 683:0.028799184 684:0.053092152 685:0.33923259 686:0.33923259 687:0.33923259 688:0.28172678 689:0.33923259 690:0.33923259 691:0.33923259 692:0.33923259 693:0.33923259 694:0.22501671 695:0.24603401 696:0.37827551 697:0.37827551 698:0.37827551 699:0.33593151 700:0.37827551 701:0.37827551 702:0.24601419 703:0.37711948 704:0.37711948 705:0.37711948 706:0.37711948 707:0.37711948 708:0.20919536 709:0.10181957 710:0.30422944 711:0.37711948 712:0.037049517 713:0.028533513 714:0.029006507 715:0.11051173 716:0.58507347 717:0.58507347 718:0.54109716 719:0.07531929 720:0.040963136 721:0.23810089 722:0.38467321 723:0.38467321 724:0.38467321 725:0.38467321 726:0.38467321 727:0.3580372 728:0.14070319 729:0.23548356 730:0.15996638 731:0.49086967 732:0.49086967 733:0.49086967 734:0.49086967 735:0.055341128 736:0.046030156 737:0.014424949 738:0.07217402 739:0.14312074 740:0.088116273 741:0.26766849 742:0.41760558 743:0.41760558 744:0.31139264 745:0.41760558 746:0.41760558 747:0.3249037 748:0.036722388 749:0.018014161 750:0.032162607 751:0.21940519 752:0.53553218 753:0.53553218 754:0.53553218 755:0.27920708 756:0.10398684 757:0.094245255 758:0.10678603 759:0.19477133 760:0.52954346 761:0.52954346 762:0.52954346 763:0.28792018 764:0.096314505 765:0.091407411 766:0.0089473044 767:0.0025220001 768:0.0016204802 769:0.21728535 770:0.56166005 771:0.56166005 772:0.56166005 773:0.078541175 774:0.011968443 775:0.085077286 776:0.054458864 777:0.14305781 778:0.23115364 779:0.55983478 780:0.55983478 781:0.52067202 782:0.10612524 783:0.081894509 784:0.32901108 785:0.24052449 786:0.17775273 787:0.36567375 788:0.36567375 789:0.36567375 790:0.36567375 791:0.36567375 792:0.36567375 793:0.32580733 794:0.13710207 795:0.31972808 796:0.31504208 797:0.41709381 798:0.41709381 799:0.41709381 800:0.18661524 801:0.34183052 802:0.094008543 803:0.057276577 804:0.39228883 805:0.56132519 806:0.56132519 807:0.40848953 808:0.14852309 809:0.078224167 810:0.093688369 811:0.11682577 812:0.089096271 813:0.25053293 814:0.52136165 815:0.52136165 816:0.52136165 817:0.27532786 818:0.10818108 819:0.11262462 820:0.075749554 821:0.050942574 822:0.15020066 823:0.5322603 824:0.5322603 825:0.5322603 826:0.29211003 827:0.16110566 828:0.088995285 829:0.040430441 830:0.062979952 831:0.16672815 832:0.55541164 833:0.55541164 834:0.55541164 835:0.19327477 836:0.031283643 837:0.053109732 838:0.023633886 839:0.038833506 840:0.13086183 841:0.56534266 842:0.60594219 843:0.54011953 844:0.03481121 845:0.022766905 846:0.023897408 847:0.008198713 848:0.009564898 849:0.076711833 850:0.43580663 851:0.62727654 852:0.62727654 853:0.1287314 854:0.02060255 855:0.0090162307 856:0.021620464 857:0.14634176 858:0.35045594 859:0.60760641 860:0.60760641 861:0.33830914 862:0.042377755 863:0.019276975 864:0.017485242 865:0.1462163 866:0.070717402 867:0.21053097 868:0.39898539 869:0.56748658 870:0.56748658 871:0.32455209 872:0.093884535 873:0.10898017 874:0.23346229 875:0.19113037 876:0.44976008 877:0.44976008 878:0.44976008 879:0.44976008 880:0.20249917 881:0.030948741 882:0.24054983 883:0.30751789 884:0.41672367 885:0.41672367 886:0.41672367 887:0.41672367 888:0.41672367 889:0.10618019 890:0.019017158 891:0.15969865 892:0.2937189 893:0.3150965 894:0.41925004 895:0.41925004 896:0.41925004 897:0.39173797 898:0.15475118 899:0.14882116 900:0.29593462 
1 1:0.337466 2:0.40600979 3:0.40600979 4:0.40600979 5:0.40600979 6:0.40295595 7:0.12079973 8:0.068099201 9:0.21245566 10:0.16895086 11:0.43778366 12:0.49108443 13:0.49108443 14:0.49108443 15:0.20079851 16:0.07757318 17:0.026632933 18:0.096240751 19:0.10548408 20:0.089580357 21:0.40863138 22:0.59865022 23:0.59865022 24:0.21467251 25:0.19615014 26:0.053817008 27:0.098230503 28:0.41891712 29:0.36333317 30:0.41851237 31:0.090640001 32:0.41891712 33:0.41891712 34:0.12251276 35:0.033088498 36:0.37688437 37:0.38833162 38:0.38833162 39:0.38833162 40:0.38833162 41:0.38833162 42:0.16943099 43:0.20205884 44:0.16017684 45:0.38833162 46:0.05868062 47:0.024362028 48:0.035579555 49:0.017072979 50:0.40230384 51:0.51147401 52:0.51147401 53:0.51147401 54:0.21849525 55:0.11913027 56:0.074150071 57:0.052417897 58:0.037685663 59:0.051328696 60:0.078963913 61:0.56782389 62:0.56782389 63:0.56782389 64:0.050341647 65:0.068919361 66:0.560709 67:0.560709 68:0.560709 69:0.20539661 70:0.050075315 71:0.036788702 72:0.059020471 73:0.087985344 74:0.020438705 75:0.059660353 76:0.05918977 77:0.59821814 78:0.59821814 79:0.50493151 80:0.073742636 81:0.093028136 82:0.022321353 83:0.060254067 84:0.1946784 85:0.54183066 86:0.54183066 87:0.54183066 88:0.27261716 89:0.05199156 90:0.014383483 91:0.14690889 92:0.065449141 93:0.19722141 94:0.37137479 95:0.60090387 96:0.60090387 97:0.24102269 98:0.050582424 99:0.12040449 100:0.18343933 101:0.023187621 102:0.13913414 103:0.33409452 104:0.49674407 105:0.49674407 106:0.49539813 107:0.23150069 108:0.20570298 109:0.08376307 110:0.17021477 111:0.48850784 112:0.48850784 113:0.48850784 114:0.48850784 115:0.071611047 116:0.005054981 117:0.065553844 118:0.28599146 119:0.25170085 120:0.35853073 121:0.35998583 122:0.35998583 123:0.35998583 124:0.35998583 125:0.35998583 126:0.2799325 127:0.37354714 128:0.37354714 129:0.37354714 130:0.37354714 131:0.37354714 132:0.3031517 133:0.31278455 134:0.22364163 135:0.25012383 136:0.36558333 137:0.41757378 138:0.41757378 139:0.41757378 140:0.41757378 141:0.28174368 142:0.18160069 143:0.17315365 144:0.16290176 145:0.3801513 146:0.3801513 147:0.3801513 148:0.094468862 149:0.34634534 150:0.06348598 151:0.3801513 152:0.3801513 153:0.3801513 154:0.36035886 155:0.36035886 156:0.36035886 157:0.23067686 158:0.30247915 159:0.36035886 160:0.36035886 161:0.27594113 162:0.36035886 163:0.12134919 164:0.16266939 165:0.42283627 166:0.42283627 167:0.42283627 168:0.42283627 169:0.42283627 170:0.21915726 171:0.12973258 172:0.097767822 173:0.28006083 174:0.43878496 175:0.43878496 176:0.43878496 177:0.37986252 178:0.41509366 179:0.10079523 180:0.08747986 181:0.41273999 182:0.41273999 183:0.41273999 184:0.41273999 185:0.41273999 186:0.14542103 187:0.085503593 188:0.1696682 189:0.30163416 190:0.16966397 191:0.34470409 192:0.52667081 193:0.52667081 194:0.52667081 195:0.052565001 196:0.073693261 197:0.024713606 198:0.10696819 199:0.10749654 200:0.073575303 201:0.35508287 202:0.56856883 203:0.56856883 204:0.39519468 205:0.20621455 206:0.030856233 207:0.10368701 208:0.29590645 209:0.34746358 210:0.34746358 211:0.34746358 212:0.34746358 213:0.34746358 214:0.34746358 215:0.28732333 216:0.32480606 217:0.40966713 218:0.30091438 219:0.40966713 220:0.40966713 221:0.40966713 222:0.073555171 223:0.16639473 224:0.19291748 225:0.40966713 226:0.052723356 227:0.023293 228:0.015615887 229:0.029880159 230:0.26215231 231:0.54285061 232:0.54285061 233:0.54285061 234:0.20677704 235:0.18333293 236:0.042092245 237:0.019179853 238:0.0083189337 239:0.066067077 240:0.068087704 241:0.5642634 242:0.5642634 243:0.5642634 244:0.05295299 245:0.12092792 246:0.49044949 247:0.60483032 248:0.60483032 249:0.049509235 250:0.071272768 251:0.04241674 252:0.032589387 253:0.10907237 254:0.039557222 255:0.11762697 256:0.13891283 257:0.54614371 258:0.54614371 259:0.54614371 260:0.19908403 261:0.13766749 262:0.0562043 263:0.00030622692 264:0.13922423 265:0.54826468 266:0.54826468 267:0.54826468 268:0.22113416 269:0.15051299 270:0.06419199 271:0.1277172 272:0.077651069 273:0.22023229 274:0.41544768 275:0.58823872 276:0.56755054 277:0.24662377 278:0.10174824 279:0.13132083 280:0.047182329 281:0.056918859 282:0.18612266 283:0.032318078 284:0.61195636 285:0.61195636 286:0.44802183 287:0.079340421 288:0.053369749 289:0.13466923 290:0.25419229 291:0.50044483 292:0.50044483 293:0.50044483 294:0.39760539 295:0.053410381 296:0.065152779 297:0.026976418 298:0.24026577 299:0.14753975 300:0.22046953 301:0.40527552 302:0.40527552 303:0.40527552 304:0.40527552 305:0.40527552 306:0.22506967 307:0.35869524 308:0.35869524 309:0.35869524 310:0.35869524 311:0.35869524 312:0.35869524 313:0.35869524 314:0.21764977 315:0.22801922 316:0.4111113 317:0.4111113 318:0.4111113 319:0.4111113 320:0.4111113 321:0.27483782 322:0.07137426 323:0.10069208 324:0.25331509 325:0.45521864 326:0.24695086 327:0.18227136 328:0.10290373 329:0.30791676 330:0.16642095 331:0.38861635 332:0.45521864 333:0.45521864 334:0.36639148 335:0.36639148 336:0.36639148 337:0.10853049 338:0.30366182 339:0.36639148 340:0.36639148 341:0.30092224 342:0.36639148 343:0.21200134 344:0.3133415 345:0.37904331 346:0.37904331 347:0.37904331 348:0.37904331 349:0.37904331 350:0.34241855 351:0.1457838 352:0.11365 353:0.23214707 354:0.43248144 355:0.48264229 356:0.48264229 357:0.37414661 358:0.33202133 359:0.13787892 360:0.10502199 361:0.30793589 362:0.40030679 363:0.40030679 364:0.40030679 365:0.40030679 366:0.40030679 367:0.2171628 368:0.18393549 369:0.1515118 370:0.19709143 371:0.47512272 372:0.47512272 373:0.47512272 374:0.47512272 375:0.12954558 376:0.052602749 377:0.079231612 378:0.17989382 379:0.26520792 380:0.46092662 381:0.46092662 382:0.46092662 383:0.46092662 384:0.19169824 385:0.16786882 386:0.057433467 387:0.10781753 388:0.15367283 389:0.17804575 390:0.48633161 391:0.090064399 392:0.62047029 393:0.21019681 394:0.48265633 395:0.12695439 396:0.14769459 397:0.36300358 398:0.36300358 399:0.36300358 400:0.36300358 401:0.36300358 402:0.3023372 403:0.27073801 404:0.2113373 405:0.36300358 406:0.15505281 407:0.08578638 408:0.07778728 409:0.44356635 410:0.44356635 411:0.44356635 412:0.44356635 413:0.32191643 414:0.26816753 415:0.27784869 416:0.10230134 417:0.14960542 418:0.11273013 419:0.16720191 420:0.46078417 421:0.46078417 422:0.46078417 423:0.46078417 424:0.42844737 425:0.42844737 426:0.42844737 427:0.42844737 428:0.42844737 429:0.093613215 430:0.023266615 431:0.0042638397 432:0.2698915 433:0.034534249 434:0.014661812 435:0.064782657 436:0.16262567 437:0.56325459 438:0.56325459 439:0.56325459 440:0.12053674 441:0.040647238 442:0.11872303 443:0.14591265 444:0.38463524 445:0.50653148 446:0.50653148 447:0.50653148 448:0.18676631 449:0.048400283 450:0.098606758 451:0.071245171 452:0.27555364 453:0.41931435 454:0.41931435 455:0.41931435 456:0.41931435 457:0.41931435 458:0.19518057 459:0.042144071 460:0.27378601 461:0.21448328 462:0.27177477 463:0.21778853 464:0.4406437 465:0.4406437 466:0.4406437 467:0.31489605 468:0.27583468 469:0.054655515 470:0.095658965 471:0.53463441 472:0.53463441 473:0.53463441 474:0.35784969 475:0.023761755 476:0.0067400513 477:0.041154549 478:0.056011088 479:0.047571119 480:0.27049878 481:0.52186322 482:0.52186322 483:0.52186322 484:0.23881626 485:0.18787175 486:0.1098974 487:0.15876089 488:0.16114557 489:0.46962979 490:0.46962979 491:0.46962979 492:0.46962979 493:0.21099572 494:0.10717507 495:0.10301863 496:0.25008869 497:0.35877934 498:0.35877934 499:0.32446468 500:0.35877934 501:0.35877934 502:0.35877934 503:0.33454672 504:0.2768459 505:0.40040311 506:0.19476028 507:0.22991443 508:0.14590012 509:0.19292063 510:0.35944831 511:0.43250313 512:0.43250313 513:0.43250313 514:0.26503542 515:0.17176135 516:0.19436398 517:0.19911315 518:0.4234311 519:0.4234311 520:0.4234311 521:0.38341665 522:0.37140396 523:0.064989075 524:0.16919556 525:0.37081328 526:0.24358207 527:0.65647286 528:0.48673689 529:0.3014347 530:0.092540734 531:0.054940242 532:0.032322217 533:0.048111401 534:0.26186517 535:0.57174736 536:0.57174736 537:0.51029235 538:0.08742322 539:0.068595238 540:0.039124016 541:0.33153671 542:0.36824283 543:0.40332758 544:0.40332758 545:0.40332758 546:0.39382914 547:0.16405985 548:0.13766688 549:0.25591415 550:0.039933298 551:0.47761169 552:0.50425613 553:0.50425613 554:0.50425613 555:0.058868442 556:0.033275027 557:0.042696882 558:0.032769565 559:0.1468707 560:0.11836271 561:0.36329529 562:0.45605507 563:0.45605507 564:0.45605507 565:0.36111659 566:0.20766415 567:0.1869424 568:0.2833173 569:0.17133428 570:0.25473329 571:0.45772424 572:0.50006032 573:0.3332929 574:0.36575931 575:0.20542161 576:0.28080767 577:0.35963914 578:0.35963914 579:0.32020718 580:0.23332399 581:0.35963914 582:0.25881526 583:0.35963914 584:0.35963914 585:0.35963914 586:0.17325695 587:0.1901882 588:0.26438096 589:0.45640752 590:0.45640752 591:0.45640752 592:0.45640752 593:0.11562566 594:0.13157763 595:0.068785913 596:0.036261335 597:0.040076569 598:0.12176388 599:0.48211989 600:0.48211989 601:0.48211989 602:0.48211989 603:0.2185467 604:0.28014776 605:0.41591811 606:0.47660413 607:0.47660413 608:0.47660413 609:0.048703264 610:0.12856685 611:0.053299885 612:0.21291435 613:0.37868404 614:0.21883455 615:0.2012305 616:0.30350813 617:0.37868404 618:0.37868404 619:0.37868404 620:0.32014436 621:0.37868404 622:0.18666017 623:0.20281701 624:0.29842418 625:0.45146525 626:0.45146525 627:0.45146525 628:0.44116747 629:0.12553792 630:0.11452124 631:0.41001546 632:0.41001546 633:0.41001546 634:0.41001546 635:0.41001546 636:0.2688992 637:0.23766491 638:0.098364241 639:0.14480904 640:0.24094214 641:0.088294797 642:0.25157985 643:0.014776505 644:0.51346689 645:0.51346689 646:0.51346689 647:0.14853622 648:0.2400675 649:0.093791597 650:0.11935753 651:0.55317712 652:0.55317712 653:0.55317712 654:0.22447667 655:0.06819199 656:0.014701627 657:0.060712662 658:0.026134416 659:0.063859664 660:0.14531989 661:0.53809923 662:0.58157009 663:0.58157009 664:0.082916848 665:0.030029135 666:0.018593051 667:0.055032384 668:0.056444705 669:0.1574773 670:0.57604569 671:0.57604569 672:0.47998831 673:0.25010988 674:0.095753133 675:0.056716356 676:0.02560352 677:0.097673491 678:0.55796444 679:0.55796444 680:0.55796444 681:0.22747029 682:0.048541289 683:0.036229521 684:0.020486152 685:0.072755314 686:0.084419869 687:0.17785966 688:0.27895126 689:0.51219714 690:0.51219714 691:0.51219714 692:0.2918267 693:0.077017419 694:0.071591042 695:0.056082737 696:0.19514902 697:0.55441338 698:0.61876291 699:0.41242576 700:0.28595716 701:0.080080152 702:0.071591042 703:0.087983593 704:0.11797653 705:0.31831998 706:0.531156 707:0.531156 708:0.47774172 709:0.23901063 710:0.13462481 711:0.096293338 712:0.053667083 713:0.11368752 714:0.4611316 715:0.4611316 716:0.4611316 717:0.4611316 718:0.33010551 719:0.14427884 720:0.061964478 721:0.41139296 722:0.42117265 723:0.42117265 724:0.42117265 725:0.42117265 726:0.12876968 727:0.15976697 728:0.12665251 729:0.25112203 730:0.21924753 731:0.47284764 732:0.47284764 733:0.47284764 734:0.47284764 735:0.07565809 736:0.11432362 737:0.06887991 738:0.18453306 739:0.18241653 740:0.37844595 741:0.46635896 742:0.46635896 743:0.46635896 744:0.3458373 745:0.17203422 746:0.1116636 747:0.096761763 748:0.31540307 749:0.069976792 750:0.3518655 751:0.46890029 752:0.46890029 753:0.45134783 754:0.22291169 755:0.058651622 756:0.2742908 757:0.37044987 758:0.32304516 759:0.37044987 760:0.37044987 761:0.37044987 762:0.21746068 763:0.32656577 764:0.23567322 765:0.37044987 766:0.050725445 767:0.06205551 768:0.069450952 769:0.072088823 770:0.44749293 771:0.50433868 772:0.50433868 773:0.50433868 774:0.14224426 775:0.14284661 776:0.030616801 777:0.027184749 778:0.0041946569 779:0.062995367 780:0.069533855 781:0.56835943 782:0.56835943 783:0.56835943 784:0.063184388 785:0.085791059 786:0.48167545 787:0.50994486 788:0.50994486 789:0.44793484 790:0.18047184 791:0.022666346 792:0.053097252 793:0.036591336 794:0.024575215 795:0.076563239 796:0.28150764 797:0.56153852 798:0.56153852 799:0.52387816 800:0.08052782 801:0.03694059 802:0.046732206 803:0.047590461 804:0.32560104 805:0.51783699 806:0.51783699 807:0.51783699 808:0.28530389 809:0.047642156 810:0.037438773 811:0.16044962 812:0.23044237 813:0.4048419 814:0.4048419 815:0.4048419 816:0.4048419 817:0.34713346 818:0.29446521 819:0.24156384 820:0.39069271 821:0.20743243 822:0.33963946 823:0.24405697 824:0.39069271 825:0.39069271 826:0.39069271 827:0.15104474 828:0.38558435 829:0.064217731 830:0.13235721 831:0.50533104 832:0.50533104 833:0.50533104 834:0.45406941 835:0.06076711 836:0.033229515 837:0.036102608 838:0.37517345 839:0.22095573 840:0.17171469 841:0.1987315 842:0.4584769 843:0.4584769 844:0.4584769 845:0.23211777 846:0.23866595 847:0.31448734 848:0.38789248 849:0.38789248 850:0.38789248 851:0.38789248 852:0.38789248 853:0.32369334 854:0.13956252 855:0.1566515 856:0.20700125 857:0.36804968 858:0.36804968 859:0.36804968 860:0.36804968 861:0.36804968 862:0.36804968 863:0.36804968 864:0.094479933 865:0.46826613 866:0.21622735 867:0.10495768 869:0.24080396 870:0.084560052 871:0.46826613 872:0.46826613 873:0.46826613 874:0.12288888 875:0.19816838 876:0.42495477 877:0.42495477 878:0.42495477 879:0.42495477 880:0.42495477 881:0.11759721 882:0.16989902 883:0.086945206 884:0.072100192 885:0.2815311 886:0.3541775 887:0.58509761 888:0.58509761 889:0.28646737 890:0.087715276 891:0.090026267 892:0.014873692 893:0.14195333 894:0.44656861 895:0.52603459 896:0.52603459 897:0.44628114 898:0.16389582 899:0.023014955 900:0.014873692 
