svm_type c_svc
kernel_type rbf
gamma 0.0039215686274509803
nr_class 2
total_sv 1000
rho -0.032787948846817017
label 0 1
nr_sv 500 500
SV
1 1:0.13083698 2:0.17575116 4:0.27143791 6:0.32221049 8:0.19820826 10:0.0048819771 12:0.28217825 14:0.41887361 16:0.29096583 18:0.0039055815 20:0.034173839 22:0.19625548 24:0.074206047 26:0.0039055815 28:0.0039055815 30:0.070300467 32:0.28803664 38:0.00097639539 40:0.0058583724 44:0.036126629 48:0.39544013 52:0.0048819771 54:0.09275756 56:0.0068347678 60:0.020504303 62:0.20992501 64:0.11130907 88:0.12497861 96:0.11619105 112:0.0029291862 120:0.0019527908 128:0.089828372 143:0.00097639539 144:0.0029291862 145:0.0019527908 146:0.0029291862 147:0.0029291862 148:0.0029291862 149:0.00097639539 150:0.0029291862 151:0.0019527908 152:0.0029291862 153:0.0019527908 154:0.0048819771 155:0.00097639539 156:0.00097639539 157:0.00097639539 158:0.0029291862 159:0.0039055815 160:0.0019527908 161:0.0019527908 162:0.0039055815 163:0.0039055815 164:0.0019527908 165:0.00097639539 167:0.0019527908 169:0.0029291862 170:0.00097639539 171:0.00097639539 172:0.0019527908 173:0.0039055815 174:0.00097639539 175:0.0039055815 176:0.0039055815 177:0.0039055815 178:0.0039055815 179:0.0058583724 180:0.0039055815 181:0.0019527908 182:0.0039055815 183:0.0058583724 184:0.0078111631 185:0.0058583724 186:0.0058583724 187:0.0029291862 188:0.0048819771 189:0.0058583724 190:0.0097639542 191:0.0097639542 192:0.0097639542 193:0.011716745 194:0.01464593 195:0.00097639539 196:0.0019527908 197:0.0039055815 198:0.0019527908 199:0.0019527908 200:0.0039055815 201:0.0048819771 202:0.0097639542 203:0.0058583724 204:0.0039055815 205:0.0078111631 206:0.0078111631 207:0.011716745 208:0.0019527908 209:0.0048819771 210:0.0019527908 211:0.0058583724 212:0.0029291862 213:0.0097639542 214:0.00097639539 
1 1:0.12859705 2:0.17307422 4:0.21175002 6:0.31230712 8:0.18951143 10:0.0038675803 12:0.25526029 14:0.44283795 16:0.29973748 18:0.00096689508 20:0.043510277 22:0.18661074 24:0.09959019 26:0.0048344755 28:0.0038675803 30:0.058013704 32:0.28523403 38:0.0019337902 40:0.0038675803 44:0.031907536 48:0.42833453 52:0.0019337902 54:0.1189281 56:0.0019337902 60:0.012569636 62:0.20401487 64:0.090888135 88:0.14793494 92:0.00096689508 96:0.1179612 112:0.0067682657 120:0.00096689508 128:0.079285398 140:0.0019337902 142:0.0019337902 145:0.0019337902 146:0.0019337902 147:0.0029006852 148:0.00096689508 149:0.0019337902 150:0.0029006852 151:0.0029006852 152:0.0058013704 153:0.00096689508 154:0.0029006852 156:0.0019337902 157:0.0048344755 158:0.0077351606 159:0.0038675803 160:0.0019337902 161:0.00096689508 163:0.0029006852 164:0.00096689508 165:0.0019337902 166:0.0019337902 168:0.00096689508 169:0.00096689508 170:0.0029006852 171:0.00096689508 172:0.0019337902 174:0.0029006852 176:0.0019337902 177:0.0038675803 178:0.0038675803 179:0.0048344755 180:0.0038675803 181:0.0067682657 182:0.0048344755 183:0.0038675803 184:0.0058013704 185:0.0038675803 186:0.0029006852 187:0.0067682657 188:0.010635846 189:0.0087020556 190:0.0029006852 191:0.0058013704 192:0.0058013704 193:0.010635846 194:0.012569636 195:0.014503426 196:0.0096689509 197:0.0019337902 198:0.0058013704 199:0.0067682657 200:0.0029006852 201:0.013536531 202:0.0077351606 203:0.0058013704 204:0.0019337902 205:0.0029006852 206:0.00096689508 207:0.0077351606 208:0.0019337902 209:0.0038675803 210:0.0048344755 211:0.00096689508 212:0.0048344755 213:0.0019337902 214:0.0029006852 215:0.0038675803 
1 1:0.20121145 2:0.37983796 3:0.028744495 4:0.26793975 5:0.013345658 6:0.28744495 7:0.0020531781 8:0.19915828 10:0.020531781 11:0.0010265891 12:0.24535479 14:0.35212004 16:0.2443282 18:0.0071861236 20:0.072887823 22:0.149882 24:0.091366425 26:0.02155837 28:0.0071861236 30:0.068781465 32:0.26588657 40:0.012319069 44:0.062621936 48:0.3490403 52:0.009239302 54:0.080073945 56:0.010265891 60:0.039010383 62:0.13242999 64:0.16836061 88:0.12935023 92:0.0030797673 96:0.21045075 112:0.030797672 120:0.0071861236 128:0.14577565 137:0.0020531781 138:0.0010265891 139:0.0020531781 140:0.0010265891 142:0.0010265891 143:0.0020531781 144:0.0030797673 145:0.0030797673 148:0.0010265891 150:0.0010265891 153:0.0020531781 154:0.0030797673 155:0.0030797673 156:0.0010265891 157:0.0020531781 158:0.0020531781 159:0.0010265891 162:0.0010265891 163:0.0010265891 165:0.0010265891 166:0.0010265891 168:0.0030797673 170:0.0020531781 171:0.0010265891 172:0.0030797673 173:0.0010265891 176:0.0020531781 177:0.0041063563 178:0.0030797673 180:0.0061595347 181:0.0051329453 183:0.0071861236 184:0.0061595347 185:0.0051329453 186:0.0061595347 187:0.0041063563 188:0.0041063563 189:0.0030797673 190:0.0010265891 191:0.0030797673 192:0.0030797673 193:0.0051329453 194:0.0041063563 196:0.0030797673 197:0.0010265891 198:0.0030797673 199:0.0010265891 200:0.0020531781 201:0.0010265891 202:0.0061595347 203:0.0010265891 204:0.0010265891 205:0.0010265891 206:0.0010265891 207:0.0010265891 208:0.0010265891 212:0.0010265891 213:0.0010265891 214:0.0010265891 218:0.0010265891 239:0.0010265891 
1 1:0.16048373 2:0.17498527 4:0.2310579 6:0.3548044 8:0.17885235 10:0.0038670779 12:0.2532936 14:0.37510654 16:0.29969853 18:0.0038670779 20:0.041571088 22:0.20012128 24:0.074441247 26:0.0029003085 28:0.0029003085 30:0.064773552 32:0.32096747 40:0.0019335389 44:0.028036315 48:0.42054471 52:0.0038670779 54:0.11794587 56:0.00096676947 60:0.023202468 62:0.22525729 64:0.064773552 88:0.12084618 96:0.11504557 112:0.0058006169 120:0.00096676947 128:0.080241866 142:0.00096676947 143:0.00096676947 145:0.00096676947 146:0.0019335389 147:0.0048338473 148:0.0029003085 149:0.0038670779 150:0.0019335389 151:0.0019335389 152:0.0038670779 154:0.0029003085 156:0.00096676947 157:0.0029003085 158:0.0019335389 159:0.0077341557 160:0.0029003085 161:0.0038670779 162:0.0019335389 163:0.00096676947 164:0.00096676947 166:0.00096676947 167:0.0048338473 168:0.0038670779 170:0.0019335389 171:0.0019335389 172:0.00096676947 173:0.0019335389 174:0.0019335389 175:0.0019335389 176:0.00096676947 177:0.00096676947 178:0.0038670779 179:0.0058006169 180:0.0019335389 181:0.0029003085 182:0.0048338473 183:0.0038670779 184:0.0048338473 185:0.0077341557 186:0.0077341557 187:0.0067673861 188:0.0096676946 189:0.0048338473 190:0.012568003 191:0.0067673861 192:0.0058006169 193:0.013534772 194:0.0067673861 195:0.0067673861 196:0.0019335389 197:0.0077341557 198:0.0029003085 199:0.0038670779 200:0.0048338473 201:0.0058006169 202:0.0038670779 203:0.010634464 204:0.0038670779 205:0.0058006169 206:0.0048338473 207:0.0058006169 208:0.0058006169 209:0.0058006169 210:0.0038670779 211:0.0029003085 212:0.0029003085 213:0.0019335389 215:0.0096676946 216:0.00096676947 
1 1:0.14627701 2:0.17082013 4:0.22776018 6:0.29746264 8:0.20419879 10:0.0088355243 12:0.29746264 14:0.3661834 16:0.29255402 18:0.0049086246 20:0.045159347 22:0.20910741 24:0.1020994 26:0.0049086246 28:0.0039268997 30:0.059885222 32:0.29059058 40:0.0029451749 44:0.026506573 48:0.44963002 52:0.0019634499 54:0.11584354 56:0.0029451749 60:0.017671049 62:0.22088811 64:0.079519719 88:0.13155115 92:0.0049086246 96:0.13155115 112:0.0029451749 120:0.00098172494 128:0.082464896 140:0.0019634499 141:0.0039268997 142:0.0019634499 144:0.00098172494 145:0.00098172494 147:0.00098172494 148:0.00098172494 150:0.0019634499 151:0.00098172494 152:0.0039268997 153:0.0019634499 154:0.0039268997 155:0.0039268997 156:0.0039268997 157:0.00098172494 158:0.0039268997 159:0.0049086246 160:0.0049086246 161:0.0029451749 163:0.00098172494 164:0.0019634499 166:0.0019634499 167:0.0019634499 168:0.0019634499 169:0.0019634499 170:0.0039268997 171:0.0019634499 172:0.0019634499 173:0.0019634499 174:0.0029451749 175:0.0029451749 176:0.00098172494 177:0.0029451749 178:0.00098172494 179:0.0078537995 180:0.0039268997 181:0.0039268997 182:0.0068720747 183:0.0049086246 184:0.0117807 185:0.0068720747 186:0.0088355243 187:0.0058903499 188:0.0058903499 189:0.0049086246 190:0.0039268997 191:0.0078537995 192:0.0078537995 193:0.0068720747 194:0.0068720747 195:0.012762425 196:0.0049086246 197:0.0019634499 198:0.0049086246 199:0.0049086246 200:0.0058903499 201:0.0049086246 202:0.0029451749 203:0.0019634499 204:0.0078537995 205:0.0068720747 206:0.0098172491 207:0.0058903499 208:0.0068720747 209:0.00098172494 210:0.0049086246 211:0.0029451749 212:0.0039268997 213:0.0019634499 214:0.0019634499 215:0.00098172494 216:0.00098172494 217:0.00098172494 218:0.0019634499 
1 1:0.15222594 2:0.19473059 4:0.26787812 6:0.30642885 8:0.21746564 10:0.00098848017 12:0.25700486 14:0.33707175 16:0.29061317 18:0.0039539207 20:0.034596805 22:0.17990339 24:0.1047789 26:0.0049424008 28:0.0049424008 30:0.064251214 32:0.29555556 40:0.0079078414 44:0.037562247 48:0.46260872 52:0.0069193612 54:0.10181346 56:0.0049424008 60:0.019769603 62:0.19670755 64:0.093905613 88:0.14926051 92:0.00098848017 96:0.14530659 112:0.0088963211 120:0.00098848017 128:0.082043856 142:0.00098848017 143:0.0019769603 144:0.00098848017 145:0.0019769603 146:0.00098848017 148:0.00098848017 150:0.0039539207 151:0.0049424008 152:0.0069193612 153:0.0039539207 154:0.00098848017 155:0.0019769603 156:0.0039539207 157:0.0019769603 158:0.0029654405 159:0.0029654405 160:0.0049424008 161:0.0039539207 162:0.0019769603 163:0.00098848017 164:0.0019769603 167:0.00098848017 168:0.00098848017 169:0.00098848017 170:0.0029654405 171:0.0049424008 172:0.0039539207 173:0.0019769603 174:0.00098848017 175:0.00098848017 176:0.0019769603 177:0.00098848017 178:0.0039539207 179:0.005930881 180:0.0039539207 181:0.0039539207 182:0.005930881 183:0.0039539207 184:0.0029654405 185:0.0079078414 186:0.0098848017 187:0.010873282 188:0.0049424008 189:0.0069193612 190:0.0049424008 191:0.0069193612 192:0.0088963211 193:0.0069193612 194:0.011861762 195:0.0079078414 196:0.0029654405 197:0.005930881 198:0.0049424008 199:0.0049424008 200:0.005930881 201:0.005930881 202:0.005930881 203:0.0029654405 204:0.0079078414 205:0.0079078414 206:0.0029654405 207:0.010873282 208:0.0019769603 209:0.0039539207 210:0.0049424008 211:0.0029654405 212:0.0039539207 213:0.0019769603 214:0.0029654405 215:0.0039539207 
1 1:0.22767569 2:0.32955796 3:0.009356535 4:0.26510182 5:0.00207923 6:0.22559646 8:0.22767569 9:0.001039615 10:0.013514996 12:0.2006457 14:0.34411258 16:0.26406223 18:0.0072773052 20:0.038465757 21:0.001039615 22:0.10188227 24:0.093565352 26:0.019752685 28:0.012475381 30:0.075891897 32:0.30460721 38:0.00207923 40:0.011435765 44:0.063416518 48:0.39401409 52:0.01039615 54:0.092525735 56:0.013514996 60:0.036386527 62:0.13618957 64:0.16841763 88:0.11331803 92:0.0072773052 96:0.19128916 112:0.024950761 115:0.001039615 116:0.001039615 119:0.001039615 120:0.0062376903 121:0.001039615 123:0.001039615 125:0.001039615 126:0.001039615 128:0.22455685 129:0.001039615 130:0.001039615 131:0.00207923 132:0.00207923 133:0.001039615 134:0.001039615 135:0.001039615 136:0.001039615 137:0.001039615 138:0.001039615 139:0.001039615 140:0.001039615 142:0.001039615 146:0.00207923 150:0.001039615 151:0.001039615 152:0.00207923 153:0.00207923 155:0.001039615 156:0.001039615 158:0.001039615 160:0.001039615 161:0.001039615 163:0.001039615 165:0.001039615 166:0.00207923 168:0.001039615 170:0.00207923 171:0.001039615 172:0.001039615 173:0.001039615 174:0.001039615 175:0.001039615 176:0.001039615 177:0.001039615 178:0.00207923 180:0.005198075 181:0.0041584601 182:0.00207923 183:0.005198075 184:0.0031188452 185:0.0031188452 186:0.00207923 187:0.0031188452 189:0.00207923 190:0.0031188452 191:0.001039615 192:0.001039615 194:0.0031188452 195:0.001039615 196:0.0041584601 197:0.00207923 198:0.0031188452 199:0.0031188452 200:0.001039615 202:0.001039615 205:0.001039615 207:0.001039615 208:0.00207923 209:0.001039615 210:0.00207923 211:0.00207923 212:0.00207923 213:0.0031188452 214:0.00207923 215:0.001039615 216:0.00207923 217:0.001039615 218:0.001039615 219:0.001039615 220:0.0041584601 221:0.00207923 222:0.005198075 223:0.00207923 224:0.001039615 225:0.001039615 226:0.001039615 227:0.00207923 228:0.00207923 229:0.001039615 230:0.0041584601 231:0.001039615 232:0.001039615 233:0.0031188452 234:0.001039615 236:0.001039615 237:0.0083169201 238:0.0062376903 239:0.009356535 240:0.0031188452 241:0.0031188452 242:0.001039615 243:0.0031188452 244:0.005198075 245:0.0031188452 246:0.0072773052 247:0.009356535 248:0.0083169201 249:0.009356535 250:0.0062376903 251:0.001039615 252:0.0072773052 254:0.001039615 
1 1:0.13470498 2:0.16087069 4:0.22870772 6:0.31205037 8:0.16377799 10:0.0029073015 12:0.32464868 14:0.39539301 16:0.26747173 18:0.0029073015 20:0.034887619 22:0.21707851 24:0.097879149 26:0.0077528041 28:0.0029073015 30:0.055238727 32:0.32271048 40:0.003876402 44:0.031011216 48:0.41962051 52:0.0029073015 54:0.14536507 56:0.001938201 60:0.012598307 62:0.17346899 64:0.094971851 88:0.14730328 92:0.00096910051 96:0.12307577 112:0.0029073015 120:0.00096910051 128:0.070744336 137:0.003876402 138:0.00096910051 140:0.001938201 142:0.00096910051 143:0.00096910051 145:0.0029073015 146:0.001938201 147:0.00096910051 149:0.0048455028 150:0.001938201 151:0.001938201 152:0.00096910051 153:0.0058146031 154:0.0029073015 155:0.00096910051 156:0.001938201 159:0.0029073015 160:0.0077528041 161:0.0029073015 162:0.00096910051 163:0.001938201 164:0.0029073015 165:0.00096910051 166:0.0067837033 168:0.001938201 169:0.00096910051 170:0.00096910051 171:0.0029073015 172:0.001938201 173:0.0029073015 174:0.001938201 175:0.003876402 176:0.0029073015 177:0.00096910051 178:0.0048455028 179:0.0029073015 180:0.003876402 181:0.003876402 182:0.010660105 183:0.010660105 184:0.0087219048 185:0.003876402 186:0.0029073015 187:0.0058146031 188:0.0067837033 189:0.0058146031 190:0.0058146031 191:0.0048455028 192:0.0067837033 193:0.011629206 194:0.010660105 195:0.0058146031 196:0.0067837033 197:0.0087219048 198:0.0029073015 199:0.0029073015 200:0.003876402 201:0.0058146031 202:0.0058146031 203:0.001938201 204:0.0077528041 205:0.0058146031 206:0.0058146031 207:0.0048455028 208:0.0058146031 209:0.0029073015 210:0.0048455028 211:0.001938201 212:0.00096910051 213:0.0029073015 214:0.003876402 
1 1:0.12881623 2:0.17336921 4:0.2334189 6:0.31477651 8:0.19951989 10:0.0048427153 12:0.26731789 14:0.34964406 16:0.3012169 18:0.00096854311 20:0.038741723 22:0.2179222 24:0.1055712 26:0.0029056293 28:0.00096854311 30:0.053269871 32:0.35932949 40:0.0029056293 44:0.023245035 48:0.42712751 52:0.0019370862 54:0.112351 56:0.0019370862 60:0.016465234 62:0.20145696 64:0.089105964 88:0.11816226 92:0.00096854311 96:0.13559604 112:0.0029056293 128:0.070703648 142:0.0029056293 143:0.0019370862 144:0.0019370862 145:0.00096854311 146:0.00096854311 147:0.00096854311 149:0.0019370862 150:0.00096854311 151:0.0019370862 152:0.0019370862 153:0.0029056293 154:0.0019370862 155:0.0058112587 156:0.0038741725 157:0.0048427153 158:0.0058112587 159:0.006779802 160:0.0048427153 161:0.00096854311 162:0.0038741725 163:0.00096854311 164:0.00096854311 165:0.0029056293 166:0.0019370862 167:0.0019370862 168:0.00096854311 170:0.0029056293 172:0.0019370862 173:0.0019370862 174:0.0077483449 176:0.006779802 177:0.00096854311 178:0.0029056293 179:0.0058112587 180:0.0096854307 181:0.0058112587 182:0.0029056293 183:0.0058112587 184:0.0048427153 185:0.0096854307 186:0.0048427153 187:0.0058112587 188:0.006779802 189:0.0019370862 190:0.0077483449 191:0.006779802 192:0.006779802 193:0.0096854307 194:0.0077483449 195:0.0019370862 196:0.0019370862 197:0.011622517 198:0.006779802 199:0.0048427153 200:0.0029056293 201:0.0048427153 202:0.0019370862 203:0.006779802 204:0.0029056293 205:0.0058112587 206:0.0058112587 207:0.0077483449 208:0.0048427153 209:0.0048427153 210:0.0029056293 211:0.0029056293 212:0.0038741725 213:0.0019370862 214:0.00096854311 215:0.0019370862 216:0.00096854311 
1 1:0.11752387 2:0.17191508 4:0.23990411 6:0.29720911 8:0.19619687 10:0.0048563583 12:0.29138151 14:0.36131305 16:0.29235277 18:0.00097127166 20:0.03496578 22:0.22047867 24:0.10198352 26:0.002913815 28:0.0048563583 30:0.062161386 32:0.30789313 38:0.00097127166 44:0.03010942 46:0.00097127166 48:0.44387114 52:0.0058276299 54:0.11558133 56:0.0019425433 60:0.014569075 62:0.23504774 64:0.085471906 88:0.12723659 96:0.12723659 112:0.0058276299 120:0.00097127166 128:0.063132659 140:0.002913815 141:0.00097127166 143:0.00097127166 144:0.00097127166 146:0.0019425433 148:0.00097127166 149:0.0038850866 150:0.0048563583 151:0.002913815 152:0.0048563583 153:0.002913815 154:0.00097127166 155:0.0058276299 156:0.0019425433 157:0.0058276299 158:0.0019425433 159:0.0019425433 160:0.002913815 161:0.002913815 163:0.00097127166 165:0.00097127166 166:0.0019425433 167:0.00097127166 168:0.00097127166 169:0.002913815 170:0.00097127166 171:0.00097127166 172:0.0048563583 173:0.0019425433 174:0.00097127166 175:0.0048563583 178:0.0019425433 179:0.0038850866 180:0.0019425433 181:0.0058276299 182:0.01165526 183:0.0058276299 184:0.0067989016 185:0.012626532 186:0.0087414449 187:0.0038850866 188:0.0048563583 189:0.0058276299 190:0.0019425433 191:0.0077701733 192:0.0048563583 193:0.010683988 194:0.0077701733 195:0.0097127166 196:0.015540347 197:0.0067989016 198:0.0038850866 199:0.0058276299 200:0.002913815 201:0.0019425433 202:0.0058276299 203:0.0038850866 204:0.0038850866 205:0.0019425433 206:0.0087414449 207:0.0087414449 208:0.00097127166 209:0.0077701733 210:0.002913815 211:0.00097127166 212:0.00097127166 213:0.0019425433 214:0.0058276299 215:0.00097127166 216:0.002913815 
1 1:0.11017193 2:0.16525789 4:0.23838925 6:0.28397763 8:0.20229845 10:0.0056985477 12:0.30107328 14:0.40459689 16:0.2782791 18:0.003799032 20:0.027542982 22:0.20799699 24:0.082628943 26:0.0056985477 28:0.0047487901 30:0.057935238 32:0.31721917 40:0.001899516 44:0.036090802 48:0.44828576 52:0.003799032 54:0.10542314 56:0.00094975799 60:0.01899516 62:0.21369554 64:0.05603572 88:0.12061927 96:0.11112168 112:0.0056985477 120:0.00094975799 128:0.065533303 142:0.001899516 145:0.001899516 146:0.003799032 147:0.003799032 148:0.0066483058 149:0.001899516 150:0.0028492738 151:0.001899516 152:0.0028492738 153:0.00094975799 155:0.003799032 156:0.0028492738 157:0.0028492738 158:0.0075980639 160:0.00094975799 161:0.00094975799 162:0.0028492738 163:0.00094975799 164:0.0028492738 166:0.001899516 167:0.0028492738 168:0.00094975799 169:0.00094975799 170:0.0028492738 171:0.001899516 172:0.0028492738 173:0.001899516 174:0.001899516 175:0.00094975799 176:0.001899516 177:0.00094975799 178:0.001899516 179:0.0066483058 180:0.0094975801 181:0.0028492738 182:0.001899516 183:0.003799032 184:0.0066483058 185:0.0056985477 186:0.0075980639 187:0.012346854 188:0.0056985477 189:0.0056985477 190:0.0075980639 191:0.0056985477 192:0.0094975801 193:0.0066483058 194:0.0075980639 195:0.008547822 196:0.010447338 197:0.00094975799 198:0.0066483058 199:0.0066483058 200:0.0066483058 201:0.0047487901 202:0.0056985477 203:0.00094975799 204:0.0066483058 205:0.0066483058 206:0.0056985477 207:0.003799032 208:0.0047487901 209:0.003799032 210:0.001899516 211:0.00094975799 212:0.001899516 213:0.001899516 214:0.0047487901 215:0.003799032 
1 1:0.14952853 2:0.14657731 4:0.24691883 6:0.38365874 8:0.21248791 10:0.0029512211 12:0.280366 14:0.33348796 16:0.29512209 18:0.0019674806 20:0.040333353 22:0.19576432 24:0.10526022 26:0.0049187015 28:0.0068861824 30:0.057056937 32:0.29315463 38:0.00098374032 40:0.009837403 44:0.027544729 48:0.40923598 52:0.0068861824 54:0.11706509 56:0.0039349613 60:0.012788625 62:0.21937409 64:0.09345533 88:0.12591876 92:0.0019674806 96:0.15247975 112:0.0059024421 120:0.00098374032 128:0.072796784 140:0.00098374032 141:0.00098374032 142:0.0029512211 143:0.0019674806 145:0.0019674806 147:0.0029512211 148:0.0059024421 149:0.0019674806 150:0.00098374032 151:0.0019674806 152:0.0029512211 153:0.0019674806 154:0.0019674806 155:0.0039349613 156:0.0029512211 157:0.0039349613 158:0.0029512211 159:0.0019674806 161:0.0049187015 162:0.0049187015 164:0.00098374032 165:0.0019674806 166:0.00098374032 167:0.0029512211 169:0.0019674806 170:0.00098374032 171:0.00098374032 172:0.0068861824 173:0.0019674806 174:0.0029512211 175:0.00098374032 176:0.00098374032 177:0.00098374032 178:0.00098374032 179:0.009837403 180:0.0078699226 181:0.0019674806 182:0.0039349613 183:0.0029512211 184:0.0068861824 185:0.0059024421 186:0.015739845 187:0.0059024421 188:0.014756105 189:0.0029512211 190:0.0049187015 191:0.0049187015 192:0.0068861824 193:0.0059024421 194:0.015739845 195:0.010821143 196:0.0029512211 197:0.0029512211 198:0.0039349613 199:0.0019674806 200:0.0068861824 201:0.0039349613 202:0.0039349613 203:0.009837403 204:0.010821143 205:0.0068861824 206:0.0039349613 207:0.0039349613 208:0.0019674806 209:0.0039349613 211:0.00098374032 212:0.00098374032 213:0.0039349613 214:0.0078699226 
1 1:0.10633901 2:0.15040743 4:0.27111658 6:0.29698282 8:0.19255982 10:0.0038320364 12:0.27686462 14:0.35158935 16:0.30273089 18:0.0028740272 20:0.039278373 22:0.22321612 24:0.091968872 26:0.0038320364 28:0.0047900453 30:0.061312582 32:0.32859713 40:0.0067060636 44:0.024908237 48:0.44834825 52:0.0028740272 54:0.105381 56:0.0019160182 60:0.019160181 62:0.22513214 64:0.067060634 88:0.10442299 92:0.0009580091 96:0.13603729 112:0.0028740272 128:0.066102631 142:0.0019160182 143:0.0009580091 144:0.0019160182 145:0.0019160182 146:0.0038320364 147:0.0028740272 148:0.0009580091 149:0.0028740272 150:0.0038320364 151:0.0028740272 152:0.0047900453 153:0.0057480545 154:0.0009580091 155:0.0038320364 156:0.0009580091 157:0.0009580091 158:0.0057480545 159:0.0009580091 160:0.0019160182 161:0.0019160182 163:0.0019160182 164:0.0019160182 165:0.0028740272 166:0.0019160182 167:0.0009580091 168:0.0019160182 169:0.0028740272 170:0.0009580091 171:0.0009580091 172:0.0009580091 173:0.0028740272 174:0.0028740272 176:0.0019160182 177:0.0038320364 178:0.0038320364 179:0.0095800906 180:0.0076640728 181:0.0047900453 182:0.0047900453 183:0.0038320364 184:0.0038320364 185:0.0095800906 186:0.0057480545 187:0.0076640728 188:0.0067060636 189:0.0076640728 190:0.012454119 191:0.0067060636 192:0.0076640728 193:0.0076640728 194:0.0095800906 195:0.0028740272 196:0.0076640728 197:0.0019160182 198:0.0057480545 199:0.0038320364 200:0.0019160182 201:0.0057480545 202:0.0057480545 203:0.0057480545 204:0.0076640728 205:0.0057480545 206:0.0019160182 207:0.0028740272 208:0.0028740272 209:0.0067060636 210:0.0028740272 212:0.0047900453 213:0.0019160182 214:0.0019160182 215:0.0028740272 
1 1:0.14178009 2:0.16035816 4:0.2649821 6:0.30018267 8:0.20729226 10:0.0029333811 12:0.29920489 14:0.3725394 16:0.30213827 18:0.0039111748 20:0.051823065 22:0.18186963 24:0.1085351 26:0.0058667623 28:0.006844556 30:0.079201289 32:0.27573782 40:0.0019555874 44:0.035200574 48:0.44685173 52:0.006844556 54:0.089957021 56:0.0048889685 60:0.015644699 62:0.20533668 64:0.086045846 88:0.14080229 92:0.0019555874 96:0.13102436 112:0.0019555874 120:0.0019555874 128:0.06062321 141:0.0019555874 142:0.0019555874 143:0.0029333811 144:0.0029333811 145:0.0048889685 146:0.00097779371 147:0.0048889685 148:0.0029333811 149:0.00097779371 150:0.0029333811 151:0.0019555874 152:0.0019555874 153:0.0058667623 154:0.0019555874 155:0.00097779371 156:0.00097779371 157:0.0019555874 158:0.0029333811 159:0.0019555874 160:0.0029333811 161:0.0019555874 162:0.0029333811 163:0.0019555874 164:0.00097779371 165:0.00097779371 166:0.00097779371 167:0.00097779371 168:0.0029333811 169:0.0019555874 170:0.0019555874 172:0.00097779371 173:0.006844556 175:0.0058667623 177:0.0029333811 178:0.0058667623 179:0.0048889685 180:0.0039111748 181:0.0048889685 182:0.0039111748 183:0.0048889685 184:0.0088001434 185:0.0078223497 186:0.012711318 187:0.010755731 188:0.0048889685 189:0.0058667623 190:0.0048889685 191:0.0097779371 192:0.010755731 193:0.010755731 194:0.006844556 195:0.010755731 196:0.0058667623 197:0.0048889685 198:0.00097779371 199:0.0039111748 200:0.0029333811 201:0.006844556 202:0.0039111748 203:0.006844556 204:0.006844556 205:0.0029333811 206:0.0019555874 207:0.0029333811 208:0.0078223497 210:0.0019555874 211:0.0029333811 212:0.0019555874 213:0.0019555874 214:0.0029333811 215:0.00097779371 
1 1:0.23003905 2:0.34913006 3:0.022393182 4:0.29925433 5:0.014250207 6:0.2534501 7:0.0040714876 8:0.19034204 9:0.0010178719 10:0.014250207 11:0.0010178719 12:0.21171735 14:0.30536157 15:0.0010178719 16:0.246325 18:0.0071251034 20:0.064125933 22:0.12621611 24:0.099751443 26:0.02137531 28:0.011196591 30:0.051911466 32:0.325719 38:0.0010178719 40:0.013232335 44:0.064125933 46:0.0010178719 48:0.3766126 52:0.015268078 54:0.086519115 56:0.0091608474 60:0.026464669 62:0.16591312 64:0.14351994 88:0.076340392 92:0.0050893594 96:0.20052077 112:0.031554028 120:0.0061072316 128:0.2137531 129:0.0020357438 131:0.0020357438 132:0.0010178719 133:0.0020357438 135:0.0020357438 136:0.0030536158 137:0.0040714876 138:0.0020357438 139:0.0010178719 140:0.0020357438 141:0.0010178719 146:0.0010178719 152:0.0010178719 153:0.0010178719 155:0.0010178719 156:0.0030536158 158:0.0010178719 159:0.0010178719 160:0.0010178719 161:0.0010178719 165:0.0030536158 166:0.0020357438 167:0.0010178719 169:0.0010178719 170:0.0030536158 171:0.0020357438 173:0.0050893594 174:0.0050893594 175:0.0061072316 176:0.0030536158 177:0.0071251034 178:0.0091608474 179:0.0030536158 180:0.0040714876 181:0.0030536158 182:0.0040714876 183:0.0040714876 184:0.0010178719 185:0.0010178719 186:0.0030536158 187:0.0061072316 188:0.0050893594 189:0.0050893594 190:0.0020357438 191:0.0020357438 192:0.0030536158 193:0.0020357438 198:0.0010178719 199:0.0010178719 203:0.0010178719 204:0.0020357438 205:0.0020357438 206:0.0010178719 208:0.0010178719 209:0.0010178719 210:0.0010178719 211:0.0010178719 218:0.0010178719 219:0.0010178719 
1 1:0.10377116 2:0.14508745 4:0.25078028 6:0.35359061 8:0.21522906 10:0.0038433762 12:0.27768394 14:0.3622382 16:0.3093918 20:0.042277139 22:0.18544289 24:0.10953622 26:0.0057650642 28:0.0038433762 30:0.058611486 32:0.29882249 38:0.00096084405 40:0.0048042201 44:0.028825322 48:0.43045813 52:0.00096084405 54:0.12779225 60:0.015373505 62:0.20081641 64:0.06821993 88:0.11818381 92:0.00096084405 96:0.14796998 112:0.0048042201 128:0.059572332 141:0.0028825321 142:0.0038433762 143:0.0019216881 144:0.0048042201 145:0.0048042201 146:0.0028825321 147:0.0019216881 148:0.00096084405 149:0.0028825321 150:0.0028825321 151:0.0048042201 152:0.0019216881 153:0.0019216881 155:0.0038433762 156:0.0057650642 157:0.0019216881 159:0.00096084405 160:0.0019216881 162:0.0028825321 163:0.0028825321 164:0.00096084405 165:0.0019216881 166:0.0028825321 167:0.00096084405 169:0.0028825321 170:0.0019216881 171:0.0019216881 172:0.0019216881 173:0.0019216881 174:0.0019216881 175:0.0038433762 176:0.0028825321 177:0.0048042201 178:0.0048042201 179:0.0076867524 180:0.0057650642 181:0.0038433762 182:0.0057650642 183:0.0067259083 184:0.0067259083 185:0.011530128 186:0.0067259083 187:0.0067259083 188:0.0048042201 189:0.0057650642 190:0.014412661 191:0.0048042201 192:0.0067259083 193:0.014412661 194:0.0067259083 196:0.0048042201 197:0.00096084405 198:0.0038433762 199:0.0028825321 200:0.0057650642 201:0.0067259083 202:0.0076867524 203:0.013451817 204:0.0028825321 205:0.0019216881 206:0.00096084405 207:0.0028825321 208:0.0028825321 209:0.0038433762 211:0.0019216881 212:0.0019216881 213:0.0038433762 214:0.0019216881 
1 1:0.17176814 2:0.37467554 3:0.020089841 4:0.27623531 5:0.018080857 6:0.23304215 7:0.0040179682 8:0.26518589 9:0.0020089841 10:0.014062889 12:0.20592088 14:0.2521275 16:0.30134761 18:0.011049412 20:0.036161713 22:0.12254803 24:0.12154354 26:0.016071873 28:0.011049412 30:0.056251556 32:0.38271147 38:0.001004492 40:0.0070314445 44:0.046206634 48:0.34956324 52:0.0070314445 54:0.080359362 56:0.022098824 60:0.044197649 62:0.16775016 64:0.15067381 88:0.077345885 92:0.0040179682 96:0.16674568 112:0.035157222 120:0.0050224601 128:0.17478162 131:0.0020089841 132:0.001004492 133:0.001004492 135:0.001004492 137:0.0020089841 138:0.0030134763 139:0.001004492 140:0.001004492 143:0.001004492 144:0.0050224601 146:0.001004492 147:0.0030134763 152:0.001004492 153:0.001004492 155:0.001004492 156:0.0020089841 157:0.0020089841 158:0.0020089841 159:0.0030134763 160:0.001004492 161:0.001004492 162:0.0020089841 164:0.001004492 165:0.0020089841 166:0.001004492 168:0.001004492 169:0.0040179682 170:0.0040179682 172:0.0050224601 173:0.0020089841 174:0.001004492 175:0.0040179682 176:0.001004492 177:0.0030134763 178:0.0030134763 179:0.0020089841 180:0.001004492 181:0.001004492 182:0.0020089841 183:0.0020089841 184:0.0020089841 185:0.0030134763 186:0.0040179682 187:0.0030134763 188:0.0050224601 189:0.0030134763 190:0.0070314445 191:0.0020089841 192:0.0020089841 193:0.0030134763 194:0.0040179682 196:0.0020089841 197:0.0020089841 198:0.0020089841 199:0.0020089841 200:0.001004492 201:0.0050224601 202:0.001004492 203:0.0020089841 205:0.0030134763 206:0.0020089841 207:0.001004492 208:0.001004492 209:0.001004492 221:0.001004492 
1 1:0.20917524 2:0.28214335 3:0.028214335 4:0.26365811 5:0.017512346 6:0.25295612 7:0.0029187244 8:0.21793142 9:0.00097290811 10:0.014593622 11:0.00097290811 12:0.19555452 13:0.0019458162 14:0.39889231 16:0.25490192 18:0.0019458162 20:0.052537039 22:0.15080075 24:0.079778463 26:0.0058374489 28:0.0097290808 30:0.063239031 32:0.28408918 40:0.0087561728 44:0.039889231 48:0.46310425 52:0.0087561728 54:0.077832647 56:0.010701989 60:0.018485254 62:0.1323155 64:0.09923663 88:0.058374487 92:0.0038916324 96:0.15080075 112:0.046699591 120:0.0048645404 128:0.19069 141:0.0019458162 142:0.00097290811 143:0.0048645404 144:0.0058374489 147:0.00097290811 150:0.00097290811 151:0.00097290811 152:0.00097290811 153:0.0019458162 154:0.00097290811 155:0.0029187244 156:0.00097290811 157:0.0019458162 158:0.0019458162 160:0.00097290811 161:0.00097290811 162:0.0019458162 163:0.0038916324 164:0.00097290811 165:0.00097290811 167:0.00097290811 168:0.00097290811 169:0.00097290811 170:0.0019458162 171:0.0029187244 173:0.00097290811 175:0.0038916324 176:0.0019458162 177:0.0038916324 178:0.0029187244 179:0.0038916324 180:0.0019458162 181:0.0019458162 182:0.0019458162 183:0.00097290811 184:0.0019458162 185:0.0029187244 186:0.0038916324 187:0.0068103569 188:0.0068103569 189:0.0038916324 190:0.0077832649 191:0.0029187244 192:0.00097290811 193:0.0019458162 194:0.0019458162 195:0.0019458162 196:0.00097290811 197:0.00097290811 199:0.0019458162 200:0.00097290811 202:0.0029187244 203:0.0019458162 204:0.0048645404 206:0.0019458162 208:0.0019458162 209:0.00097290811 232:0.00097290811 236:0.00097290811 249:0.00097290811 250:0.00097290811 
1 1:0.14451873 2:0.16221491 4:0.23889832 6:0.31656486 8:0.18187732 10:0.0078649651 12:0.34605846 14:0.3185311 16:0.28805435 18:0.0019662413 20:0.046206672 22:0.18580981 24:0.11305887 26:0.0039324826 28:0.0049156034 30:0.054071635 32:0.31164923 40:0.0019662413 44:0.040307947 48:0.43060684 52:0.00098312064 54:0.13862 56:0.0049156034 60:0.018679293 62:0.23201647 64:0.079632774 88:0.11895759 92:0.0029493619 96:0.14353561 112:0.0049156034 120:0.0029493619 128:0.072750926 137:0.00098312064 138:0.00098312064 139:0.00098312064 140:0.00098312064 142:0.00098312064 143:0.00098312064 144:0.0019662413 145:0.0039324826 146:0.0049156034 147:0.0029493619 148:0.0019662413 149:0.0039324826 150:0.0019662413 151:0.0029493619 152:0.0039324826 153:0.0029493619 154:0.0019662413 155:0.0049156034 156:0.0019662413 158:0.0029493619 159:0.00098312064 161:0.0019662413 162:0.0029493619 163:0.0019662413 164:0.00098312064 165:0.00098312064 166:0.0049156034 167:0.0029493619 168:0.00098312064 169:0.0019662413 170:0.0029493619 171:0.0019662413 172:0.00098312064 173:0.00098312064 174:0.0019662413 176:0.0029493619 177:0.0029493619 178:0.012780569 179:0.0058987238 180:0.0039324826 181:0.0058987238 182:0.0078649651 183:0.008848086 184:0.0098312069 185:0.0078649651 186:0.0019662413 187:0.0068818443 188:0.0078649651 189:0.0068818443 190:0.012780569 191:0.008848086 192:0.0098312069 193:0.0098312069 194:0.0058987238 195:0.0019662413 196:0.0029493619 197:0.0039324826 198:0.00098312064 199:0.0039324826 200:0.0019662413 201:0.0029493619 202:0.0049156034 203:0.0039324826 204:0.0049156034 205:0.0049156034 206:0.0049156034 207:0.0049156034 208:0.0058987238 209:0.0039324826 210:0.0058987238 211:0.0039324826 212:0.0049156034 213:0.00098312064 
1 1:0.10493618 2:0.15114661 4:0.20987235 6:0.31865939 8:0.18484171 10:0.0048135864 12:0.30518135 14:0.35524267 16:0.31673396 18:0.0019254345 20:0.043322276 22:0.18291627 24:0.1116752 26:0.0048135864 28:0.00096271723 30:0.067390203 32:0.32251027 40:0.0028881517 44:0.040434122 48:0.4418872 52:0.0038508689 54:0.1232278 56:0.0019254345 60:0.010589889 62:0.23201485 64:0.070278354 88:0.13189226 92:0.00096271723 96:0.13092954 112:0.0048135864 128:0.055837598 138:0.00096271723 139:0.0019254345 140:0.00096271723 142:0.0038508689 143:0.0038508689 145:0.0038508689 146:0.0019254345 147:0.00096271723 148:0.0048135864 149:0.0038508689 150:0.0019254345 152:0.0019254345 153:0.0019254345 154:0.0019254345 155:0.0077017378 156:0.0038508689 157:0.0028881517 158:0.0038508689 159:0.0019254345 160:0.00096271723 162:0.0019254345 163:0.0019254345 164:0.0048135864 165:0.0019254345 166:0.0028881517 167:0.00096271723 168:0.00096271723 169:0.0019254345 170:0.0019254345 172:0.0038508689 174:0.00096271723 175:0.0057763034 176:0.00096271723 177:0.0067390203 178:0.0067390203 179:0.0067390203 180:0.0096271727 181:0.0077017378 182:0.0048135864 183:0.0038508689 184:0.010589889 185:0.0048135864 186:0.0057763034 187:0.0067390203 188:0.0048135864 189:0.011552607 190:0.010589889 191:0.0077017378 192:0.0048135864 193:0.0048135864 194:0.0067390203 195:0.0048135864 196:0.0067390203 197:0.0057763034 198:0.0019254345 199:0.0038508689 200:0.0067390203 201:0.00096271723 202:0.0048135864 203:0.0048135864 204:0.0028881517 205:0.0028881517 206:0.0086644553 207:0.0048135864 209:0.00096271723 210:0.00096271723 211:0.0028881517 212:0.0048135864 213:0.0038508689 
1 1:0.14803642 2:0.16881345 4:0.39389807 6:0.17141059 8:0.30386421 10:0.0043285503 12:0.073585354 14:0.34282118 16:0.44064641 18:0.00086571003 20:0.032896981 22:0.1298565 24:0.069256805 26:0.0077913902 28:0.0025971301 30:0.064928249 32:0.43891498 40:0.0017314201 44:0.01991133 48:0.32464126 52:0.0034628401 54:0.038091242 56:0.00086571003 58:0.0017314201 59:0.00086571003 60:0.0060599702 61:0.0017314201 62:0.092630975 63:0.0017314201 64:0.073585354 65:0.00086571003 66:0.00086571003 67:0.00086571003 68:0.0017314201 69:0.0034628401 70:0.0017314201 71:0.0017314201 73:0.0025971301 74:0.00086571003 77:0.0017314201 78:0.0043285503 79:0.00086571003 80:0.0034628401 81:0.0034628401 82:0.0025971301 83:0.00086571003 84:0.0017314201 85:0.0017314201 86:0.0017314201 87:0.0017314201 88:0.038956951 89:0.0017314201 90:0.00086571003 91:0.0034628401 92:0.0025971301 93:0.0017314201 94:0.0017314201 95:0.0017314201 96:0.090033844 98:0.0017314201 99:0.0025971301 100:0.0043285503 101:0.0025971301 102:0.0034628401 103:0.0025971301 104:0.0043285503 107:0.0017314201 108:0.0034628401 109:0.0025971301 110:0.0025971301 111:0.0017314201 112:0.0043285503 113:0.00086571003 114:0.0034628401 115:0.0025971301 116:0.0017314201 117:0.00086571003 118:0.0025971301 119:0.011254231 120:0.00086571003 121:0.0034628401 122:0.0034628401 123:0.0034628401 125:0.0025971301 126:0.0034628401 127:0.0043285503 128:0.064062543 129:0.00086571003 130:0.0060599702 131:0.0017314201 132:0.00086571003 133:0.0025971301 134:0.0034628401 135:0.0017314201 136:0.0017314201 137:0.00086571003 138:0.0025971301 140:0.00086571003 141:0.0060599702 142:0.00086571003 143:0.00086571003 144:0.0095228106 145:0.0025971301 146:0.00086571003 147:0.0034628401 148:0.0043285503 149:0.0034628401 150:0.0017314201 151:0.0017314201 152:0.0034628401 153:0.0034628401 154:0.0060599702 155:0.0025971301 156:0.0034628401 157:0.0034628401 158:0.0034628401 159:0.00086571003 160:0.0025971301 161:0.0025971301 162:0.0025971301 163:0.00086571003 164:0.0017314201 165:0.00086571003 166:0.0025971301 167:0.0025971301 168:0.00086571003 172:0.00086571003 175:0.0017314201 179:0.00086571003 182:0.00086571003 183:0.00086571003 185:0.00086571003 
1 1:0.13741259 2:0.14168006 4:0.35676062 6:0.16216393 8:0.30213699 10:0.0076814489 12:0.068279549 14:0.36956304 16:0.44979152 18:0.00085349433 20:0.040114235 22:0.11010077 24:0.08022847 26:0.0059744604 28:0.00085349433 30:0.062305085 32:0.45917994 40:0.0042674718 44:0.020483864 48:0.33115581 52:0.0042674718 54:0.054623637 56:0.0017069887 60:0.0042674718 62:0.10156582 63:0.0034139773 64:0.059744604 65:0.00085349433 66:0.0017069887 67:0.0025604831 68:0.0017069887 69:0.0017069887 70:0.00085349433 71:0.0025604831 72:0.00085349433 74:0.0017069887 76:0.0017069887 77:0.0017069887 78:0.0042674718 79:0.0025604831 80:0.0034139773 81:0.0025604831 82:0.00085349433 83:0.00085349433 84:0.00085349433 85:0.0017069887 86:0.00085349433 87:0.0025604831 88:0.032432783 90:0.0017069887 91:0.0042674718 92:0.0017069887 93:0.00085349433 94:0.0025604831 95:0.0017069887 96:0.082788952 97:0.0017069887 99:0.0017069887 100:0.0017069887 101:0.00085349433 102:0.0017069887 103:0.0025604831 104:0.0025604831 106:0.0017069887 107:0.0017069887 108:0.0042674718 109:0.0025604831 110:0.00085349433 111:0.0025604831 112:0.011095426 113:0.0042674718 115:0.0025604831 116:0.00085349433 117:0.0017069887 118:0.0034139773 119:0.00085349433 120:0.0068279547 121:0.0093884375 122:0.0051209661 123:0.0017069887 124:0.0042674718 125:0.0017069887 126:0.0025604831 127:0.0034139773 128:0.042674717 129:0.0034139773 130:0.0025604831 131:0.0034139773 132:0.0025604831 133:0.00085349433 134:0.00085349433 135:0.0034139773 136:0.0017069887 137:0.0017069887 139:0.0025604831 140:0.0017069887 141:0.0017069887 142:0.0042674718 143:0.0034139773 144:0.0059744604 145:0.0051209661 146:0.0034139773 147:0.0017069887 148:0.0051209661 149:0.0034139773 150:0.00085349433 151:0.0017069887 152:0.0034139773 153:0.0034139773 154:0.0025604831 155:0.0034139773 156:0.0034139773 157:0.0034139773 158:0.0025604831 159:0.0025604831 160:0.0017069887 161:0.00085349433 162:0.0034139773 163:0.0025604831 164:0.0025604831 165:0.0017069887 166:0.00085349433 167:0.0017069887 168:0.00085349433 169:0.00085349433 170:0.00085349433 171:0.0017069887 176:0.00085349433 178:0.00085349433 189:0.00085349433 192:0.00085349433 197:0.00085349433 
1 1:0.2474758 2:0.31818318 3:0.034423325 4:0.28841165 5:0.0093036015 6:0.15443979 7:0.0018607203 8:0.28655094 10:0.024189364 11:0.00093036017 12:0.085593134 14:0.29957598 16:0.3786566 18:0.0037214407 20:0.048378728 22:0.038144767 24:0.062334131 26:0.011164322 28:0.0093036015 30:0.080010973 32:0.44192109 38:0.00093036017 40:0.010233962 44:0.031632245 48:0.33958146 52:0.0074428814 54:0.055821609 56:0.0093036015 60:0.021398284 62:0.087453857 64:0.16839519 69:0.00093036017 71:0.00093036017 72:0.00093036017 75:0.0018607203 77:0.0055821612 78:0.0018607203 79:0.00093036017 81:0.0018607203 82:0.00093036017 84:0.0018607203 85:0.0018607203 87:0.00093036017 88:0.038144767 91:0.00093036017 92:0.0055821612 93:0.00093036017 95:0.00093036017 96:0.10233962 97:0.00093036017 98:0.0027910806 99:0.00093036017 100:0.00093036017 101:0.0018607203 102:0.0018607203 106:0.00093036017 108:0.0018607203 110:0.0018607203 111:0.00093036017 112:0.042796567 113:0.00093036017 116:0.0018607203 117:0.00093036017 120:0.0046518007 122:0.00093036017 123:0.0027910806 124:0.0027910806 125:0.0055821612 126:0.00093036017 127:0.0037214407 128:0.16188267 129:0.0018607203 130:0.0018607203 131:0.00093036017 133:0.00093036017 134:0.0027910806 135:0.00093036017 136:0.0027910806 137:0.0018607203 138:0.00093036017 140:0.0018607203 141:0.00093036017 142:0.0027910806 143:0.00093036017 144:0.00093036017 145:0.00093036017 146:0.0037214407 147:0.00093036017 148:0.0018607203 149:0.0037214407 150:0.0027910806 151:0.0027910806 152:0.0018607203 153:0.0027910806 154:0.0027910806 155:0.0018607203 156:0.0018607203 157:0.00093036017 160:0.00093036017 162:0.00093036017 164:0.00093036017 165:0.00093036017 167:0.00093036017 168:0.0027910806 170:0.0018607203 172:0.00093036017 173:0.00093036017 175:0.00093036017 178:0.00093036017 182:0.00093036017 190:0.00093036017 195:0.00093036017 196:0.00093036017 247:0.00093036017 251:0.00093036017 253:0.00093036017 
1 1:0.13093939 2:0.15333693 4:0.37214354 6:0.18607177 8:0.2980594 10:0.0034457736 12:0.071499802 14:0.36783633 16:0.45914933 18:0.004307217 20:0.044795059 22:0.11026476 24:0.08786723 26:0.0034457736 28:0.0034457736 30:0.065469697 32:0.42727593 40:0.0017228868 44:0.013783094 48:0.33165571 52:0.0034457736 54:0.054270934 56:0.0008614434 60:0.0086144339 61:0.0017228868 62:0.087005787 63:0.004307217 64:0.062885366 65:0.0008614434 66:0.0008614434 67:0.0025843303 68:0.004307217 69:0.0017228868 70:0.0025843303 71:0.0008614434 73:0.0008614434 74:0.0008614434 75:0.0008614434 77:0.0017228868 78:0.0017228868 79:0.0034457736 80:0.004307217 81:0.0025843303 82:0.0025843303 83:0.0025843303 84:0.0008614434 85:0.0008614434 86:0.0008614434 87:0.0017228868 88:0.036180623 90:0.0017228868 91:0.0017228868 92:0.0034457736 93:0.0034457736 94:0.0017228868 95:0.0008614434 96:0.084421456 97:0.0008614434 98:0.0008614434 99:0.0034457736 101:0.0017228868 102:0.0008614434 103:0.0017228868 104:0.0008614434 105:0.0025843303 106:0.0025843303 107:0.0008614434 108:0.0017228868 109:0.004307217 110:0.0025843303 111:0.0025843303 112:0.0051686605 113:0.0034457736 114:0.0008614434 115:0.0017228868 116:0.0025843303 117:0.0025843303 118:0.0060301037 119:0.0034457736 120:0.0051686605 121:0.0017228868 122:0.004307217 123:0.0025843303 124:0.0025843303 125:0.0017228868 126:0.0017228868 127:0.0034457736 128:0.057716709 129:0.004307217 130:0.0034457736 131:0.0051686605 133:0.0017228868 134:0.0008614434 135:0.004307217 136:0.0008614434 137:0.0017228868 138:0.0025843303 139:0.0017228868 140:0.0017228868 141:0.0017228868 142:0.0034457736 143:0.0060301037 144:0.004307217 145:0.0017228868 146:0.0034457736 147:0.0008614434 148:0.0051686605 149:0.0025843303 150:0.0034457736 151:0.0017228868 152:0.0017228868 153:0.0034457736 154:0.0017228868 155:0.011198765 156:0.0034457736 157:0.0008614434 158:0.0008614434 159:0.0008614434 160:0.0025843303 161:0.004307217 162:0.0034457736 163:0.0017228868 164:0.0025843303 165:0.0017228868 168:0.0008614434 170:0.0008614434 172:0.0008614434 177:0.0008614434 179:0.0008614434 184:0.0008614434 185:0.0008614434 196:0.0008614434 199:0.0008614434 203:0.0008614434 
1 1:0.12520534 2:0.17701444 4:0.37647951 6:0.17615096 8:0.32380691 10:0.0025904553 12:0.075986691 14:0.38856828 16:0.38684133 18:0.0008634851 20:0.03367592 22:0.10793564 24:0.077713661 26:0.0069078808 28:0.0051809107 30:0.0638979 32:0.43865043 40:0.0051809107 44:0.0094983364 48:0.35316542 52:0.0034539404 54:0.034539405 56:0.0025904553 60:0.012088791 62:0.11225306 64:0.061307441 68:0.0069078808 69:0.0034539404 70:0.0008634851 71:0.0008634851 72:0.0008634851 73:0.0017269702 74:0.0017269702 75:0.0008634851 76:0.0008634851 77:0.0025904553 78:0.0034539404 79:0.0034539404 80:0.0025904553 81:0.0017269702 82:0.0017269702 83:0.0017269702 85:0.0034539404 87:0.0008634851 88:0.041447286 89:0.0017269702 90:0.0008634851 92:0.0051809107 93:0.0008634851 94:0.0034539404 95:0.0025904553 96:0.069942296 97:0.0008634851 98:0.0017269702 99:0.0017269702 100:0.0008634851 101:0.0017269702 102:0.0051809107 103:0.0017269702 104:0.0008634851 105:0.0034539404 108:0.0034539404 110:0.0017269702 111:0.0008634851 112:0.0043174257 113:0.0017269702 116:0.0069078808 117:0.0069078808 118:0.0025904553 119:0.0069078808 120:0.0086348513 121:0.0034539404 122:0.0025904553 123:0.0025904553 124:0.0034539404 125:0.0025904553 126:0.0060443957 127:0.0025904553 128:0.057853501 129:0.0008634851 130:0.0025904553 131:0.0017269702 132:0.0025904553 133:0.0025904553 134:0.0008634851 135:0.0051809107 136:0.0060443957 137:0.0025904553 138:0.0017269702 139:0.0034539404 140:0.0043174257 141:0.0034539404 142:0.0051809107 143:0.0069078808 144:0.0034539404 145:0.0025904553 146:0.0051809107 147:0.0034539404 148:0.0034539404 149:0.0017269702 150:0.0043174257 151:0.0025904553 152:0.0043174257 153:0.0008634851 154:0.0025904553 155:0.0043174257 156:0.0043174257 157:0.0008634851 158:0.0034539404 160:0.0043174257 161:0.0051809107 162:0.0051809107 163:0.0017269702 164:0.0008634851 165:0.0017269702 
1 1:0.15479271 2:0.1732623 4:0.3447656 6:0.18469585 8:0.32541651 10:0.0070360326 12:0.077396356 14:0.37115073 16:0.45206511 18:0.00087950408 20:0.0430957 22:0.11169702 24:0.071239829 26:0.0087950407 28:0.0035180163 30:0.08355289 32:0.39313832 40:0.0043975203 44:0.015831074 48:0.35268113 52:0.0026385123 54:0.040457189 56:0.0035180163 60:0.0079155369 62:0.11521503 64:0.078275859 65:0.00087950408 66:0.0035180163 67:0.0043975203 68:0.0026385123 71:0.0017590082 72:0.00087950408 74:0.0017590082 76:0.0035180163 77:0.0043975203 78:0.0035180163 79:0.0026385123 80:0.0017590082 81:0.00087950408 82:0.0017590082 83:0.0026385123 84:0.0017590082 85:0.00087950408 86:0.0017590082 87:0.00087950408 88:0.038698178 89:0.0017590082 90:0.0017590082 94:0.0017590082 96:0.087070905 97:0.00087950408 98:0.0017590082 99:0.0035180163 100:0.0026385123 101:0.0017590082 102:0.0017590082 103:0.0070360326 106:0.0017590082 107:0.0017590082 108:0.0026385123 109:0.00087950408 110:0.0026385123 111:0.0026385123 112:0.0017590082 113:0.0035180163 114:0.00087950408 115:0.0035180163 116:0.0017590082 117:0.0052770246 118:0.0017590082 119:0.0043975203 120:0.0070360326 121:0.0043975203 122:0.0061565284 123:0.0035180163 124:0.0026385123 125:0.0026385123 126:0.0061565284 127:0.0070360326 128:0.045734212 129:0.0026385123 130:0.0026385123 131:0.0017590082 132:0.00087950408 133:0.0070360326 134:0.0017590082 135:0.0026385123 136:0.0017590082 138:0.0026385123 139:0.00087950408 140:0.0087950407 141:0.0079155369 142:0.0061565284 143:0.0026385123 144:0.0026385123 145:0.0017590082 146:0.0017590082 147:0.0026385123 148:0.0017590082 149:0.00087950408 150:0.0017590082 151:0.0035180163 152:0.0035180163 153:0.0017590082 154:0.0052770246 155:0.0026385123 156:0.0035180163 157:0.0043975203 158:0.0035180163 160:0.0035180163 161:0.0026385123 162:0.0035180163 163:0.00087950408 164:0.0043975203 165:0.0026385123 166:0.00087950408 173:0.00087950408 180:0.00087950408 184:0.0017590082 185:0.00087950408 
1 1:0.21560661 2:0.35212606 3:0.028245408 4:0.30128434 5:0.016947243 6:0.15911579 7:0.006590595 8:0.31729007 9:0.0028245407 10:0.01318119 11:0.00094151357 12:0.10262498 13:0.00094151357 14:0.30787495 16:0.36813182 18:0.0075321086 20:0.036719028 22:0.054607786 24:0.078145623 26:0.016947243 28:0.015064217 30:0.084736221 32:0.41520748 38:0.0028245407 40:0.019771785 44:0.023537839 48:0.30881646 52:0.011298163 54:0.032952975 56:0.0094151357 60:0.038602058 62:0.098858923 64:0.15723276 71:0.00094151357 72:0.00094151357 74:0.0018830271 75:0.00094151357 77:0.0037660543 78:0.0018830271 79:0.0037660543 81:0.00094151357 83:0.00094151357 87:0.00094151357 88:0.030128434 89:0.0018830271 92:0.006590595 95:0.00094151357 96:0.11580617 99:0.0018830271 100:0.00094151357 101:0.0028245407 102:0.0018830271 103:0.00094151357 105:0.00094151357 107:0.00094151357 109:0.00094151357 110:0.00094151357 111:0.0028245407 112:0.025420867 113:0.0028245407 114:0.0018830271 115:0.00094151357 117:0.00094151357 118:0.00094151357 120:0.0028245407 121:0.00094151357 122:0.0018830271 123:0.0018830271 124:0.00094151357 125:0.0018830271 126:0.0037660543 127:0.00094151357 128:0.17606303 129:0.0028245407 130:0.0028245407 131:0.0084736217 132:0.006590595 133:0.0037660543 134:0.0047075679 135:0.006590595 136:0.0028245407 137:0.0028245407 138:0.0018830271 139:0.0037660543 140:0.0018830271 141:0.0037660543 142:0.0018830271 143:0.0018830271 144:0.00094151357 145:0.00094151357 146:0.00094151357 147:0.0018830271 148:0.00094151357 160:0.00094151357 162:0.00094151357 164:0.00094151357 172:0.00094151357 207:0.00094151357 208:0.00094151357 253:0.00094151357 
1 1:0.11839838 2:0.13590801 4:0.39104819 6:0.17092724 8:0.31934214 10:0.0016675829 12:0.05753161 14:0.35853031 16:0.48693421 18:0.0016675829 20:0.027515117 22:0.11839838 24:0.084212936 26:0.0091717057 28:0.0025013743 30:0.068370901 32:0.39438334 44:0.012506871 48:0.33435038 52:0.0033351658 54:0.031684075 56:0.0016675829 60:0.0033351658 62:0.089215688 64:0.063368149 71:0.0016675829 72:0.00083379145 73:0.0016675829 74:0.0025013743 75:0.0025013743 76:0.0025013743 77:0.0016675829 78:0.0050027487 79:0.00083379145 80:0.0025013743 81:0.0033351658 82:0.0050027487 83:0.0016675829 84:0.0033351658 85:0.00083379145 86:0.00083379145 87:0.0025013743 88:0.030016493 89:0.00083379145 90:0.0016675829 91:0.0016675829 92:0.0016675829 94:0.00083379145 96:0.056697819 97:0.0025013743 98:0.0025013743 99:0.0041689575 100:0.00083379145 101:0.0033351658 102:0.0050027487 103:0.00083379145 104:0.0016675829 105:0.0025013743 106:0.0016675829 107:0.00083379145 108:0.0025013743 109:0.0025013743 110:0.00083379145 111:0.0025013743 112:0.0025013743 113:0.00083379145 114:0.0033351658 115:0.00083379145 116:0.0016675829 117:0.0016675829 118:0.0025013743 119:0.0066703316 120:0.0050027487 121:0.0091717057 123:0.00083379145 124:0.0041689575 125:0.0025013743 126:0.0041689575 127:0.0025013743 128:0.048359904 129:0.0041689575 130:0.00083379145 131:0.0033351658 132:0.0016675829 133:0.00083379145 135:0.0033351658 136:0.0033351658 137:0.0033351658 138:0.0041689575 140:0.0016675829 141:0.0050027487 142:0.0058365399 143:0.0041689575 144:0.0033351658 145:0.0058365399 146:0.0050027487 148:0.0025013743 149:0.0041689575 150:0.0016675829 151:0.0025013743 152:0.0033351658 153:0.0033351658 154:0.0025013743 155:0.0033351658 156:0.0025013743 157:0.0041689575 158:0.0016675829 159:0.0025013743 160:0.0025013743 161:0.00083379145 162:0.0033351658 163:0.0050027487 164:0.0025013743 165:0.0016675829 168:0.00083379145 172:0.00083379145 181:0.00083379145 186:0.00083379145 193:0.00083379145 196:0.00083379145 199:0.0016675829 201:0.00083379145 202:0.00083379145 
1 1:0.12538898 2:0.150295 4:0.33150783 6:0.17605986 8:0.29371938 10:0.0042941431 12:0.075576916 14:0.42168483 16:0.47407338 18:0.0008588286 20:0.039506115 22:0.1082124 24:0.076435745 26:0.011164771 28:0.0025764857 30:0.057541516 32:0.39334351 38:0.0008588286 40:0.0051529715 44:0.012023601 48:0.34610793 52:0.0060118004 54:0.040364943 56:0.0034353144 60:0.0094471145 62:0.10134178 64:0.073859259 66:0.0008588286 67:0.0025764857 68:0.0060118004 69:0.0025764857 70:0.0008588286 71:0.0008588286 72:0.0017176572 74:0.0017176572 75:0.0025764857 76:0.0017176572 77:0.0042941431 78:0.0008588286 79:0.0008588286 80:0.0034353144 81:0.0008588286 82:0.0025764857 83:0.0008588286 84:0.0060118004 85:0.0008588286 86:0.0017176572 88:0.043800257 89:0.0008588286 90:0.0008588286 91:0.0008588286 92:0.0008588286 93:0.0025764857 94:0.0017176572 96:0.074718088 97:0.0042941431 98:0.0017176572 99:0.0025764857 100:0.0017176572 101:0.0034353144 102:0.0017176572 103:0.0017176572 104:0.0008588286 105:0.0034353144 106:0.0017176572 107:0.0008588286 108:0.0025764857 109:0.0017176572 110:0.0017176572 111:0.0008588286 112:0.0068706288 113:0.0017176572 114:0.0017176572 115:0.0034353144 116:0.0025764857 117:0.0017176572 118:0.0034353144 119:0.0034353144 120:0.0068706288 121:0.0034353144 122:0.0042941431 123:0.0034353144 124:0.0017176572 125:0.0051529715 126:0.0017176572 127:0.0051529715 128:0.055823859 129:0.0034353144 131:0.0008588286 132:0.0017176572 133:0.0017176572 134:0.0034353144 135:0.0017176572 136:0.0017176572 137:0.0017176572 138:0.0008588286 139:0.0017176572 140:0.0025764857 141:0.0034353144 142:0.0017176572 143:0.0085882861 144:0.0042941431 145:0.0042941431 146:0.0017176572 147:0.0025764857 148:0.0017176572 149:0.0042941431 150:0.0051529715 151:0.0008588286 152:0.0034353144 153:0.0034353144 154:0.0051529715 155:0.0060118004 156:0.0025764857 157:0.0017176572 158:0.0008588286 159:0.0017176572 160:0.0034353144 161:0.0017176572 162:0.0034353144 163:0.0042941431 164:0.0025764857 165:0.0008588286 166:0.0008588286 167:0.0008588286 174:0.0025764857 176:0.0008588286 179:0.0008588286 180:0.0008588286 186:0.0008588286 193:0.0008588286 200:0.0008588286 204:0.0008588286 
1 1:0.14145736 2:0.14660127 4:0.36350256 6:0.15774639 8:0.31463546 10:0.0051439041 12:0.066013433 14:0.41236964 16:0.44666234 18:0.00085731735 20:0.046295136 22:0.098591499 24:0.086589053 26:0.0085731735 28:0.0025719521 30:0.063441485 32:0.40894037 40:0.0017146347 44:0.013717078 48:0.33606839 52:0.0025719521 54:0.04543782 56:0.0068585388 60:0.010287808 62:0.066013433 64:0.084874421 69:0.00085731735 70:0.00085731735 71:0.00085731735 73:0.0034292694 74:0.0025719521 75:0.0034292694 76:0.0025719521 77:0.0051439041 78:0.0034292694 79:0.0017146347 80:0.0025719521 81:0.0025719521 82:0.0017146347 83:0.0025719521 84:0.0017146347 85:0.00085731735 86:0.00085731735 87:0.0025719521 88:0.03600733 89:0.00085731735 91:0.0025719521 92:0.0042865868 93:0.0025719521 94:0.0017146347 95:0.0051439041 96:0.063441485 97:0.00085731735 98:0.0025719521 100:0.0025719521 101:0.0017146347 104:0.0034292694 105:0.0025719521 106:0.0034292694 107:0.0042865868 109:0.0025719521 110:0.00085731735 112:0.0042865868 113:0.0051439041 114:0.0025719521 116:0.0025719521 117:0.0017146347 118:0.0034292694 119:0.0025719521 120:0.0077158562 121:0.0051439041 122:0.0042865868 123:0.0060012215 124:0.0034292694 125:0.0017146347 126:0.0034292694 127:0.0034292694 128:0.068585388 129:0.0034292694 130:0.0017146347 131:0.0017146347 132:0.0017146347 134:0.0017146347 135:0.0017146347 136:0.00085731735 137:0.0017146347 138:0.0034292694 139:0.0042865868 140:0.0042865868 141:0.0025719521 142:0.0025719521 143:0.0051439041 144:0.0017146347 145:0.00085731735 146:0.0051439041 147:0.0042865868 148:0.0051439041 149:0.0025719521 150:0.0017146347 151:0.0051439041 152:0.0034292694 153:0.0025719521 154:0.0060012215 155:0.0025719521 156:0.0025719521 157:0.0051439041 158:0.0025719521 159:0.0025719521 160:0.00085731735 161:0.00085731735 162:0.0042865868 163:0.0042865868 164:0.0034292694 169:0.00085731735 172:0.00085731735 177:0.00085731735 178:0.00085731735 179:0.00085731735 184:0.00085731735 191:0.00085731735 196:0.00085731735 198:0.00085731735 199:0.00085731735 201:0.00085731735 
1 1:0.15261868 2:0.18401453 4:0.34884271 6:0.1683166 8:0.34012163 10:0.0043605338 12:0.054942727 14:0.38372698 16:0.41076228 18:0.0017442135 20:0.046221659 22:0.06802433 24:0.071512751 26:0.014825815 28:0.003488427 30:0.054070618 32:0.42820442 38:0.00087210676 40:0.003488427 44:0.016570028 48:0.34884271 52:0.0069768541 54:0.03488427 56:0.0017442135 60:0.012209495 62:0.10901334 64:0.10029228 72:0.00087210676 73:0.0087210676 74:0.0026163203 75:0.0017442135 78:0.0052326405 79:0.003488427 80:0.0026163203 81:0.003488427 82:0.0043605338 83:0.0026163203 84:0.003488427 85:0.0043605338 86:0.0026163203 87:0.0026163203 88:0.040989019 89:0.0043605338 90:0.00087210676 91:0.0026163203 92:0.0017442135 93:0.00087210676 94:0.0017442135 95:0.00087210676 96:0.07500118 97:0.0026163203 98:0.00087210676 99:0.00087210676 101:0.003488427 102:0.0017442135 103:0.0026163203 104:0.00087210676 105:0.00087210676 106:0.0017442135 107:0.0017442135 108:0.00087210676 111:0.00087210676 112:0.003488427 113:0.0026163203 114:0.0017442135 115:0.0026163203 116:0.003488427 117:0.0043605338 118:0.0052326405 119:0.0078489613 120:0.0052326405 121:0.0043605338 122:0.0043605338 123:0.0026163203 124:0.0017442135 125:0.0052326405 126:0.003488427 127:0.003488427 128:0.078489609 129:0.0017442135 130:0.0026163203 131:0.0017442135 132:0.00087210676 133:0.0026163203 134:0.003488427 135:0.003488427 136:0.0026163203 138:0.003488427 140:0.0026163203 141:0.0017442135 142:0.0043605338 143:0.0026163203 144:0.0017442135 145:0.0026163203 146:0.0026163203 147:0.0026163203 148:0.00087210676 149:0.0043605338 150:0.003488427 151:0.0052326405 152:0.0026163203 153:0.0026163203 154:0.0026163203 155:0.0026163203 156:0.0026163203 157:0.0052326405 158:0.00087210676 159:0.0026163203 160:0.0061047473 161:0.003488427 162:0.0043605338 163:0.0043605338 164:0.0026163203 165:0.00087210676 166:0.00087210676 167:0.0017442135 169:0.00087210676 170:0.00087210676 172:0.00087210676 174:0.00087210676 177:0.0017442135 178:0.00087210676 179:0.00087210676 182:0.00087210676 183:0.0026163203 
1 1:0.15276876 2:0.16471715 4:0.35247764 6:0.14935493 8:0.30895135 10:0.0025603701 12:0.070836909 14:0.39002973 16:0.42672837 18:0.0034138269 20:0.027310615 22:0.073397279 24:0.068276539 26:0.0068276539 28:0.0042672837 30:0.052914318 32:0.47537541 38:0.00085345673 40:0.00085345673 44:0.016215678 48:0.30895135 52:0.0059741973 54:0.039259009 56:0.0059741973 60:0.013655308 62:0.09729407 64:0.079371475 68:0.0017069135 69:0.0017069135 70:0.0017069135 71:0.0034138269 72:0.0017069135 73:0.00085345673 74:0.00085345673 75:0.0017069135 76:0.0034138269 77:0.00085345673 78:0.00085345673 79:0.0042672837 80:0.0017069135 81:0.0051207403 82:0.0034138269 83:0.0025603701 84:0.0042672837 85:0.00085345673 86:0.0025603701 87:0.00085345673 88:0.040965922 89:0.0025603701 90:0.0042672837 91:0.00085345673 92:0.0034138269 93:0.00085345673 94:0.00085345673 95:0.00085345673 96:0.084492214 97:0.00085345673 98:0.00085345673 99:0.00085345673 100:0.00085345673 101:0.00085345673 102:0.0025603701 103:0.0025603701 104:0.0017069135 105:0.00085345673 106:0.0034138269 108:0.00085345673 109:0.0017069135 110:0.00085345673 111:0.00085345673 112:0.0034138269 114:0.0034138269 115:0.0042672837 116:0.0034138269 117:0.00085345673 118:0.0025603701 119:0.0017069135 120:0.017069135 121:0.00085345673 122:0.0025603701 123:0.0042672837 124:0.0042672837 125:0.0025603701 126:0.0034138269 127:0.0017069135 128:0.074250735 129:0.0034138269 130:0.0034138269 131:0.0025603701 132:0.0034138269 133:0.0025603701 134:0.0025603701 136:0.0017069135 137:0.0017069135 138:0.0034138269 139:0.0025603701 140:0.0025603701 141:0.0042672837 142:0.0017069135 143:0.0025603701 144:0.0025603701 145:0.0025603701 146:0.0025603701 147:0.0017069135 148:0.0017069135 149:0.0017069135 150:0.0025603701 151:0.0042672837 152:0.0068276539 153:0.0034138269 154:0.0051207403 155:0.0034138269 156:0.0034138269 157:0.0034138269 158:0.0017069135 159:0.0017069135 160:0.00085345673 161:0.0025603701 162:0.0051207403 163:0.0068276539 164:0.0034138269 165:0.00085345673 166:0.00085345673 167:0.0017069135 170:0.00085345673 173:0.00085345673 175:0.0017069135 176:0.00085345673 186:0.00085345673 187:0.00085345673 192:0.00085345673 
1 1:0.1395684 2:0.15914202 4:0.33190048 6:0.14722764 8:0.31147581 10:0.0034041074 12:0.075741388 14:0.39147234 16:0.41445008 18:0.0034041074 20:0.031487994 22:0.073188312 24:0.081698582 26:0.0051061613 28:0.0059571881 30:0.053614691 32:0.48593634 38:0.00085102685 40:0.0025530807 44:0.011063349 46:0.00085102685 48:0.33615559 52:0.0051061613 54:0.041700315 56:0.0025530807 60:0.016169511 62:0.10297425 64:0.074039333 71:0.0025530807 72:0.0025530807 73:0.0017020537 74:0.0017020537 75:0.0017020537 76:0.0025530807 77:0.0034041074 78:0.0042551341 79:0.0034041074 80:0.0059571881 81:0.0034041074 82:0.0042551341 83:0.0025530807 84:0.00085102685 85:0.0017020537 86:0.00085102685 87:0.0025530807 88:0.03744518 89:0.0051061613 90:0.0025530807 91:0.00085102685 92:0.0034041074 94:0.00085102685 95:0.0017020537 96:0.07489036 98:0.0025530807 99:0.00085102685 100:0.00085102685 102:0.0034041074 103:0.0042551341 104:0.0017020537 105:0.0017020537 108:0.00085102685 109:0.00085102685 110:0.0017020537 112:0.0059571881 113:0.0025530807 114:0.00085102685 115:0.0017020537 116:0.0025530807 117:0.0059571881 118:0.0042551341 119:0.0025530807 120:0.01361643 121:0.0017020537 122:0.0025530807 123:0.0042551341 124:0.0034041074 125:0.0017020537 126:0.0025530807 127:0.0017020537 128:0.064678043 129:0.0042551341 130:0.0017020537 131:0.0025530807 132:0.0017020537 133:0.0017020537 134:0.0017020537 135:0.0042551341 136:0.0025530807 137:0.0017020537 138:0.0025530807 139:0.0025530807 140:0.0042551341 141:0.0017020537 142:0.0017020537 143:0.0059571881 144:0.0042551341 145:0.00085102685 146:0.00085102685 147:0.0025530807 149:0.0042551341 150:0.0025530807 151:0.0017020537 152:0.0042551341 153:0.0085102683 154:0.0017020537 155:0.00085102685 156:0.0034041074 157:0.0042551341 158:0.0034041074 159:0.0034041074 160:0.0051061613 161:0.0042551341 162:0.00085102685 163:0.0042551341 164:0.0042551341 165:0.0025530807 167:0.00085102685 168:0.00085102685 170:0.00085102685 171:0.00085102685 179:0.00085102685 181:0.00085102685 186:0.00085102685 188:0.00085102685 
1 1:0.12849966 2:0.15848291 4:0.34266576 6:0.17475954 8:0.31353918 10:0.0017133288 12:0.071103141 14:0.39063895 16:0.43347219 18:0.0017133288 20:0.041119888 22:0.052256528 24:0.077099793 26:0.011136637 28:0.004283322 30:0.05482652 32:0.46688208 38:0.00085666438 40:0.004283322 44:0.01370663 48:0.31782249 52:0.004283322 54:0.049686532 56:0.004283322 60:0.011136637 62:0.10194306 64:0.079669788 71:0.0017133288 72:0.002569993 73:0.002569993 74:0.0034266575 75:0.0034266575 76:0.00085666438 77:0.0034266575 78:0.0017133288 79:0.002569993 80:0.006853315 81:0.002569993 82:0.0034266575 83:0.002569993 84:0.0017133288 85:0.0051399861 86:0.0017133288 87:0.002569993 88:0.03169658 89:0.0017133288 90:0.0034266575 91:0.002569993 92:0.002569993 94:0.0017133288 96:0.088236429 97:0.0017133288 98:0.0017133288 100:0.00085666438 102:0.0034266575 103:0.002569993 104:0.0034266575 105:0.00085666438 106:0.00085666438 107:0.00085666438 108:0.00085666438 109:0.00085666438 110:0.0017133288 112:0.0077099795 113:0.0017133288 114:0.002569993 116:0.0034266575 117:0.0034266575 118:0.002569993 119:0.0051399861 120:0.002569993 121:0.0094233081 122:0.0059966506 123:0.002569993 124:0.004283322 125:0.002569993 126:0.0059966506 127:0.0017133288 128:0.068533152 129:0.004283322 131:0.002569993 132:0.00085666438 133:0.002569993 134:0.0017133288 135:0.00085666438 136:0.0034266575 137:0.0034266575 138:0.00085666438 139:0.0017133288 140:0.0034266575 141:0.0034266575 142:0.0034266575 143:0.002569993 144:0.002569993 145:0.004283322 146:0.0017133288 147:0.002569993 148:0.0017133288 149:0.0034266575 151:0.002569993 152:0.0051399861 153:0.00085666438 154:0.0059966506 155:0.004283322 156:0.0034266575 157:0.002569993 158:0.0059966506 159:0.0034266575 160:0.0051399861 161:0.002569993 162:0.00085666438 163:0.0059966506 164:0.0034266575 165:0.002569993 167:0.00085666438 168:0.00085666438 169:0.00085666438 170:0.00085666438 172:0.00085666438 173:0.00085666438 176:0.00085666438 177:0.00085666438 182:0.00085666438 183:0.00085666438 
1 1:0.12485238 2:0.18192776 4:0.32372439 6:0.1961966 8:0.31569815 10:0.002675408 12:0.061534386 14:0.38793418 16:0.45481938 18:0.0044590137 20:0.045481939 22:0.11950156 24:0.086504862 26:0.016944252 28:0.0071344217 30:0.058858979 32:0.40666205 40:0.0044590137 44:0.022295067 48:0.33799323 52:0.002675408 54:0.043698333 56:0.0044590137 60:0.018727858 62:0.11593435 64:0.090963878 69:0.0035672109 70:0.002675408 71:0.00089180272 72:0.002675408 73:0.0044590137 74:0.0017836054 75:0.0017836054 76:0.0017836054 77:0.0035672109 78:0.0017836054 79:0.00089180272 80:0.002675408 82:0.0053508161 83:0.002675408 84:0.002675408 86:0.0017836054 87:0.00089180272 88:0.055291768 89:0.0017836054 90:0.00089180272 91:0.0017836054 92:0.002675408 93:0.00089180272 94:0.002675408 95:0.0017836054 96:0.086504862 97:0.0017836054 100:0.002675408 101:0.0017836054 102:0.00089180272 103:0.0017836054 105:0.0071344217 106:0.00089180272 107:0.0017836054 108:0.002675408 109:0.0017836054 111:0.0017836054 112:0.0053508161 113:0.00089180272 114:0.002675408 115:0.002675408 116:0.0017836054 117:0.0044590137 118:0.0071344217 119:0.0071344217 120:0.0062426189 121:0.0053508161 122:0.0035672109 123:0.0062426189 124:0.0017836054 125:0.0044590137 126:0.0044590137 127:0.0053508161 128:0.062426191 129:0.0017836054 130:0.0017836054 131:0.0017836054 132:0.00089180272 133:0.0044590137 134:0.0017836054 135:0.0017836054 136:0.00089180272 137:0.0017836054 138:0.002675408 140:0.0017836054 141:0.002675408 142:0.0044590137 143:0.002675408 144:0.0053508161 145:0.002675408 146:0.0035672109 147:0.00089180272 148:0.002675408 149:0.002675408 150:0.0017836054 151:0.0044590137 152:0.0035672109 153:0.002675408 154:0.002675408 155:0.0044590137 156:0.0062426189 157:0.002675408 158:0.0017836054 159:0.002675408 160:0.0053508161 161:0.002675408 162:0.0035672109 163:0.0053508161 164:0.0035672109 165:0.0035672109 166:0.00089180272 167:0.00089180272 168:0.00089180272 171:0.00089180272 172:0.00089180272 173:0.0017836054 175:0.00089180272 180:0.00089180272 184:0.00089180272 
1 1:0.20528826 2:0.35660401 3:0.036624197 4:0.30841428 5:0.022167277 6:0.18890375 7:0.01252933 8:0.25251418 9:0.0028913841 10:0.022167277 12:0.1069812 13:0.00096379465 14:0.28721079 16:0.36624196 18:0.0048189731 20:0.057827678 22:0.06264665 24:0.09252429 26:0.018312098 28:0.01252933 30:0.089632906 32:0.37202474 38:0.00096379465 40:0.011565536 44:0.016384508 48:0.37298852 49:0.0019275893 51:0.00096379465 52:0.017348304 53:0.00096379465 54:0.059755269 55:0.00096379465 56:0.014456919 57:0.0028913841 58:0.00096379465 60:0.022167277 61:0.00096379465 62:0.09156049 63:0.0019275893 64:0.18215719 65:0.0048189731 66:0.0028913841 67:0.0028913841 68:0.0057827681 69:0.0019275893 70:0.0019275893 71:0.0038551786 72:0.00096379465 74:0.00096379465 76:0.0028913841 77:0.0019275893 78:0.0019275893 80:0.0019275893 83:0.0038551786 84:0.00096379465 85:0.0028913841 86:0.00096379465 88:0.031805225 90:0.00096379465 91:0.00096379465 92:0.0038551786 94:0.00096379465 95:0.00096379465 96:0.13107607 97:0.0019275893 98:0.00096379465 100:0.00096379465 103:0.00096379465 106:0.00096379465 108:0.00096379465 110:0.00096379465 112:0.032769017 113:0.00096379465 114:0.00096379465 117:0.0028913841 120:0.0019275893 123:0.0028913841 124:0.0038551786 125:0.0038551786 126:0.0019275893 127:0.00096379465 128:0.19372272 129:0.0057827681 130:0.0019275893 131:0.0019275893 132:0.00096379465 133:0.0019275893 134:0.00096379465 136:0.0019275893 137:0.00096379465 139:0.0019275893 143:0.00096379465 144:0.00096379465 146:0.0028913841 147:0.00096379465 148:0.0019275893 150:0.00096379465 151:0.00096379465 152:0.00096379465 154:0.0019275893 155:0.0019275893 246:0.00096379465 
1 1:0.15093145 2:0.1569005 4:0.34194073 6:0.1662804 8:0.31465369 10:0.0025581601 12:0.069070324 14:0.37775499 16:0.43829811 18:0.0017054401 20:0.046899602 22:0.057984963 24:0.077597529 26:0.011938081 28:0.0042636003 30:0.052015923 32:0.48178682 40:0.0017054401 44:0.011938081 48:0.30697921 52:0.0034108802 54:0.043488722 56:0.0025581601 60:0.01108536 62:0.075892083 64:0.077597529 75:0.00085272006 76:0.0025581601 77:0.0042636003 78:0.0042636003 79:0.00085272006 80:0.0042636003 81:0.0034108802 82:0.0068217604 83:0.0068217604 84:0.0025581601 85:0.00085272006 86:0.0042636003 87:0.0025581601 88:0.043488722 89:0.0017054401 90:0.0042636003 91:0.0034108802 92:0.0034108802 93:0.00085272006 94:0.0017054401 95:0.00085272006 96:0.079302967 97:0.00085272006 98:0.0025581601 100:0.0017054401 101:0.00085272006 102:0.00085272006 103:0.0017054401 104:0.0017054401 105:0.0017054401 106:0.0017054401 107:0.0017054401 109:0.00085272006 110:0.0017054401 112:0.0042636003 113:0.0017054401 114:0.00085272006 116:0.00085272006 117:0.0017054401 118:0.0042636003 119:0.00085272006 120:0.018759841 121:0.0051163202 122:0.0017054401 123:0.0093799205 124:0.0034108802 125:0.0025581601 126:0.0034108802 127:0.0034108802 128:0.072481208 129:0.0017054401 130:0.00085272006 131:0.0025581601 132:0.0017054401 133:0.00085272006 134:0.0017054401 135:0.0017054401 136:0.0017054401 137:0.00085272006 138:0.0051163202 139:0.00085272006 140:0.0017054401 141:0.0025581601 143:0.0068217604 144:0.0034108802 145:0.0042636003 146:0.0025581601 147:0.00085272006 148:0.0034108802 149:0.0025581601 150:0.0042636003 151:0.0025581601 152:0.0025581601 153:0.0017054401 154:0.0042636003 155:0.0025581601 156:0.0034108802 157:0.0025581601 158:0.0025581601 159:0.0051163202 160:0.0051163202 161:0.00085272006 162:0.0025581601 163:0.0085272007 164:0.0034108802 165:0.0025581601 166:0.0017054401 169:0.00085272006 171:0.00085272006 174:0.00085272006 177:0.00085272006 179:0.00085272006 180:0.00085272006 182:0.0017054401 184:0.00085272006 189:0.00085272006 192:0.00085272006 193:0.00085272006 
1 1:0.21657901 2:0.3105835 3:0.0082945153 4:0.24330577 5:0.004608064 6:0.12441772 7:0.0064512896 8:0.3824693 9:0.0027648383 10:0.021197094 11:0.00092161278 12:0.072807409 14:0.2663461 16:0.36956674 18:0.0064512896 20:0.034099672 21:0.00092161278 22:0.029491609 23:0.00092161278 24:0.070964187 25:0.00092161278 26:0.012902579 28:0.020275481 30:0.064512894 32:0.45711994 34:0.0018432256 38:0.00092161278 39:0.00092161278 40:0.012902579 42:0.00092161278 44:0.025805159 47:0.00092161278 48:0.29215124 51:0.00092161278 52:0.011980966 54:0.024883546 55:0.00092161278 56:0.0073729022 60:0.021197094 62:0.069120958 63:0.00092161278 64:0.1870874 66:0.00092161278 67:0.00092161278 73:0.00092161278 74:0.00092161278 77:0.00092161278 79:0.00092161278 81:0.00092161278 82:0.00092161278 83:0.00092161278 86:0.00092161278 87:0.00092161278 88:0.021197094 89:0.00092161278 90:0.00092161278 91:0.0018432256 92:0.0055296766 96:0.10782869 100:0.00092161278 101:0.00092161278 104:0.0018432256 105:0.00092161278 106:0.00092161278 108:0.00092161278 110:0.00092161278 111:0.00092161278 112:0.030413222 114:0.0018432256 116:0.00092161278 117:0.00092161278 118:0.00092161278 120:0.0036864511 122:0.0018432256 123:0.0036864511 124:0.0027648383 125:0.00092161278 126:0.0027648383 127:0.0018432256 128:0.24422738 129:0.00092161278 130:0.0018432256 132:0.0018432256 137:0.00092161278 140:0.0018432256 145:0.0027648383 147:0.00092161278 150:0.00092161278 152:0.00092161278 155:0.00092161278 156:0.0018432256 158:0.00092161278 160:0.00092161278 162:0.00092161278 163:0.00092161278 167:0.00092161278 168:0.00092161278 171:0.00092161278 172:0.00092161278 173:0.0018432256 177:0.00092161278 178:0.0018432256 184:0.00092161278 187:0.00092161278 189:0.00092161278 190:0.00092161278 191:0.0018432256 192:0.00092161278 201:0.00092161278 204:0.00092161278 206:0.00092161278 207:0.00092161278 209:0.00092161278 214:0.00092161278 218:0.00092161278 219:0.00092161278 221:0.00092161278 226:0.00092161278 228:0.0018432256 229:0.00092161278 232:0.00092161278 234:0.00092161278 236:0.00092161278 239:0.0018432256 241:0.0018432256 242:0.00092161278 244:0.00092161278 246:0.0036864511 247:0.0036864511 248:0.0082945153 249:0.011059353 250:0.013824192 251:0.0092161279 252:0.021197094 253:0.020275481 254:0.004608064 255:0.0018432256 
1 1:0.14988595 2:0.17545472 4:0.34650105 6:0.16222949 8:0.32005057 10:0.0070534563 12:0.084641472 14:0.36854309 16:0.42761579 18:0.0017633641 20:0.047610831 22:0.047610831 24:0.099630073 26:0.0070534563 28:0.0044084103 30:0.051137559 32:0.44348606 40:0.005290092 44:0.016751958 46:0.00088168203 48:0.33768421 52:0.0035267281 54:0.040557373 56:0.005290092 60:0.017633641 62:0.13137062 63:0.002645046 64:0.084641472 65:0.002645046 66:0.00088168203 67:0.0017633641 68:0.0017633641 70:0.0017633641 71:0.00088168203 72:0.00088168203 73:0.00088168203 74:0.00088168203 75:0.0017633641 76:0.002645046 77:0.00088168203 79:0.0035267281 80:0.005290092 81:0.0017633641 82:0.0035267281 83:0.0035267281 84:0.002645046 85:0.0035267281 86:0.0017633641 87:0.0061717741 88:0.047610831 89:0.00088168203 90:0.0035267281 91:0.0017633641 92:0.0061717741 94:0.0017633641 95:0.0017633641 96:0.093458295 97:0.0017633641 100:0.002645046 101:0.00088168203 103:0.002645046 104:0.0035267281 105:0.0017633641 106:0.00088168203 107:0.0017633641 109:0.0017633641 110:0.0017633641 112:0.010580184 113:0.00088168203 114:0.0017633641 115:0.00088168203 117:0.0035267281 118:0.002645046 119:0.00088168203 120:0.018515322 121:0.00088168203 122:0.0044084103 123:0.0044084103 124:0.002645046 125:0.0035267281 126:0.0044084103 127:0.0017633641 128:0.072297923 129:0.0044084103 130:0.00088168203 131:0.002645046 132:0.002645046 133:0.00088168203 134:0.00088168203 135:0.0017633641 136:0.002645046 137:0.00088168203 138:0.0017633641 139:0.0017633641 140:0.00088168203 141:0.0017633641 142:0.0044084103 143:0.002645046 144:0.0061717741 145:0.0044084103 147:0.0035267281 148:0.002645046 149:0.00088168203 150:0.0035267281 151:0.0017633641 152:0.0035267281 153:0.0017633641 154:0.002645046 155:0.00088168203 156:0.0035267281 158:0.005290092 159:0.0070534563 160:0.00088168203 161:0.0035267281 162:0.0044084103 163:0.0035267281 164:0.0061717741 165:0.002645046 166:0.00088168203 167:0.00088168203 168:0.00088168203 169:0.00088168203 170:0.00088168203 171:0.0017633641 174:0.00088168203 178:0.00088168203 180:0.00088168203 186:0.0017633641 191:0.00088168203 192:0.00088168203 194:0.00088168203 195:0.00088168203 196:0.00088168203 
1 1:0.47870198 2:0.27735105 4:0.25366271 6:0.37013039 8:0.17272751 10:0.0098701436 12:0.16581842 14:0.21615615 16:0.32374072 18:0.0049350718 20:0.10561054 22:0.10067546 24:0.1510132 26:0.0029610433 28:0.011844173 30:0.035532519 32:0.28919521 40:0.0049350718 44:0.028623417 46:0.00098701438 48:0.21911719 52:0.0078961151 54:0.18161064 56:0.0078961151 60:0.013818202 62:0.14213008 64:0.08093518 79:0.00098701438 80:0.00098701438 81:0.00098701438 82:0.00098701438 84:0.0029610433 86:0.0049350718 87:0.0019740288 88:0.11153263 89:0.00098701438 90:0.00098701438 91:0.0039480575 92:0.0088831298 93:0.0019740288 94:0.0019740288 96:0.14311709 97:0.0019740288 98:0.0029610433 99:0.00098701438 100:0.0019740288 101:0.00098701438 102:0.0029610433 103:0.0049350718 104:0.0019740288 105:0.0098701436 106:0.0098701436 107:0.010857158 108:0.0039480575 109:0.0059220865 110:0.0078961151 111:0.0069091008 112:0.019740287 113:0.0049350718 114:0.0019740288 115:0.00098701438 116:0.0029610433 117:0.00098701438 118:0.0049350718 119:0.0039480575 120:0.0069091008 121:0.010857158 122:0.0029610433 123:0.0069091008 124:0.0049350718 125:0.0078961151 126:0.0049350718 127:0.0019740288 128:0.10166248 129:0.0029610433 130:0.0029610433 131:0.0049350718 132:0.0078961151 133:0.0029610433 134:0.0088831298 135:0.012831187 136:0.0059220865 137:0.0078961151 138:0.010857158 139:0.0088831298 140:0.0059220865 141:0.0049350718 142:0.0039480575 143:0.0039480575 144:0.0059220865 145:0.00098701438 146:0.0019740288 147:0.0039480575 148:0.0039480575 
1 1:0.36221296 2:0.48732272 3:0.023205843 4:0.28452381 5:0.026232693 6:0.24921058 7:0.007062648 8:0.15739615 9:0.0010089497 10:0.034304291 11:0.0010089497 12:0.14528877 14:0.10493077 15:0.0010089497 16:0.21995103 18:0.0090805478 20:0.095850222 22:0.065581731 24:0.12309186 26:0.03026849 28:0.013116347 30:0.057510134 32:0.26232693 38:0.0010089497 40:0.020178994 44:0.046411686 48:0.21490629 50:0.0010089497 52:0.016143195 54:0.088787571 55:0.0010089497 56:0.025223743 57:0.0010089497 60:0.037331138 62:0.12208291 64:0.15739615 66:0.0010089497 67:0.0010089497 69:0.0010089497 70:0.0010089497 72:0.0010089497 73:0.0030268491 74:0.0020178994 78:0.0010089497 79:0.0020178994 80:0.0010089497 82:0.0010089497 83:0.0010089497 84:0.0020178994 86:0.0010089497 87:0.0030268491 88:0.069617532 89:0.0040357988 90:0.0020178994 91:0.0020178994 92:0.018161096 93:0.0030268491 94:0.0010089497 95:0.0010089497 96:0.24618372 97:0.0010089497 98:0.0010089497 100:0.0010089497 101:0.0050447485 102:0.0010089497 104:0.0020178994 106:0.0020178994 107:0.0020178994 108:0.0020178994 109:0.0010089497 111:0.0020178994 112:0.029259542 114:0.0030268491 116:0.0010089497 117:0.0010089497 120:0.0080715977 122:0.0010089497 124:0.0010089497 125:0.0010089497 126:0.0020178994 127:0.0020178994 128:0.33598027 129:0.0050447485 130:0.0060536982 131:0.0030268491 132:0.0020178994 133:0.0050447485 134:0.0080715977 135:0.0060536982 136:0.0050447485 137:0.0010089497 138:0.0010089497 139:0.0030268491 140:0.0020178994 142:0.0010089497 143:0.0010089497 144:0.0010089497 146:0.0010089497 150:0.0010089497 151:0.0010089497 153:0.0010089497 154:0.0010089497 155:0.0010089497 156:0.0010089497 157:0.0010089497 159:0.0010089497 162:0.0010089497 168:0.0010089497 173:0.0010089497 243:0.0010089497 
1 1:0.35645837 2:0.5230087 3:0.0060933055 4:0.25388774 5:0.014217713 6:0.23662336 7:0.0030466528 8:0.15639484 9:0.0010155509 10:0.027419874 11:0.0020311018 12:0.11577281 13:0.0010155509 14:0.21631235 15:0.0030466528 16:0.23154561 17:0.0010155509 18:0.0071088565 20:0.088352934 21:0.0010155509 22:0.07819742 24:0.1096795 26:0.036559835 27:0.0010155509 28:0.017264366 29:0.0030466528 30:0.053824198 32:0.23154561 34:0.0010155509 36:0.0010155509 38:0.0071088565 40:0.022342119 42:0.0010155509 44:0.044684239 46:0.0010155509 48:0.22037455 51:0.0020311018 52:0.023357671 54:0.07819742 55:0.0010155509 56:0.017264366 58:0.0010155509 60:0.04265314 61:0.0010155509 62:0.13202162 64:0.14319268 65:0.0010155509 67:0.0010155509 70:0.0010155509 71:0.0010155509 72:0.0010155509 76:0.0010155509 80:0.0010155509 81:0.0010155509 83:0.0010155509 86:0.0010155509 87:0.0010155509 88:0.10053954 91:0.0010155509 92:0.010155509 93:0.0010155509 95:0.0010155509 96:0.18483026 99:0.0010155509 100:0.0010155509 104:0.0020311018 107:0.0010155509 112:0.040622037 116:0.0020311018 117:0.0020311018 118:0.0010155509 119:0.0020311018 120:0.0040622037 121:0.0030466528 122:0.0020311018 123:0.0020311018 124:0.0020311018 126:0.0050777546 127:0.0010155509 128:0.33310071 129:0.0050777546 130:0.0050777546 131:0.0091399588 132:0.0060933055 133:0.0081244074 134:0.0071088565 135:0.0030466528 136:0.0060933055 138:0.0060933055 139:0.0060933055 140:0.0050777546 141:0.0040622037 142:0.0040622037 143:0.0050777546 144:0.0050777546 145:0.0010155509 146:0.0020311018 148:0.0010155509 150:0.0010155509 151:0.0010155509 154:0.0010155509 157:0.0010155509 161:0.0010155509 162:0.0010155509 164:0.0010155509 167:0.0010155509 171:0.0020311018 176:0.0020311018 177:0.0010155509 178:0.0010155509 181:0.0020311018 186:0.0010155509 187:0.0010155509 189:0.0010155509 190:0.0010155509 191:0.0010155509 194:0.0010155509 195:0.0010155509 197:0.0010155509 200:0.0020311018 201:0.0010155509 203:0.0010155509 205:0.0020311018 209:0.0020311018 216:0.0020311018 218:0.0010155509 219:0.0010155509 225:0.0010155509 228:0.0020311018 229:0.0010155509 231:0.0010155509 233:0.0010155509 235:0.0010155509 238:0.0010155509 239:0.0010155509 241:0.0010155509 243:0.0020311018 
1 1:0.46624899 2:0.24569967 4:0.28149056 6:0.40820971 8:0.1480002 10:0.0087058945 12:0.12671913 14:0.21958199 16:0.35210505 18:0.00096732157 20:0.088026263 22:0.11511127 24:0.15380412 26:0.0077385725 28:0.0087058945 30:0.038692862 32:0.28439254 38:0.00096732157 40:0.013542502 44:0.021281075 48:0.19830093 52:0.0029019648 54:0.16734663 56:0.0058039296 60:0.010640537 62:0.16057537 64:0.07448376 76:0.0019346431 80:0.0019346431 82:0.00096732157 84:0.0019346431 85:0.0029019648 87:0.0019346431 88:0.10834002 89:0.0019346431 90:0.0019346431 91:0.0038692863 92:0.0067712511 94:0.0019346431 95:0.0029019648 96:0.13252306 97:0.0019346431 98:0.00096732157 99:0.0019346431 100:0.00096732157 101:0.0019346431 102:0.00096732157 103:0.0087058945 104:0.0029019648 105:0.011607859 106:0.0077385725 107:0.00096732157 108:0.0067712511 109:0.0096732154 110:0.0067712511 111:0.0067712511 112:0.016444467 113:0.0096732154 114:0.0048366077 115:0.0029019648 116:0.00096732157 117:0.0029019648 118:0.0029019648 119:0.0048366077 120:0.0067712511 121:0.017411789 122:0.0029019648 123:0.00096732157 124:0.00096732157 125:0.0048366077 126:0.0048366077 127:0.0058039296 128:0.088026263 129:0.0029019648 130:0.0058039296 131:0.0058039296 132:0.0038692863 133:0.0029019648 134:0.0077385725 135:0.019346431 136:0.0048366077 137:0.011607859 138:0.0029019648 139:0.0096732154 140:0.0087058945 141:0.0058039296 142:0.00096732157 143:0.0038692863 144:0.0038692863 145:0.0048366077 147:0.0019346431 150:0.00096732157 151:0.00096732157 153:0.00096732157 
1 1:0.53650808 2:0.24702531 4:0.30106211 6:0.34255463 8:0.16114542 10:0.0028948279 12:0.1495661 14:0.19395347 16:0.30588681 18:0.0019298852 20:0.090704605 22:0.12351266 24:0.18237415 26:0.0067545986 28:0.010614369 30:0.028948279 32:0.26439428 38:0.00096494262 40:0.0067545986 44:0.016404025 48:0.19202358 52:0.0038597705 54:0.15632071 56:0.0019298852 60:0.020263795 62:0.14570634 64:0.079125293 78:0.00096494262 79:0.0019298852 81:0.00096494262 82:0.00096494262 83:0.0019298852 84:0.0019298852 85:0.0019298852 86:0.0028948279 87:0.00096494262 88:0.12158277 89:0.0028948279 90:0.00096494262 91:0.0038597705 92:0.007719541 94:0.00096494262 96:0.14860116 97:0.0028948279 98:0.00096494262 99:0.00096494262 101:0.00096494262 103:0.0067545986 104:0.010614369 105:0.010614369 106:0.0086844834 107:0.0057896557 108:0.0067545986 109:0.0038597705 110:0.0067545986 111:0.011579311 112:0.021228738 113:0.0038597705 114:0.00096494262 115:0.0057896557 116:0.0019298852 117:0.0019298852 118:0.0019298852 119:0.0048247129 120:0.0019298852 121:0.019298851 122:0.0028948279 123:0.0019298852 124:0.0086844834 125:0.0028948279 126:0.0038597705 127:0.0038597705 128:0.082020126 129:0.0019298852 130:0.0019298852 131:0.0028948279 132:0.0057896557 133:0.0067545986 134:0.007719541 135:0.012544254 136:0.021228738 137:0.0038597705 138:0.0096494257 139:0.0057896557 140:0.0038597705 141:0.0028948279 142:0.0038597705 143:0.010614369 144:0.00096494262 146:0.00096494262 149:0.00096494262 152:0.00096494262 153:0.00096494262 155:0.00096494262 
1 1:0.46063396 2:0.26575035 4:0.26771888 6:0.37106624 8:0.18602525 10:0.0068898238 12:0.185041 14:0.2421281 16:0.29035687 18:0.0029527817 20:0.10039458 22:0.12795387 24:0.15256038 26:0.0049213031 28:0.0059055635 30:0.036417641 32:0.30216801 40:0.0098426063 44:0.020669471 48:0.20767899 52:0.0029527817 54:0.22637993 56:0.00098426058 60:0.019685213 62:0.13779648 64:0.058071375 85:0.0019685212 86:0.00098426058 88:0.11417422 89:0.00098426058 90:0.0019685212 91:0.0029527817 92:0.0059055635 93:0.0019685212 94:0.0019685212 95:0.00098426058 96:0.12204831 97:0.0019685212 98:0.0039370423 99:0.0019685212 100:0.0049213031 101:0.0049213031 102:0.0049213031 103:0.0098426063 104:0.0078740846 105:0.010826866 106:0.0059055635 107:0.0068898238 108:0.0068898238 109:0.0039370423 110:0.0068898238 111:0.0078740846 112:0.017716691 113:0.0049213031 114:0.0019685212 115:0.0029527817 116:0.0019685212 117:0.0019685212 118:0.00098426058 119:0.0019685212 120:0.0059055635 121:0.0059055635 122:0.0088583454 123:0.012795388 124:0.0019685212 125:0.00098426058 126:0.011811127 127:0.0019685212 128:0.071851023 129:0.0019685212 130:0.00098426058 131:0.0049213031 132:0.0049213031 133:0.0098426063 134:0.011811127 135:0.011811127 136:0.025590776 137:0.010826866 138:0.0029527817 139:0.0029527817 140:0.0059055635 141:0.0039370423 142:0.0019685212 143:0.0039370423 144:0.0029527817 145:0.0029527817 146:0.00098426058 147:0.00098426058 150:0.00098426058 154:0.00098426058 155:0.00098426058 157:0.00098426058 
1 1:0.4619948 2:0.24470064 4:0.25448868 6:0.38466939 8:0.17324805 10:0.0068516182 12:0.15367201 14:0.23589142 16:0.33083525 18:0.0029364077 20:0.098859057 22:0.12039272 24:0.15367201 26:0.0097880252 28:0.0039152103 30:0.027406473 32:0.26623431 40:0.0097880252 44:0.022512458 48:0.21827297 52:0.0029364077 54:0.25448868 56:0.0088092228 60:0.011745631 62:0.14094757 64:0.050897732 87:0.00097880256 88:0.12332913 89:0.0029364077 90:0.0019576051 91:0.0048940126 92:0.0078304205 94:0.0029364077 95:0.0039152103 96:0.1145199 97:0.00097880256 98:0.0019576051 99:0.0029364077 100:0.0029364077 101:0.0029364077 102:0.0039152103 103:0.0097880252 104:0.0068516182 105:0.0078304205 106:0.0029364077 107:0.0097880252 108:0.0078304205 109:0.0068516182 110:0.0078304205 111:0.0058728154 112:0.032300483 113:0.0019576051 114:0.0039152103 115:0.0039152103 116:0.00097880256 117:0.0019576051 118:0.0039152103 119:0.0019576051 120:0.0078304205 121:0.0048940126 122:0.0078304205 123:0.0088092228 124:0.0068516182 125:0.0029364077 126:0.0039152103 127:0.00097880256 128:0.092007443 129:0.0048940126 130:0.0048940126 131:0.0058728154 132:0.0048940126 133:0.0058728154 134:0.0039152103 135:0.0019576051 136:0.0078304205 137:0.0078304205 138:0.016639644 139:0.014682039 140:0.0088092228 141:0.0058728154 142:0.0058728154 143:0.0039152103 144:0.0048940126 145:0.0039152103 147:0.00097880256 149:0.00097880256 151:0.00097880256 
1 1:0.40636399 2:0.39085391 3:0.047564235 4:0.33708566 5:0.038258187 6:0.2616033 7:0.0020680102 8:0.19025694 9:0.0010340051 10:0.017578086 12:0.13338666 14:0.2233451 16:0.26987532 18:0.012408061 20:0.075482368 22:0.080652393 24:0.13235265 26:0.029986147 28:0.021714106 30:0.051700253 32:0.25436524 38:0.0031020152 40:0.031020153 44:0.033088163 48:0.24505921 52:0.014476071 54:0.09202645 56:0.015510077 60:0.038258187 62:0.13545467 64:0.16647482 88:0.073414363 92:0.0051700254 96:0.17888288 99:0.0020680102 100:0.0020680102 101:0.0010340051 102:0.0031020152 103:0.0031020152 104:0.0041360203 105:0.0031020152 106:0.0041360203 107:0.0010340051 108:0.0010340051 109:0.0010340051 110:0.0072380356 111:0.0010340051 112:0.062040307 113:0.0041360203 114:0.0010340051 117:0.0020680102 118:0.0020680102 119:0.0020680102 120:0.011374056 121:0.0020680102 122:0.0041360203 123:0.0010340051 124:0.0010340051 125:0.0031020152 126:0.0010340051 127:0.0041360203 128:0.24505921 129:0.0031020152 130:0.0020680102 131:0.0082720406 132:0.0041360203 133:0.0062040305 134:0.0082720406 135:0.0031020152 136:0.010340051 137:0.0072380356 138:0.0020680102 139:0.0062040305 140:0.0020680102 141:0.0041360203 142:0.0010340051 143:0.0010340051 144:0.0010340051 150:0.0010340051 240:0.0010340051 243:0.0010340051 248:0.0010340051 250:0.0010340051 254:0.0010340051 
1 1:0.38251701 2:0.26003125 4:0.27509099 6:0.31926617 8:0.21786402 10:0.009035835 12:0.164653 14:0.25099543 16:0.36946526 18:0.0030119452 20:0.092366315 22:0.11244595 24:0.16967291 26:0.0040159267 28:0.0060238903 30:0.031123431 32:0.32729802 38:0.0020079634 40:0.0010039817 44:0.025099542 48:0.18473263 52:0.0030119452 54:0.23091578 56:0.0050199083 60:0.010039817 62:0.15963309 64:0.078310572 84:0.0010039817 87:0.0010039817 88:0.14457336 89:0.0020079634 90:0.0040159267 91:0.0060238903 92:0.0050199083 93:0.0010039817 94:0.0010039817 95:0.0040159267 96:0.1586291 97:0.0020079634 98:0.0010039817 99:0.0020079634 100:0.0040159267 101:0.0050199083 102:0.0070278719 103:0.009035835 104:0.0070278719 105:0.010039817 106:0.0080318535 107:0.0050199083 108:0.0050199083 109:0.0060238903 110:0.0050199083 111:0.0030119452 112:0.026103524 113:0.0030119452 114:0.0020079634 115:0.0030119452 116:0.0010039817 117:0.0040159267 118:0.0020079634 119:0.0080318535 120:0.014055744 121:0.009035835 122:0.0070278719 123:0.0040159267 124:0.0020079634 125:0.0040159267 126:0.0040159267 127:0.0030119452 128:0.086342424 129:0.0040159267 130:0.0010039817 131:0.010039817 132:0.0050199083 133:0.0070278719 134:0.0060238903 135:0.0030119452 136:0.0040159267 137:0.0080318535 138:0.0080318535 139:0.0040159267 140:0.010039817 141:0.011043798 142:0.019075653 143:0.0050199083 144:0.0010039817 145:0.0030119452 147:0.0010039817 149:0.0020079634 151:0.0010039817 152:0.0010039817 
1 1:0.32856002 2:0.48829073 3:0.029317664 4:0.25273848 5:0.022240985 6:0.21432222 7:0.0040438157 8:0.19005933 9:0.0020219078 10:0.014153355 12:0.12839115 14:0.2325194 16:0.25172752 18:0.0070766774 20:0.096040621 22:0.067733914 24:0.12232542 26:0.034372434 28:0.017186217 30:0.055602465 32:0.2476837 40:0.024262894 44:0.035383388 48:0.31946144 52:0.0070766774 54:0.086942039 56:0.018197171 60:0.045492925 62:0.12636924 64:0.15669785 88:0.079865359 92:0.0060657235 96:0.20219079 97:0.0030328617 98:0.0010109539 100:0.0020219078 102:0.0010109539 103:0.0040438157 104:0.0010109539 105:0.0030328617 107:0.0030328617 108:0.0080876313 109:0.0020219078 110:0.0040438157 111:0.0030328617 112:0.060657233 113:0.0050547696 114:0.0010109539 116:0.0020219078 117:0.0020219078 120:0.0030328617 121:0.0010109539 122:0.0010109539 123:0.0070766774 124:0.0010109539 127:0.0010109539 128:0.26689184 129:0.0010109539 130:0.0060657235 131:0.0060657235 132:0.0020219078 133:0.012131447 134:0.0080876313 135:0.0070766774 136:0.0090985857 137:0.0060657235 138:0.0050547696 139:0.0070766774 140:0.0050547696 141:0.0020219078 142:0.0020219078 146:0.0010109539 212:0.0010109539 228:0.0010109539 248:0.0010109539 
1 1:0.47931153 2:0.23674496 4:0.25129896 6:0.29884201 8:0.18338032 10:0.004851331 12:0.17464793 14:0.20472617 16:0.38616598 18:0.0038810649 20:0.08247263 22:0.094115824 24:0.15524259 26:0.0067918636 28:0.004851331 30:0.037840385 32:0.31727707 38:0.00097026624 40:0.0058215973 44:0.020375591 48:0.21345857 52:0.0029107986 54:0.20278564 56:0.004851331 60:0.0077621299 62:0.15621287 64:0.070829436 76:0.00097026624 77:0.00097026624 78:0.00097026624 80:0.0029107986 81:0.004851331 82:0.00097026624 83:0.00097026624 84:0.00097026624 85:0.0019405325 86:0.0019405325 87:0.0019405325 88:0.11934274 89:0.00097026624 90:0.00097026624 91:0.00097026624 92:0.0029107986 93:0.0038810649 95:0.00097026624 96:0.16106419 97:0.0038810649 99:0.0029107986 100:0.0019405325 101:0.0038810649 102:0.0038810649 103:0.009702662 104:0.0067918636 105:0.0029107986 106:0.011643195 107:0.0058215973 108:0.0029107986 109:0.0067918636 110:0.0038810649 111:0.0077621299 112:0.010672929 113:0.0038810649 114:0.0019405325 115:0.0029107986 116:0.0019405325 117:0.0019405325 118:0.0038810649 119:0.0038810649 120:0.011643195 121:0.0058215973 122:0.0067918636 123:0.0038810649 124:0.0067918636 125:0.00097026624 126:0.0067918636 127:0.0029107986 128:0.076651029 129:0.0038810649 130:0.004851331 131:0.0038810649 132:0.004851331 133:0.0038810649 134:0.0058215973 135:0.004851331 136:0.0038810649 137:0.009702662 138:0.011643195 139:0.01552426 140:0.0058215973 141:0.0058215973 142:0.0077621299 143:0.0058215973 144:0.0038810649 145:0.0029107986 146:0.00097026624 
1 1:0.4917407 2:0.20505393 4:0.27405313 6:0.28474313 8:0.19825119 10:0.0058309175 12:0.14771657 14:0.21477212 16:0.40233329 18:0.0029154588 20:0.10495652 22:0.07191465 24:0.17589934 26:0.0068027368 28:0.0038872783 30:0.031098226 32:0.29446134 40:0.011661835 44:0.02332367 46:0.00097181957 48:0.20894121 52:0.0019436391 54:0.19144845 56:0.0038872783 60:0.017492753 62:0.1642375 64:0.060252812 83:0.00097181957 84:0.00097181957 85:0.0058309175 86:0.0038872783 87:0.0019436391 88:0.11078743 89:0.00097181957 90:0.0019436391 92:0.010690015 93:0.00097181957 94:0.0029154588 96:0.13994202 97:0.0019436391 98:0.00097181957 99:0.0029154588 100:0.0029154588 101:0.0048590978 102:0.0048590978 103:0.0048590978 104:0.0038872783 105:0.014577294 106:0.0058309175 107:0.0048590978 108:0.0058309175 109:0.0029154588 110:0.014577294 111:0.0029154588 112:0.018464571 113:0.0029154588 114:0.0038872783 115:0.0019436391 116:0.0029154588 117:0.0029154588 118:0.016520932 119:0.0068027368 120:0.0097181955 121:0.0068027368 122:0.0038872783 123:0.0058309175 124:0.0019436391 125:0.0038872783 126:0.0038872783 127:0.00097181957 128:0.098153777 129:0.00097181957 130:0.0029154588 131:0.0048590978 132:0.0038872783 133:0.0058309175 134:0.0048590978 135:0.0048590978 136:0.0048590978 137:0.0087463763 138:0.0019436391 139:0.0029154588 140:0.016520932 141:0.0077745565 142:0.0087463763 143:0.0058309175 144:0.0068027368 145:0.0048590978 146:0.00097181957 147:0.00097181957 149:0.0019436391 150:0.00097181957 152:0.0019436391 
1 1:0.36617613 2:0.29116431 4:0.30695626 6:0.31485224 8:0.21615247 10:0.0039479905 12:0.14114065 14:0.27241135 16:0.34939715 18:0.002960993 20:0.089816786 22:0.10067376 24:0.15693262 26:0.0088829789 28:0.0088829789 30:0.033557918 32:0.36025414 40:0.0088829789 44:0.014804964 48:0.21911347 52:0.0019739952 54:0.14508864 56:0.0039479905 60:0.004934988 62:0.16285461 64:0.081920803 88:0.11745272 92:0.0069089835 94:0.00098699762 96:0.16285461 97:0.002960993 98:0.0039479905 99:0.004934988 100:0.0019739952 101:0.0069089835 102:0.010856974 103:0.0069089835 104:0.004934988 105:0.002960993 106:0.015791962 107:0.0069089835 108:0.005921986 109:0.0039479905 110:0.0088829789 111:0.0019739952 112:0.013817967 113:0.004934988 114:0.0039479905 115:0.005921986 116:0.005921986 117:0.007895981 118:0.013817967 119:0.004934988 120:0.004934988 121:0.004934988 122:0.00098699762 123:0.00098699762 124:0.0039479905 125:0.004934988 126:0.0039479905 127:0.0019739952 128:0.07501182 129:0.0019739952 130:0.002960993 131:0.00098699762 132:0.0069089835 133:0.0039479905 134:0.005921986 135:0.0069089835 136:0.002960993 137:0.004934988 138:0.013817967 139:0.009869976 140:0.015791962 141:0.004934988 142:0.0069089835 143:0.005921986 144:0.004934988 145:0.002960993 146:0.0019739952 149:0.0019739952 150:0.00098699762 151:0.00098699762 152:0.00098699762 153:0.00098699762 155:0.0019739952 157:0.00098699762 
1 1:0.35282809 2:0.41214409 3:0.035794154 4:0.28839859 5:0.019431112 6:0.19737919 7:0.010226901 8:0.15851696 9:0.0020453802 10:0.025567252 12:0.11249591 13:0.0010226901 14:0.22294644 15:0.0010226901 16:0.29351205 18:0.0071588308 20:0.092042111 22:0.070565619 24:0.11045053 26:0.024544563 28:0.021476492 30:0.055225264 32:0.26999018 38:0.0010226901 40:0.024544563 44:0.034771465 48:0.28737593 52:0.019431112 54:0.085905969 56:0.021476492 60:0.029658012 62:0.11556398 64:0.22396913 73:0.0010226901 74:0.0010226901 75:0.0010226901 76:0.0020453802 77:0.0010226901 78:0.0010226901 79:0.0020453802 80:0.0040907604 81:0.0030680704 82:0.0010226901 83:0.0010226901 84:0.0020453802 88:0.063406788 89:0.0020453802 91:0.0040907604 92:0.0071588308 93:0.0040907604 94:0.0010226901 95:0.0030680704 96:0.19737919 97:0.0010226901 98:0.0010226901 100:0.0030680704 101:0.0040907604 102:0.0081815207 103:0.0030680704 104:0.0020453802 105:0.0030680704 106:0.0020453802 107:0.0010226901 108:0.0020453802 109:0.0010226901 111:0.0020453802 112:0.047043744 113:0.0030680704 114:0.0010226901 116:0.0030680704 119:0.0010226901 120:0.013294972 121:0.0010226901 122:0.0010226901 124:0.0010226901 128:0.31907931 129:0.0020453802 131:0.0010226901 132:0.0020453802 133:0.0061361408 134:0.0040907604 136:0.0010226901 137:0.0030680704 138:0.0030680704 139:0.010226901 140:0.0051134503 141:0.0040907604 142:0.0010226901 144:0.0030680704 146:0.0010226901 148:0.0010226901 149:0.0010226901 150:0.0010226901 216:0.0010226901 231:0.0010226901 246:0.0010226901 250:0.0010226901 251:0.0010226901 
1 1:0.3468236 2:0.2903409 4:0.28934997 6:0.35276914 8:0.20512138 10:0.0069364719 12:0.14467499 14:0.30025014 16:0.37456948 18:0.0029727737 20:0.11395632 22:0.10404707 24:0.1615207 26:0.0059455475 28:0.0059455475 30:0.029727736 32:0.2784498 38:0.00099092454 40:0.01090017 44:0.01981849 48:0.22791265 52:0.0039636982 54:0.17440271 56:0.00099092454 60:0.0099092452 62:0.16746625 64:0.04756438 88:0.12683834 92:0.0029727737 93:0.00099092454 94:0.0029727737 95:0.0039636982 96:0.16746625 97:0.0049546226 98:0.0019818491 100:0.0029727737 101:0.0049546226 102:0.0029727737 103:0.0059455475 104:0.0079273963 105:0.015854793 106:0.0029727737 107:0.0069364719 108:0.0099092452 109:0.0099092452 110:0.0079273963 111:0.0059455475 112:0.011891095 113:0.0029727737 114:0.0069364719 115:0.0069364719 116:0.0059455475 117:0.0089183208 118:0.0089183208 119:0.0049546226 120:0.0039636982 121:0.0089183208 122:0.0039636982 123:0.0039636982 124:0.0029727737 125:0.0029727737 126:0.0029727737 127:0.0029727737 128:0.076301187 129:0.0049546226 130:0.0059455475 131:0.0029727737 132:0.0049546226 133:0.0039636982 134:0.0049546226 135:0.0069364719 136:0.0019818491 137:0.0039636982 138:0.0019818491 139:0.0079273963 140:0.0099092452 141:0.01090017 142:0.01090017 143:0.0039636982 144:0.0029727737 145:0.0019818491 146:0.00099092454 147:0.0029727737 149:0.00099092454 150:0.00099092454 151:0.00099092454 153:0.0019818491 154:0.0029727737 
1 1:0.37559578 2:0.26025534 4:0.29081562 6:0.31841844 8:0.20209222 10:0.0069007096 12:0.17744681 14:0.2770142 16:0.42488655 18:0.0059148939 20:0.099567384 22:0.10449646 24:0.16660285 26:0.010843972 28:0.0069007096 30:0.027602838 32:0.29377306 40:0.002957447 44:0.026617022 48:0.18533334 52:0.002957447 54:0.17350355 56:0.00098581566 60:0.01577305 62:0.17744681 64:0.056191493 88:0.10449646 90:0.00098581566 92:0.0069007096 93:0.0059148939 94:0.0039432626 95:0.0039432626 96:0.13702838 97:0.00098581566 98:0.00098581566 100:0.002957447 101:0.0019716313 102:0.0078865252 103:0.0078865252 104:0.002957447 105:0.013801419 106:0.0019716313 107:0.0088723414 108:0.012815604 109:0.0059148939 110:0.0059148939 111:0.010843972 112:0.014787234 113:0.002957447 114:0.0039432626 115:0.0019716313 116:0.0019716313 117:0.0088723414 118:0.0088723414 119:0.0078865252 120:0.0049290783 121:0.0049290783 122:0.0039432626 123:0.0098581566 124:0.0059148939 125:0.002957447 126:0.0019716313 127:0.0019716313 128:0.08773759 129:0.0069007096 130:0.0039432626 131:0.0059148939 132:0.002957447 133:0.0039432626 134:0.0039432626 135:0.0078865252 136:0.0039432626 137:0.0049290783 138:0.0049290783 139:0.016758867 140:0.0039432626 141:0.0039432626 142:0.0078865252 143:0.0039432626 144:0.002957447 145:0.00098581566 146:0.002957447 147:0.00098581566 148:0.0019716313 149:0.002957447 150:0.00098581566 151:0.00098581566 152:0.00098581566 153:0.0019716313 154:0.0019716313 155:0.00098581566 
1 1:0.39649975 2:0.26367727 4:0.29614496 6:0.33746752 8:0.19874181 10:0.0039354814 12:0.12298379 14:0.25875789 16:0.40338683 18:0.0019677407 20:0.10133865 22:0.10920961 24:0.15938699 26:0.004919352 28:0.0059032221 30:0.037387073 32:0.30303207 40:0.009838704 44:0.024596758 48:0.16824183 52:0.0088548334 54:0.2154676 56:0.0059032221 60:0.009838704 62:0.15938699 64:0.075758018 88:0.11609671 90:0.00098387036 92:0.0088548334 93:0.0039354814 94:0.0019677407 95:0.0019677407 96:0.13774185 98:0.00098387036 99:0.00098387036 100:0.0039354814 101:0.0078709628 102:0.004919352 103:0.0039354814 104:0.0059032221 105:0.0088548334 106:0.0078709628 107:0.0088548334 108:0.009838704 109:0.004919352 110:0.0039354814 111:0.011806444 112:0.026564499 113:0.0039354814 114:0.00098387036 115:0.0029516111 116:0.0029516111 117:0.0088548334 118:0.0078709628 119:0.0029516111 120:0.0078709628 121:0.0068870923 122:0.009838704 123:0.004919352 124:0.0059032221 125:0.0029516111 126:0.004919352 127:0.0029516111 128:0.067887053 129:0.0059032221 130:0.0039354814 131:0.0059032221 132:0.0068870923 133:0.0019677407 134:0.0068870923 135:0.0039354814 136:0.0068870923 137:0.0039354814 138:0.0068870923 139:0.0068870923 140:0.011806444 141:0.0059032221 142:0.0068870923 143:0.0078709628 144:0.0029516111 145:0.00098387036 146:0.00098387036 147:0.0039354814 148:0.00098387036 149:0.00098387036 150:0.00098387036 151:0.0019677407 153:0.0019677407 
1 1:0.46708629 2:0.22723116 4:0.25053692 6:0.32919386 8:0.18547501 10:0.0019421467 12:0.13012382 14:0.25636336 16:0.36706573 20:0.11361558 22:0.11070236 24:0.11944202 26:0.0038842934 28:0.0067975135 30:0.03204542 32:0.31074348 38:0.00097107334 40:0.0058264402 44:0.025247907 48:0.21169399 52:0.0019421467 54:0.24082619 56:0.0029132201 60:0.013595027 62:0.13497919 64:0.072830498 88:0.11944202 89:0.0029132201 90:0.00097107334 91:0.0048553669 92:0.0038842934 93:0.0029132201 94:0.00097107334 95:0.0019421467 96:0.14468993 97:0.00097107334 98:0.00097107334 99:0.0019421467 100:0.0019421467 101:0.0077685867 102:0.0029132201 103:0.0058264402 104:0.0058264402 105:0.0048553669 106:0.010681807 107:0.0067975135 108:0.0097107338 109:0.0097107338 110:0.0067975135 111:0.0019421467 112:0.012623954 113:0.0019421467 114:0.00097107334 115:0.00097107334 116:0.0038842934 117:0.0048553669 118:0.0058264402 119:0.0048553669 120:0.0087396605 121:0.012623954 122:0.0029132201 123:0.0029132201 124:0.0058264402 125:0.0048553669 126:0.0087396605 127:0.0019421467 128:0.07574372 129:0.0087396605 130:0.0067975135 131:0.0048553669 132:0.0048553669 133:0.0029132201 134:0.0058264402 135:0.0029132201 136:0.0029132201 137:0.0058264402 138:0.012623954 139:0.0058264402 140:0.0077685867 141:0.0067975135 142:0.0067975135 143:0.010681807 144:0.0029132201 145:0.00097107334 146:0.0038842934 147:0.00097107334 148:0.00097107334 149:0.00097107334 150:0.0019421467 152:0.0019421467 
