svm_type c_svc
kernel_type rbf
gamma 0.0044444444444444444
nr_class 3
total_sv 48
rho 0.04345017671585083 -0.058031320571899414 -0.082307815551757812
label 1 0 2
nr_sv 16 16 16
SV
1 1 1:0.34311622 2:0.34311622 3:0.34311622 4:0.34311622 5:0.34311622 6:0.33238256 7:0.25577468 8:0.34311622 9:0.34311622 10:0.54117918 11:0.54117918 12:0.54117918 13:0.29789802 14:0.14478065 15:0.050858017 16:0.040336791 17:0.031516004 18:0.080397218 19:0.063703604 20:0.098101169 21:0.21977469 22:0.4744271 23:0.4744271 24:0.4744271 25:0.4744271 26:0.17053093 27:0.092800736 28:0.122774 29:0.042880703 30:0.075830631 31:0.18674672 32:0.53408277 33:0.53408277 34:0.53408277 35:0.20145208 36:0.21481861 37:0.38822618 38:0.18075901 39:0.24428236 40:0.15045147 41:0.23992068 42:0.41131958 43:0.41131958 44:0.41131958 45:0.41131958 46:0.37188634 47:0.37188634 48:0.20687775 49:0.22668222 50:0.36476743 51:0.28506875 52:0.37188634 53:0.37188634 54:0.37188634 55:0.33681402 56:0.6154967 57:0.6154967 58:0.30652037 59:0.13451302 60:0.064417385 61:0.074779563 62:0.036305979 63:0.075998656 64:0.061152581 65:0.051200345 66:0.045517795 67:0.44292966 68:0.45750368 69:0.45750368 70:0.45750368 71:0.38032371 72:0.15101446 73:0.05008721 74:0.066603735 75:0.038332868 76:0.056596551 77:0.55431831 78:0.55431831 79:0.55431831 80:0.2325245 81:0.11184181 82:0.41776004 83:0.16756667 84:0.081228256 85:0.19849963 86:0.26052094 87:0.39994547 88:0.41776004 89:0.41776004 90:0.41776004 91:0.34097251 92:0.34097251 93:0.34097251 94:0.34097251 95:0.34097251 96:0.26438972 97:0.34097251 98:0.34097251 99:0.34097251 100:0.39521948 101:0.59153175 102:0.59153175 103:0.25838336 104:0.24933732 105:0.085552283 106:0.03336513 107:0.038658101 108:0.071581945 109:0.077620775 110:0.053809971 111:0.18057421 112:0.4866659 113:0.4866659 114:0.4866659 115:0.4866659 116:0.090304039 117:0.054248191 118:0.099265561 119:0.041685782 120:0.084193476 121:0.19634011 122:0.53391141 123:0.53391141 124:0.53391141 125:0.21039264 126:0.20813784 127:0.3834818 128:0.33541116 129:0.20621783 130:0.15253256 131:0.29396573 132:0.3834818 133:0.3834818 134:0.3834818 135:0.3834818 136:0.34597537 137:0.34597537 138:0.34597537 139:0.34597537 140:0.34597537 141:0.24914521 142:0.31628147 143:0.34597537 144:0.34597537 145:0.30201533 146:0.59778178 147:0.59778178 148:0.30256587 149:0.28409946 150:0.11128592 151:0.058554564 152:0.021691861 153:0.074553274 154:0.071458258 155:0.080421768 156:0.26151466 157:0.46826124 158:0.46826124 159:0.46826124 160:0.46826124 161:0.18700235 162:0.089396998 163:0.14426845 164:0.089310996 165:0.11760163 166:0.21535374 167:0.51308876 168:0.51308876 169:0.51308876 170:0.28613064 171:0.19837302 172:0.39351973 173:0.22600089 174:0.21418174 175:0.13222378 176:0.33358338 177:0.39351973 178:0.39351973 179:0.39351973 180:0.39351973 181:0.34243256 182:0.34243256 183:0.33931494 184:0.34243256 185:0.30954528 186:0.29238093 187:0.34243256 188:0.34243256 189:0.34243256 190:0.29515883 191:0.59810978 192:0.59810978 193:0.37666479 194:0.21237868 195:0.081891894 196:0.043267742 197:0.0078462213 198:0.042304393 199:0.093798719 200:0.021902591 201:0.09149377 202:0.47265154 203:0.47265154 204:0.47265154 205:0.47265154 206:0.28801987 207:0.076141812 208:0.088224873 209:0.091210261 210:0.063776225 211:0.064855106 212:0.54923046 213:0.54923046 214:0.54923046 215:0.22173183 216:0.14661567 217:0.41300285 218:0.15929532 219:0.10226135 220:0.096270829 221:0.31944129 222:0.41300285 223:0.41300285 224:0.41300285 225:0.41300285 
1 1 1:0.55560189 2:0.55560189 3:0.34498504 4:0.021463618 5:0.03982684 6:0.0084666656 7:0.014159975 8:0.039092466 9:0.50965786 10:0.37253404 11:0.37253404 12:0.37253404 13:0.37253404 14:0.37253404 15:0.23421904 16:0.17013733 17:0.28897226 18:0.37253404 19:0.30966958 20:0.38713437 21:0.38713437 22:0.38713437 23:0.38713437 24:0.3069855 25:0.30171302 26:0.30324343 27:0.16548467 28:0.047623843 29:0.08051607 30:0.10898159 31:0.39195004 32:0.5829767 33:0.5829767 34:0.31866267 35:0.14446813 36:0.15364452 37:0.33333331 38:0.33333331 39:0.33333331 40:0.33333331 41:0.33333331 42:0.33333331 43:0.33333331 44:0.33333331 45:0.33333331 46:0.56388474 47:0.56388474 48:0.3126542 49:0.047457762 50:0.053869236 51:0.01235259 52:0.0056071514 53:0.090698354 54:0.5027436 55:0.38406557 56:0.38406557 57:0.38406557 58:0.38406557 59:0.38098055 60:0.20529529 61:0.20359723 62:0.183641 63:0.38406557 64:0.36686319 65:0.36686319 66:0.36686319 67:0.36686319 68:0.36686319 69:0.3480624 70:0.17134234 71:0.20484787 72:0.36686319 73:0.098831743 74:0.097619742 75:0.060290974 76:0.51487112 77:0.57091975 78:0.57091975 79:0.2109817 80:0.087890767 81:0.088535994 82:0.36004871 83:0.36004871 84:0.36004871 85:0.29232821 86:0.28655899 87:0.23370412 88:0.36004871 89:0.36004871 90:0.36004871 91:0.5832684 92:0.5832684 93:0.2551901 94:0.051975213 95:0.04045251 96:0.0023788738 97:0.0063180295 98:0.028423041 99:0.49928212 100:0.42494452 101:0.42494452 102:0.42494452 103:0.42494452 104:0.42494452 105:0.12456166 106:0.088050313 107:0.1067605 108:0.24988893 109:0.25672221 110:0.361702 111:0.361702 112:0.361702 113:0.361702 114:0.361702 115:0.28787962 116:0.25738853 117:0.361702 118:0.3353954 119:0.3353954 120:0.3353954 121:0.3353954 122:0.3353954 123:0.3353954 124:0.3353954 125:0.31650588 126:0.33525142 127:0.22375764 128:0.16890354 129:0.13524391 130:0.068906538 131:0.44357014 132:0.44357014 133:0.44357014 134:0.44357014 135:0.33368728 136:0.56639713 137:0.56639713 138:0.17914814 139:0.021083832 140:0.021122744 141:0.0017746839 142:0.0053334893 143:0.067577153 144:0.56639713 145:0.42804608 146:0.42804608 147:0.42804608 148:0.42804608 149:0.42804608 150:0.089218669 151:0.12132697 152:0.079036422 153:0.23442668 154:0.29148725 155:0.37418735 156:0.37418735 157:0.37418735 158:0.37418735 159:0.36101529 160:0.27835289 161:0.20305941 162:0.32546103 163:0.22080009 164:0.23519935 165:0.37220144 166:0.37220144 167:0.37220144 168:0.37220144 169:0.37220144 170:0.37220144 171:0.25441131 172:0.22149518 173:0.068215765 174:0.12414362 175:0.15055728 176:0.37709486 177:0.43760911 178:0.43760911 179:0.43760911 180:0.43760911 181:0.6469276 182:0.6469276 183:0.10168111 184:0.01684886 185:0.032940697 186:0.0069977022 187:0.0043212501 188:0.065668561 189:0.38325104 190:0.42909995 191:0.42909995 192:0.42909995 193:0.42909995 194:0.33206955 195:0.17257836 196:0.13305438 197:0.10479295 198:0.30782214 199:0.36097333 200:0.36097333 201:0.36097333 202:0.36097333 203:0.36097333 204:0.36097333 205:0.34426996 206:0.21879792 207:0.22758552 208:0.33667809 209:0.33908719 210:0.28598449 211:0.33908719 212:0.33908719 213:0.33908719 214:0.33908719 215:0.33908719 216:0.33908719 217:0.13860129 218:0.095553122 219:0.098955534 220:0.01879498 221:0.43852338 222:0.43852338 223:0.43852338 224:0.43852338 225:0.43852338 
1 1 1:0.67733693 2:0.67733693 3:0.067341991 4:0.013162222 5:0.054726578 6:0.00040435581 7:0.009549127 8:0.018178537 9:0.27258831 10:0.41156846 11:0.41156846 12:0.41156846 13:0.41156846 14:0.41156846 15:0.30640987 16:0.15340687 17:0.086178131 18:0.1679575 19:0.17069313 20:0.056610845 21:0.075770691 22:0.42525002 23:0.43084228 24:0.43084228 25:0.43084228 26:0.43084228 27:0.19641811 28:0.028307028 29:0.039212391 30:0.088391468 31:0.25166082 32:0.58871853 33:0.58871853 34:0.48201391 35:0.027937874 36:0.014761493 37:0.34403029 38:0.28830296 39:0.32671824 40:0.31622082 41:0.34403029 42:0.34403029 43:0.34403029 44:0.34403029 45:0.34403029 46:0.65899795 47:0.65899795 48:0.018496096 49:0.00048047319 50:0.043153275 51:0.0066382205 52:0.027434384 53:0.042618494 54:0.35584524 55:0.41594332 56:0.41594332 57:0.41594332 58:0.41594332 59:0.41594332 60:0.3033551 61:0.10468036 62:0.11917157 63:0.13330972 64:0.080373511 65:0.04693871 66:0.036533654 67:0.46221268 68:0.46221268 69:0.46221268 70:0.46221268 71:0.35150304 72:0.10902023 73:0.027671218 74:0.019240493 75:0.035159111 76:0.1970918 77:0.58805895 78:0.58805895 79:0.50654608 80:0.099969804 81:0.023942299 82:0.31388679 83:0.13285679 84:0.27521414 85:0.31351382 86:0.37677324 87:0.37677324 88:0.37677324 89:0.37677324 90:0.37677324 91:0.6471588 92:0.6471588 93:0.074512124 94:0.0057416307 95:0.045707624 96:0.0012386757 97:0.012436617 98:0.029012525 99:0.3920446 100:0.38401607 101:0.38401607 102:0.38401607 103:0.38401607 104:0.38401607 105:0.38401607 106:0.22678757 107:0.135461 108:0.21309063 109:0.067766115 110:0.047642976 111:0.053020254 112:0.24087954 113:0.56925702 114:0.56925702 115:0.48932004 116:0.17527735 117:0.11849234 118:0.028948218 119:0.03959693 120:0.15935878 121:0.17554088 122:0.57232416 123:0.57232416 124:0.5298844 125:0.055849548 126:0.048763014 127:0.38289434 128:0.26208076 129:0.088481843 130:0.20937105 131:0.38289434 132:0.38289434 133:0.38289434 134:0.38289434 135:0.38289434 136:0.65561986 137:0.65561986 138:0.066601701 139:0.0088884681 140:0.077804297 141:0.004631123 142:0.0040270975 143:0.0081612077 144:0.36007318 145:0.39738289 146:0.39738289 147:0.39738289 148:0.39738289 149:0.39738289 150:0.34696552 151:0.18665041 152:0.12501658 153:0.19895129 154:0.1041842 155:0.058038518 156:0.098854266 157:0.45068401 158:0.45068401 159:0.45068401 160:0.45068401 161:0.35388976 162:0.19571103 163:0.033724513 164:0.042301334 165:0.10176072 166:0.27620262 167:0.54983127 168:0.54983127 169:0.54983127 170:0.050980143 171:0.029798955 172:0.34999326 173:0.34999326 174:0.34999326 175:0.28971398 176:0.2420717 177:0.34999326 178:0.34999326 179:0.34999326 180:0.34999326 181:0.64856488 182:0.64856488 183:0.082420483 184:0.020051422 185:0.062415611 186:0.0051848227 187:0.026326813 188:0.037374601 189:0.38146999 190:0.41169238 191:0.41169238 192:0.41169238 193:0.41169238 194:0.41169238 195:0.31073177 196:0.19001035 197:0.063076489 198:0.12613493 199:0.08617074 200:0.11459015 201:0.086199589 202:0.42633963 203:0.42633963 204:0.42633963 205:0.42633963 206:0.42633963 207:0.25136796 208:0.067807615 209:0.081061758 210:0.11083083 211:0.28955686 212:0.62966949 213:0.62966949 214:0.30949417 215:0.050496113 216:0.037427198 217:0.35772589 218:0.14748535 219:0.28718194 220:0.35772589 221:0.35772589 222:0.35772589 223:0.35772589 224:0.35772589 225:0.35772589 
1 1 1:0.6469276 2:0.6469276 3:0.10168111 4:0.01684886 5:0.032940697 6:0.0069977022 7:0.0043212501 8:0.065668561 9:0.38325104 10:0.42909995 11:0.42909995 12:0.42909995 13:0.42909995 14:0.33206955 15:0.17257836 16:0.13305438 17:0.10479295 18:0.30782214 19:0.36097333 20:0.36097333 21:0.36097333 22:0.36097333 23:0.36097333 24:0.36097333 25:0.34426996 26:0.21879792 27:0.22758552 28:0.33667809 29:0.33908719 30:0.28598449 31:0.33908719 32:0.33908719 33:0.33908719 34:0.33908719 35:0.33908719 36:0.33908719 37:0.13860129 38:0.095553122 39:0.098955534 40:0.01879498 41:0.43852338 42:0.43852338 43:0.43852338 44:0.43852338 45:0.43852338 46:0.56639713 47:0.56639713 48:0.17914814 49:0.021083832 50:0.021122744 51:0.0017746839 52:0.0053334893 53:0.067577153 54:0.56639713 55:0.42804608 56:0.42804608 57:0.42804608 58:0.42804608 59:0.42804608 60:0.089218669 61:0.12132697 62:0.079036422 63:0.23442668 64:0.29148725 65:0.37418735 66:0.37418735 67:0.37418735 68:0.37418735 69:0.36101529 70:0.27835289 71:0.20305941 72:0.32546103 73:0.22080009 74:0.23519935 75:0.37220144 76:0.37220144 77:0.37220144 78:0.37220144 79:0.37220144 80:0.37220144 81:0.25441131 82:0.22149518 83:0.068215765 84:0.12414362 85:0.15055728 86:0.37709486 87:0.43760911 88:0.43760911 89:0.43760911 90:0.43760911 91:0.5832684 92:0.5832684 93:0.2551901 94:0.051975213 95:0.04045251 96:0.0023788738 97:0.0063180295 98:0.028423041 99:0.49928212 100:0.42494452 101:0.42494452 102:0.42494452 103:0.42494452 104:0.42494452 105:0.12456166 106:0.088050313 107:0.1067605 108:0.24988893 109:0.25672221 110:0.361702 111:0.361702 112:0.361702 113:0.361702 114:0.361702 115:0.28787962 116:0.25738853 117:0.361702 118:0.3353954 119:0.3353954 120:0.3353954 121:0.3353954 122:0.3353954 123:0.3353954 124:0.3353954 125:0.31650588 126:0.33525142 127:0.22375764 128:0.16890354 129:0.13524391 130:0.068906538 131:0.44357014 132:0.44357014 133:0.44357014 134:0.44357014 135:0.33368728 136:0.56388474 137:0.56388474 138:0.3126542 139:0.047457762 140:0.053869236 141:0.01235259 142:0.0056071514 143:0.090698354 144:0.5027436 145:0.38406557 146:0.38406557 147:0.38406557 148:0.38406557 149:0.38098055 150:0.20529529 151:0.20359723 152:0.183641 153:0.38406557 154:0.36686319 155:0.36686319 156:0.36686319 157:0.36686319 158:0.36686319 159:0.3480624 160:0.17134234 161:0.20484787 162:0.36686319 163:0.098831743 164:0.097619742 165:0.060290974 166:0.51487112 167:0.57091975 168:0.57091975 169:0.2109817 170:0.087890767 171:0.088535994 172:0.36004871 173:0.36004871 174:0.36004871 175:0.29232821 176:0.28655899 177:0.23370412 178:0.36004871 179:0.36004871 180:0.36004871 181:0.55560189 182:0.55560189 183:0.34498504 184:0.021463618 185:0.03982684 186:0.0084666656 187:0.014159975 188:0.039092466 189:0.50965786 190:0.37253404 191:0.37253404 192:0.37253404 193:0.37253404 194:0.37253404 195:0.23421904 196:0.17013733 197:0.28897226 198:0.37253404 199:0.30966958 200:0.38713437 201:0.38713437 202:0.38713437 203:0.38713437 204:0.3069855 205:0.30171302 206:0.30324343 207:0.16548467 208:0.047623843 209:0.08051607 210:0.10898159 211:0.39195004 212:0.5829767 213:0.5829767 214:0.31866267 215:0.14446813 216:0.15364452 217:0.33333331 218:0.33333331 219:0.33333331 220:0.33333331 221:0.33333331 222:0.33333331 223:0.33333331 224:0.33333331 225:0.33333331 
1 1 1:0.56639713 2:0.56639713 3:0.17914814 4:0.021083832 5:0.021122744 6:0.0017746839 7:0.0053334893 8:0.067577153 9:0.56639713 10:0.42804608 11:0.42804608 12:0.42804608 13:0.42804608 14:0.42804608 15:0.089218669 16:0.12132697 17:0.079036422 18:0.23442668 19:0.29148725 20:0.37418735 21:0.37418735 22:0.37418735 23:0.37418735 24:0.36101529 25:0.27835289 26:0.20305941 27:0.32546103 28:0.22080009 29:0.23519935 30:0.37220144 31:0.37220144 32:0.37220144 33:0.37220144 34:0.37220144 35:0.37220144 36:0.25441131 37:0.22149518 38:0.068215765 39:0.12414362 40:0.15055728 41:0.37709486 42:0.43760911 43:0.43760911 44:0.43760911 45:0.43760911 46:0.55560189 47:0.55560189 48:0.34498504 49:0.021463618 50:0.03982684 51:0.0084666656 52:0.014159975 53:0.039092466 54:0.50965786 55:0.37253404 56:0.37253404 57:0.37253404 58:0.37253404 59:0.37253404 60:0.23421904 61:0.17013733 62:0.28897226 63:0.37253404 64:0.30966958 65:0.38713437 66:0.38713437 67:0.38713437 68:0.38713437 69:0.3069855 70:0.30171302 71:0.30324343 72:0.16548467 73:0.047623843 74:0.08051607 75:0.10898159 76:0.39195004 77:0.5829767 78:0.5829767 79:0.31866267 80:0.14446813 81:0.15364452 82:0.33333331 83:0.33333331 84:0.33333331 85:0.33333331 86:0.33333331 87:0.33333331 88:0.33333331 89:0.33333331 90:0.33333331 91:0.5832684 92:0.5832684 93:0.2551901 94:0.051975213 95:0.04045251 96:0.0023788738 97:0.0063180295 98:0.028423041 99:0.49928212 100:0.42494452 101:0.42494452 102:0.42494452 103:0.42494452 104:0.42494452 105:0.12456166 106:0.088050313 107:0.1067605 108:0.24988893 109:0.25672221 110:0.361702 111:0.361702 112:0.361702 113:0.361702 114:0.361702 115:0.28787962 116:0.25738853 117:0.361702 118:0.3353954 119:0.3353954 120:0.3353954 121:0.3353954 122:0.3353954 123:0.3353954 124:0.3353954 125:0.31650588 126:0.33525142 127:0.22375764 128:0.16890354 129:0.13524391 130:0.068906538 131:0.44357014 132:0.44357014 133:0.44357014 134:0.44357014 135:0.33368728 136:0.56388474 137:0.56388474 138:0.3126542 139:0.047457762 140:0.053869236 141:0.01235259 142:0.0056071514 143:0.090698354 144:0.5027436 145:0.38406557 146:0.38406557 147:0.38406557 148:0.38406557 149:0.38098055 150:0.20529529 151:0.20359723 152:0.183641 153:0.38406557 154:0.36686319 155:0.36686319 156:0.36686319 157:0.36686319 158:0.36686319 159:0.3480624 160:0.17134234 161:0.20484787 162:0.36686319 163:0.098831743 164:0.097619742 165:0.060290974 166:0.51487112 167:0.57091975 168:0.57091975 169:0.2109817 170:0.087890767 171:0.088535994 172:0.36004871 173:0.36004871 174:0.36004871 175:0.29232821 176:0.28655899 177:0.23370412 178:0.36004871 179:0.36004871 180:0.36004871 181:0.6469276 182:0.6469276 183:0.10168111 184:0.01684886 185:0.032940697 186:0.0069977022 187:0.0043212501 188:0.065668561 189:0.38325104 190:0.42909995 191:0.42909995 192:0.42909995 193:0.42909995 194:0.33206955 195:0.17257836 196:0.13305438 197:0.10479295 198:0.30782214 199:0.36097333 200:0.36097333 201:0.36097333 202:0.36097333 203:0.36097333 204:0.36097333 205:0.34426996 206:0.21879792 207:0.22758552 208:0.33667809 209:0.33908719 210:0.28598449 211:0.33908719 212:0.33908719 213:0.33908719 214:0.33908719 215:0.33908719 216:0.33908719 217:0.13860129 218:0.095553122 219:0.098955534 220:0.01879498 221:0.43852338 222:0.43852338 223:0.43852338 224:0.43852338 225:0.43852338 
1 1 1:0.37339851 2:0.41124484 3:0.41124484 4:0.41124484 5:0.37820864 6:0.16742815 7:0.099235833 8:0.27218962 9:0.31336495 10:0.14538138 11:0.25385356 12:0.54432827 13:0.54432827 14:0.54432827 15:0.12387455 16:0.054752424 17:0.038435709 18:0.075649366 19:0.086348362 20:0.14211585 21:0.23084266 22:0.51631731 23:0.51631731 24:0.51631731 25:0.31292492 26:0.061447784 27:0.13270359 28:0.082085498 29:0.05036629 30:0.0887639 31:0.50058323 32:0.59451002 33:0.59451002 34:0.14631705 35:0.037466183 36:0.050652925 37:0.22115655 38:0.064064771 39:0.036584567 40:0.1027905 41:0.43245372 42:0.43245372 43:0.43245372 44:0.43245372 45:0.43245372 46:0.42625365 47:0.47093263 48:0.47093263 49:0.47093263 50:0.31514418 51:0.079850852 52:0.12801236 53:0.13163035 54:0.11648855 55:0.17488067 56:0.52454722 57:0.52454722 58:0.52454722 59:0.35189003 60:0.051008988 61:0.031665847 62:0.038440753 63:0.12271325 64:0.061731115 65:0.065080948 66:0.10128962 67:0.55798858 68:0.55798858 69:0.55798858 70:0.19249661 71:0.080394804 72:0.064203843 73:0.041793663 74:0.022408156 75:0.091564044 76:0.54179657 77:0.57528949 78:0.57528949 79:0.17297488 80:0.048419867 81:0.040533949 82:0.16422999 83:0.035074394 84:0.078050382 85:0.13271743 86:0.45342705 87:0.45342705 88:0.45342705 89:0.45342705 90:0.35455343 91:0.40825376 92:0.40825376 93:0.40825376 94:0.40825376 95:0.40825376 96:0.13278988 97:0.10051975 98:0.29030046 99:0.23373628 100:0.138896 101:0.27621993 102:0.53988862 103:0.53988862 104:0.53988862 105:0.12242262 106:0.07906647 107:0.042500887 108:0.083223373 109:0.15552546 110:0.18354049 111:0.11615501 112:0.52013314 113:0.52013314 114:0.52013314 115:0.27036193 116:0.11861609 117:0.17277744 118:0.032940503 119:0.030170782 120:0.058962192 121:0.56900656 122:0.56900656 123:0.56900656 124:0.12478306 125:0.066650644 126:0.056652591 127:0.28516412 128:0.052169736 129:0.094008528 130:0.22215296 131:0.41419083 132:0.41419083 133:0.41419083 134:0.41419083 135:0.41419083 136:0.29518196 137:0.45891279 138:0.45891279 139:0.45891279 140:0.45891279 141:0.10281704 142:0.14580783 143:0.10720772 144:0.1647397 145:0.20355627 146:0.4317027 147:0.56802404 148:0.56802404 149:0.30506575 150:0.06295871 151:0.038321715 152:0.065909058 153:0.1550924 154:0.056443349 155:0.034516633 156:0.067305245 157:0.56118518 158:0.56118518 159:0.56118518 160:0.19284575 161:0.071174182 162:0.063646801 163:0.024427406 164:0.017964723 165:0.040605556 166:0.48579156 167:0.60776156 168:0.60776156 169:0.14308921 170:0.036634915 171:0.029555105 172:0.08694692 173:0.012190425 174:0.058121886 175:0.084393702 176:0.44312328 177:0.44312328 178:0.44312328 179:0.44312328 180:0.44312328 181:0.40963125 182:0.40963125 183:0.40963125 184:0.40963125 185:0.32710359 186:0.2774854 187:0.19150172 188:0.18303943 189:0.27319929 190:0.11526024 191:0.16591844 192:0.63948995 193:0.63948995 194:0.35296449 195:0.035391949 196:0.071705267 197:0.012198892 198:0.10081827 199:0.0412318 200:0.03330557 201:0.027065497 202:0.56710792 203:0.56710792 204:0.56710792 205:0.15465038 206:0.079806782 207:0.036580212 208:0.016047388 209:0.0047804201 210:0.053246129 211:0.51669604 212:0.60303587 213:0.60303587 214:0.047309518 215:0.0021454166 216:0.019037068 217:0.077546962 219:0.023222903 220:0.061070975 221:0.42427152 222:0.46655697 223:0.46655697 224:0.46655697 225:0.39583451 
1 1 1:0.55006224 2:0.42082518 3:0.13845602 4:0.12782454 5:0.14353284 6:0.11322884 7:0.14856984 8:0.35604006 9:0.55006224 10:0.45465988 11:0.45465988 12:0.45465988 13:0.45465988 14:0.25543782 15:0.11476335 16:0.12369753 17:0.098165952 18:0.26416045 19:0.24106094 20:0.36469901 21:0.37857598 22:0.37857598 23:0.37857598 24:0.37857598 25:0.37857598 26:0.21234328 27:0.2172458 28:0.24329141 29:0.2662037 30:0.20494947 31:0.39613459 32:0.39613459 33:0.39613459 34:0.39613459 35:0.39613459 36:0.20815299 37:0.29176211 38:0.12855782 39:0.19976513 40:0.37825072 41:0.37825072 42:0.37825072 43:0.37825072 44:0.37825072 45:0.37825072 46:0.51244706 47:0.33786047 48:0.14946677 49:0.11019282 50:0.30847406 51:0.16440815 52:0.25599357 53:0.37208128 54:0.51244706 55:0.1358473 56:0.14631541 57:0.40126058 58:0.40126058 59:0.40126058 60:0.36837548 61:0.31847081 62:0.40126058 63:0.2810213 64:0.11729733 65:0.15201123 66:0.47680432 67:0.47680432 68:0.47680432 69:0.37672982 70:0.25404689 71:0.16654727 72:0.21657261 73:0.058549505 74:0.087196954 75:0.12136416 76:0.27321017 77:0.63117069 78:0.63117069 79:0.31597266 80:0.046721127 81:0.028656226 82:0.38597983 83:0.37678972 84:0.31607831 85:0.14798822 86:0.25837567 87:0.27118954 88:0.38597983 89:0.38597983 90:0.38597983 91:0.55690563 92:0.42137024 93:0.10304663 94:0.061293423 95:0.14501344 96:0.14393301 97:0.15831721 98:0.34781301 99:0.55690563 100:0.4705852 101:0.4705852 102:0.4705852 103:0.4705852 104:0.181889 105:0.097805843 106:0.1289601 107:0.064922407 108:0.22517341 109:0.28185713 110:0.38692296 111:0.38692296 112:0.38692296 113:0.38692296 114:0.38692296 115:0.27114898 116:0.29275712 117:0.11305432 118:0.19437824 119:0.24055678 120:0.24580742 121:0.41565761 122:0.41565761 123:0.41565761 124:0.41565761 125:0.33522138 126:0.20117147 127:0.37594453 128:0.12647462 129:0.15691623 130:0.33373022 131:0.37594453 132:0.37594453 133:0.37594453 134:0.37594453 135:0.37594453 136:0.62764883 137:0.26644662 138:0.11965853 139:0.036940981 140:0.084994137 141:0.087382644 142:0.21503419 143:0.25364944 144:0.62764883 145:0.46887404 146:0.46887404 147:0.46887404 148:0.45828676 149:0.23690681 150:0.087620929 151:0.038358584 152:0.083144404 153:0.24136701 154:0.25627646 155:0.39438269 156:0.39438269 157:0.39438269 158:0.39438269 159:0.36039779 160:0.27591005 161:0.23593323 162:0.22470902 163:0.18641566 164:0.12583302 165:0.2480921 166:0.45540109 167:0.45540109 168:0.45540109 169:0.40662667 170:0.14244255 171:0.28294864 172:0.35493615 173:0.19020173 174:0.2862961 175:0.35493615 176:0.35493615 177:0.35493615 178:0.35493615 179:0.35493615 180:0.35493615 181:0.46669659 182:0.28480256 183:0.22499235 184:0.19958507 185:0.33648255 186:0.28368989 187:0.16874866 188:0.41309059 189:0.46669659 190:0.29221079 191:0.34130809 192:0.34130809 193:0.34130809 194:0.34130809 195:0.34130809 196:0.31491971 197:0.34130809 198:0.34130809 199:0.13285743 200:0.070436947 201:0.3936854 202:0.3936854 203:0.3936854 204:0.32149118 205:0.36982092 206:0.3936854 207:0.34250632 208:0.026450925 209:0.025541211 210:0.063061118 211:0.50176811 212:0.54556555 213:0.54556555 214:0.37118116 215:0.091868505 216:0.037432246 217:0.38951629 218:0.24267726 219:0.14787138 220:0.094362147 221:0.38951629 222:0.38951629 223:0.38951629 224:0.38951629 225:0.38951629 
1 1 1:0.6469276 2:0.6469276 3:0.10168111 4:0.01684886 5:0.032940697 6:0.0069977022 7:0.0043212501 8:0.065668561 9:0.38325104 10:0.42909995 11:0.42909995 12:0.42909995 13:0.42909995 14:0.33206955 15:0.17257836 16:0.13305438 17:0.10479295 18:0.30782214 19:0.36097333 20:0.36097333 21:0.36097333 22:0.36097333 23:0.36097333 24:0.36097333 25:0.34426996 26:0.21879792 27:0.22758552 28:0.33667809 29:0.33908719 30:0.28598449 31:0.33908719 32:0.33908719 33:0.33908719 34:0.33908719 35:0.33908719 36:0.33908719 37:0.13860129 38:0.095553122 39:0.098955534 40:0.01879498 41:0.43852338 42:0.43852338 43:0.43852338 44:0.43852338 45:0.43852338 46:0.56639713 47:0.56639713 48:0.17914814 49:0.021083832 50:0.021122744 51:0.0017746839 52:0.0053334893 53:0.067577153 54:0.56639713 55:0.42804608 56:0.42804608 57:0.42804608 58:0.42804608 59:0.42804608 60:0.089218669 61:0.12132697 62:0.079036422 63:0.23442668 64:0.29148725 65:0.37418735 66:0.37418735 67:0.37418735 68:0.37418735 69:0.36101529 70:0.27835289 71:0.20305941 72:0.32546103 73:0.22080009 74:0.23519935 75:0.37220144 76:0.37220144 77:0.37220144 78:0.37220144 79:0.37220144 80:0.37220144 81:0.25441131 82:0.22149518 83:0.068215765 84:0.12414362 85:0.15055728 86:0.37709486 87:0.43760911 88:0.43760911 89:0.43760911 90:0.43760911 91:0.5832684 92:0.5832684 93:0.2551901 94:0.051975213 95:0.04045251 96:0.0023788738 97:0.0063180295 98:0.028423041 99:0.49928212 100:0.42494452 101:0.42494452 102:0.42494452 103:0.42494452 104:0.42494452 105:0.12456166 106:0.088050313 107:0.1067605 108:0.24988893 109:0.25672221 110:0.361702 111:0.361702 112:0.361702 113:0.361702 114:0.361702 115:0.28787962 116:0.25738853 117:0.361702 118:0.3353954 119:0.3353954 120:0.3353954 121:0.3353954 122:0.3353954 123:0.3353954 124:0.3353954 125:0.31650588 126:0.33525142 127:0.22375764 128:0.16890354 129:0.13524391 130:0.068906538 131:0.44357014 132:0.44357014 133:0.44357014 134:0.44357014 135:0.33368728 136:0.56388474 137:0.56388474 138:0.3126542 139:0.047457762 140:0.053869236 141:0.01235259 142:0.0056071514 143:0.090698354 144:0.5027436 145:0.38406557 146:0.38406557 147:0.38406557 148:0.38406557 149:0.38098055 150:0.20529529 151:0.20359723 152:0.183641 153:0.38406557 154:0.36686319 155:0.36686319 156:0.36686319 157:0.36686319 158:0.36686319 159:0.3480624 160:0.17134234 161:0.20484787 162:0.36686319 163:0.098831743 164:0.097619742 165:0.060290974 166:0.51487112 167:0.57091975 168:0.57091975 169:0.2109817 170:0.087890767 171:0.088535994 172:0.36004871 173:0.36004871 174:0.36004871 175:0.29232821 176:0.28655899 177:0.23370412 178:0.36004871 179:0.36004871 180:0.36004871 181:0.55560189 182:0.55560189 183:0.34498504 184:0.021463618 185:0.03982684 186:0.0084666656 187:0.014159975 188:0.039092466 189:0.50965786 190:0.37253404 191:0.37253404 192:0.37253404 193:0.37253404 194:0.37253404 195:0.23421904 196:0.17013733 197:0.28897226 198:0.37253404 199:0.30966958 200:0.38713437 201:0.38713437 202:0.38713437 203:0.38713437 204:0.3069855 205:0.30171302 206:0.30324343 207:0.16548467 208:0.047623843 209:0.08051607 210:0.10898159 211:0.39195004 212:0.5829767 213:0.5829767 214:0.31866267 215:0.14446813 216:0.15364452 217:0.33333331 218:0.33333331 219:0.33333331 220:0.33333331 221:0.33333331 222:0.33333331 223:0.33333331 224:0.33333331 225:0.33333331 
1 1 1:0.47718003 2:0.47718003 3:0.2996335 4:0.092783757 5:0.22447936 6:0.23984191 7:0.19197312 8:0.27155042 9:0.47718003 10:0.33377925 11:0.33377925 12:0.33377925 13:0.33377925 14:0.33377925 15:0.33377925 16:0.33377925 17:0.33377925 18:0.32974419 19:0.064494528 20:0.09525007 21:0.49568078 22:0.49568078 23:0.49568078 24:0.49568078 25:0.047472853 26:0.011672406 27:0.03975163 28:0.033785056 29:0.030636095 30:0.14773102 31:0.48253092 32:0.58919466 33:0.58919466 34:0.17607695 35:0.12412409 36:0.050487213 37:0.34454238 38:0.27033749 39:0.29400641 40:0.19779529 41:0.26747388 42:0.39086545 43:0.39086545 44:0.39086545 45:0.39086545 46:0.48731175 47:0.48731175 48:0.22949277 49:0.083435394 50:0.1904251 51:0.10729819 52:0.24067375 53:0.34964961 54:0.48731175 55:0.34704208 56:0.34704208 57:0.34704208 58:0.34704208 59:0.34704208 60:0.34704208 61:0.34704208 62:0.19103514 63:0.34704208 64:0.075154372 65:0.19013061 66:0.48425698 67:0.48425698 68:0.48425698 69:0.47372979 70:0.15790395 71:0.049344856 72:0.053843513 73:0.042907618 74:0.043107726 75:0.14008836 76:0.54778874 77:0.54778874 78:0.54778874 79:0.25783575 80:0.084814914 81:0.052778382 82:0.37535799 83:0.37535799 84:0.37535799 85:0.10999969 86:0.1817885 87:0.3308948 88:0.37535799 89:0.37535799 90:0.37535799 91:0.34767994 92:0.34767994 93:0.34767994 94:0.30755886 95:0.34767994 96:0.24338856 97:0.34767994 98:0.34767994 99:0.34767994 100:0.34097371 101:0.34097371 102:0.34097371 103:0.34097371 104:0.34097371 105:0.34097371 106:0.34097371 107:0.26437736 108:0.34097371 109:0.081905276 110:0.24220599 111:0.47737509 112:0.47737509 113:0.47737509 114:0.47737509 115:0.14482985 116:0.021740993 117:0.040391654 118:0.07749182 119:0.057589691 120:0.10679762 121:0.54155707 122:0.54155707 123:0.54155707 124:0.30082682 125:0.083952047 126:0.043310091 127:0.21791933 128:0.38802332 129:0.39194965 130:0.14724934 131:0.23320749 132:0.33374056 133:0.39194965 134:0.39194965 135:0.39194965 136:0.39455143 137:0.39455143 138:0.39455143 139:0.13831373 140:0.35876957 141:0.11534076 142:0.24595954 143:0.39455143 144:0.39455143 145:0.37907979 146:0.37907979 147:0.37907979 148:0.37907979 149:0.37907979 150:0.11296267 151:0.23706278 152:0.26235792 153:0.37907979 154:0.10845511 155:0.16240384 156:0.47596213 157:0.48712042 158:0.48712042 159:0.48712042 160:0.11665554 161:0.082564212 162:0.055119578 163:0.028882083 164:0.005812516 165:0.015010736 166:0.3513293 167:0.61465907 168:0.61465907 169:0.34368336 170:0.028372699 171:0.030652812 172:0.40328804 173:0.28770524 174:0.1784784 175:0.17104568 176:0.34249979 177:0.29705819 178:0.40328804 179:0.40328804 180:0.40328804 181:0.45027018 182:0.45027018 183:0.2901181 184:0.24346094 185:0.34780908 186:0.14397041 187:0.1921868 188:0.26399666 189:0.45027018 190:0.33633205 191:0.33633205 192:0.33633205 193:0.33633205 194:0.33633205 195:0.33633205 196:0.33633205 197:0.33633205 198:0.30829516 199:0.053295154 200:0.1425236 201:0.4782638 202:0.4782638 203:0.4782638 204:0.4782638 205:0.24471635 206:0.019494118 207:0.040440861 208:0.049690824 209:0.060010783 210:0.14711627 211:0.53853017 212:0.53853017 213:0.53853017 214:0.29014611 215:0.10956484 216:0.077799603 217:0.29721677 218:0.2986598 219:0.3057344 220:0.24676535 221:0.21099594 222:0.39483497 223:0.39483497 224:0.39483497 225:0.39483497 
1 1 1:0.38201711 2:0.38201711 3:0.38201711 4:0.38201711 5:0.29245743 6:0.092809431 7:0.17451705 8:0.38172448 9:0.38201711 10:0.098937273 11:0.55044252 12:0.55044252 13:0.55044252 14:0.27691099 15:0.042592835 16:0.022500698 17:0.027648907 18:0.038547397 19:0.018485 20:0.012560603 21:0.10693286 22:0.62978715 23:0.62978715 24:0.44069383 25:0.019795705 27:0.01411533 28:0.015102872 29:0.0029143475 30:0.16173075 31:0.55072755 32:0.55072755 33:0.55072755 34:0.24961796 35:0.034367811 36:0.014627207 37:0.42035314 38:0.19560455 39:0.11252889 40:0.031666316 41:0.25414452 42:0.42035314 43:0.42035314 44:0.42035314 45:0.42035314 46:0.43792614 47:0.43792614 48:0.43792614 49:0.32133913 50:0.18137935 51:0.076843955 52:0.11662793 53:0.27788204 54:0.43792614 55:0.1836257 56:0.47754231 57:0.47754231 58:0.47754231 59:0.47754231 60:0.20947985 61:0.012300547 62:0.043373223 63:0.090446636 64:0.009699258 65:0.017315678 66:0.11751698 67:0.62330604 68:0.62330604 69:0.45644745 70:0.018345881 71:0.00019979065 72:0.009699258 73:0.019812046 74:0.011910255 75:0.21192969 76:0.54168677 77:0.54168677 78:0.54168677 79:0.26941043 80:0.034792285 81:0.02203005 82:0.19751756 83:0.091234371 84:0.12085482 85:0.1402576 86:0.42857555 87:0.42857555 88:0.42857555 89:0.42857555 90:0.42857555 91:0.3578817 92:0.3578817 93:0.3578817 94:0.3578817 95:0.34605482 96:0.17732044 97:0.2834214 98:0.3578817 99:0.3578817 100:0.48016068 101:0.48016068 102:0.48016068 103:0.48016068 104:0.18056488 105:0.052701104 106:0.037054654 107:0.037418142 108:0.19906966 109:0.016099613 110:0.0098051615 111:0.075586401 112:0.56327218 113:0.56327218 114:0.56327218 115:0.20226364 116:0.020527618 117:0.027800292 118:0.013700346 119:0.027743286 120:0.16986887 121:0.49059975 122:0.49059975 123:0.49059975 124:0.49002898 125:0.088491127 126:0.012790857 127:0.41080758 128:0.36516908 129:0.13951822 130:0.11578773 131:0.14806965 132:0.36986938 133:0.41080758 134:0.41080758 135:0.41080758 136:0.36879048 137:0.36879048 138:0.36879048 139:0.27593538 140:0.35734722 141:0.22841896 142:0.25289363 143:0.36879048 144:0.36879048 145:0.47661251 146:0.47661251 147:0.47661251 148:0.47661251 149:0.26297423 150:0.11088316 151:0.057296932 152:0.025583262 153:0.077291287 154:0.015331803 155:0.027008129 156:0.15592124 157:0.54077166 158:0.54077166 159:0.54077166 160:0.28902736 161:0.10266451 162:0.057836987 163:0.014391636 164:0.027279526 165:0.12353755 166:0.38226023 167:0.56998545 168:0.56998545 169:0.43131894 170:0.039723467 171:0.016838172 172:0.37382674 173:0.26750028 174:0.1634251 175:0.14987923 176:0.38458434 177:0.38458434 178:0.38458434 179:0.38458434 180:0.38458434 181:0.33752587 182:0.33752587 183:0.33752587 184:0.33506244 185:0.33752587 186:0.30044493 187:0.33752587 188:0.33752587 189:0.33752587 190:0.36276451 191:0.50768322 192:0.50768322 193:0.50768322 194:0.2866179 195:0.067697383 196:0.028681451 197:0.027963538 198:0.082690574 199:0.0097158495 200:0.0036561193 201:0.063265651 202:0.5261842 203:0.59907562 204:0.59907562 205:0.032119956 206:0.0069786562 207:0.012501275 208:0.031374928 209:0.069141373 210:0.12266415 211:0.52731001 212:0.52731001 213:0.52731001 214:0.37965897 215:0.026656862 216:0.013022002 217:0.40777084 218:0.38378242 219:0.11892778 220:0.10789494 221:0.20757794 222:0.34457085 223:0.40777084 224:0.40777084 225:0.40777084 
1 1 1:0.47718003 2:0.47718003 3:0.2996335 4:0.092783757 5:0.22447936 6:0.23984191 7:0.19197312 8:0.27155042 9:0.47718003 10:0.33377925 11:0.33377925 12:0.33377925 13:0.33377925 14:0.33377925 15:0.33377925 16:0.33377925 17:0.33377925 18:0.32974419 19:0.064494528 20:0.09525007 21:0.49568078 22:0.49568078 23:0.49568078 24:0.49568078 25:0.047472853 26:0.011672406 27:0.03975163 28:0.033785056 29:0.030636095 30:0.14773102 31:0.48253092 32:0.58919466 33:0.58919466 34:0.17607695 35:0.12412409 36:0.050487213 37:0.34454238 38:0.27033749 39:0.29400641 40:0.19779529 41:0.26747388 42:0.39086545 43:0.39086545 44:0.39086545 45:0.39086545 46:0.48731175 47:0.48731175 48:0.22949277 49:0.083435394 50:0.1904251 51:0.10729819 52:0.24067375 53:0.34964961 54:0.48731175 55:0.34704208 56:0.34704208 57:0.34704208 58:0.34704208 59:0.34704208 60:0.34704208 61:0.34704208 62:0.19103514 63:0.34704208 64:0.075154372 65:0.19013061 66:0.48425698 67:0.48425698 68:0.48425698 69:0.47372979 70:0.15790395 71:0.049344856 72:0.053843513 73:0.042907618 74:0.043107726 75:0.14008836 76:0.54778874 77:0.54778874 78:0.54778874 79:0.25783575 80:0.084814914 81:0.052778382 82:0.37535799 83:0.37535799 84:0.37535799 85:0.10999969 86:0.1817885 87:0.3308948 88:0.37535799 89:0.37535799 90:0.37535799 91:0.34767994 92:0.34767994 93:0.34767994 94:0.30755886 95:0.34767994 96:0.24338856 97:0.34767994 98:0.34767994 99:0.34767994 100:0.34097371 101:0.34097371 102:0.34097371 103:0.34097371 104:0.34097371 105:0.34097371 106:0.34097371 107:0.26437736 108:0.34097371 109:0.081905276 110:0.24220599 111:0.47737509 112:0.47737509 113:0.47737509 114:0.47737509 115:0.14482985 116:0.021740993 117:0.040391654 118:0.07749182 119:0.057589691 120:0.10679762 121:0.54155707 122:0.54155707 123:0.54155707 124:0.30082682 125:0.083952047 126:0.043310091 127:0.21791933 128:0.38802332 129:0.39194965 130:0.14724934 131:0.23320749 132:0.33374056 133:0.39194965 134:0.39194965 135:0.39194965 136:0.39455143 137:0.39455143 138:0.39455143 139:0.13831373 140:0.35876957 141:0.11534076 142:0.24595954 143:0.39455143 144:0.39455143 145:0.37907979 146:0.37907979 147:0.37907979 148:0.37907979 149:0.37907979 150:0.11296267 151:0.23706278 152:0.26235792 153:0.37907979 154:0.10845511 155:0.16240384 156:0.47596213 157:0.48712042 158:0.48712042 159:0.48712042 160:0.11665554 161:0.082564212 162:0.055119578 163:0.028882083 164:0.005812516 165:0.015010736 166:0.3513293 167:0.61465907 168:0.61465907 169:0.34368336 170:0.028372699 171:0.030652812 172:0.40328804 173:0.28770524 174:0.1784784 175:0.17104568 176:0.34249979 177:0.29705819 178:0.40328804 179:0.40328804 180:0.40328804 181:0.45027018 182:0.45027018 183:0.2901181 184:0.24346094 185:0.34780908 186:0.14397041 187:0.1921868 188:0.26399666 189:0.45027018 190:0.33633205 191:0.33633205 192:0.33633205 193:0.33633205 194:0.33633205 195:0.33633205 196:0.33633205 197:0.33633205 198:0.30829516 199:0.053295154 200:0.1425236 201:0.4782638 202:0.4782638 203:0.4782638 204:0.4782638 205:0.24471635 206:0.019494118 207:0.040440861 208:0.049690824 209:0.060010783 210:0.14711627 211:0.53853017 212:0.53853017 213:0.53853017 214:0.29014611 215:0.10956484 216:0.077799603 217:0.29721677 218:0.2986598 219:0.3057344 220:0.24676535 221:0.21099594 222:0.39483497 223:0.39483497 224:0.39483497 225:0.39483497 
1 1 1:0.38201711 2:0.38201711 3:0.38201711 4:0.38201711 5:0.29245743 6:0.092809431 7:0.17451705 8:0.38172448 9:0.38201711 10:0.098937273 11:0.55044252 12:0.55044252 13:0.55044252 14:0.27691099 15:0.042592835 16:0.022500698 17:0.027648907 18:0.038547397 19:0.018485 20:0.012560603 21:0.10693286 22:0.62978715 23:0.62978715 24:0.44069383 25:0.019795705 27:0.01411533 28:0.015102872 29:0.0029143475 30:0.16173075 31:0.55072755 32:0.55072755 33:0.55072755 34:0.24961796 35:0.034367811 36:0.014627207 37:0.42035314 38:0.19560455 39:0.11252889 40:0.031666316 41:0.25414452 42:0.42035314 43:0.42035314 44:0.42035314 45:0.42035314 46:0.43792614 47:0.43792614 48:0.43792614 49:0.32133913 50:0.18137935 51:0.076843955 52:0.11662793 53:0.27788204 54:0.43792614 55:0.1836257 56:0.47754231 57:0.47754231 58:0.47754231 59:0.47754231 60:0.20947985 61:0.012300547 62:0.043373223 63:0.090446636 64:0.009699258 65:0.017315678 66:0.11751698 67:0.62330604 68:0.62330604 69:0.45644745 70:0.018345881 71:0.00019979065 72:0.009699258 73:0.019812046 74:0.011910255 75:0.21192969 76:0.54168677 77:0.54168677 78:0.54168677 79:0.26941043 80:0.034792285 81:0.02203005 82:0.19751756 83:0.091234371 84:0.12085482 85:0.1402576 86:0.42857555 87:0.42857555 88:0.42857555 89:0.42857555 90:0.42857555 91:0.36879048 92:0.36879048 93:0.36879048 94:0.27593538 95:0.35734722 96:0.22841896 97:0.25289363 98:0.36879048 99:0.36879048 100:0.47661251 101:0.47661251 102:0.47661251 103:0.47661251 104:0.26297423 105:0.11088316 106:0.057296932 107:0.025583262 108:0.077291287 109:0.015331803 110:0.027008129 111:0.15592124 112:0.54077166 113:0.54077166 114:0.54077166 115:0.28902736 116:0.10266451 117:0.057836987 118:0.014391636 119:0.027279526 120:0.12353755 121:0.38226023 122:0.56998545 123:0.56998545 124:0.43131894 125:0.039723467 126:0.016838172 127:0.37382674 128:0.26750028 129:0.1634251 130:0.14987923 131:0.38458434 132:0.38458434 133:0.38458434 134:0.38458434 135:0.38458434 136:0.33752587 137:0.33752587 138:0.33752587 139:0.33506244 140:0.33752587 141:0.30044493 142:0.33752587 143:0.33752587 144:0.33752587 145:0.36276451 146:0.50768322 147:0.50768322 148:0.50768322 149:0.2866179 150:0.067697383 151:0.028681451 152:0.027963538 153:0.082690574 154:0.0097158495 155:0.0036561193 156:0.063265651 157:0.5261842 158:0.59907562 159:0.59907562 160:0.032119956 161:0.0069786562 162:0.012501275 163:0.031374928 164:0.069141373 165:0.12266415 166:0.52731001 167:0.52731001 168:0.52731001 169:0.37965897 170:0.026656862 171:0.013022002 172:0.40777084 173:0.38378242 174:0.11892778 175:0.10789494 176:0.20757794 177:0.34457085 178:0.40777084 179:0.40777084 180:0.40777084 181:0.3578817 182:0.3578817 183:0.3578817 184:0.3578817 185:0.34605482 186:0.17732044 187:0.2834214 188:0.3578817 189:0.3578817 190:0.48016068 191:0.48016068 192:0.48016068 193:0.48016068 194:0.18056488 195:0.052701104 196:0.037054654 197:0.037418142 198:0.19906966 199:0.016099613 200:0.0098051615 201:0.075586401 202:0.56327218 203:0.56327218 204:0.56327218 205:0.20226364 206:0.020527618 207:0.027800292 208:0.013700346 209:0.027743286 210:0.16986887 211:0.49059975 212:0.49059975 213:0.49059975 214:0.49002898 215:0.088491127 216:0.012790857 217:0.41080758 218:0.36516908 219:0.13951822 220:0.11578773 221:0.14806965 222:0.36986938 223:0.41080758 224:0.41080758 225:0.41080758 
1 1 1:0.40825376 2:0.40825376 3:0.40825376 4:0.40825376 5:0.40825376 6:0.13278988 7:0.10051975 8:0.29030046 9:0.23373628 10:0.138896 11:0.27621993 12:0.53988862 13:0.53988862 14:0.53988862 15:0.12242262 16:0.07906647 17:0.042500887 18:0.083223373 19:0.15552546 20:0.18354049 21:0.11615501 22:0.52013314 23:0.52013314 24:0.52013314 25:0.27036193 26:0.11861609 27:0.17277744 28:0.032940503 29:0.030170782 30:0.058962192 31:0.56900656 32:0.56900656 33:0.56900656 34:0.12478306 35:0.066650644 36:0.056652591 37:0.28516412 38:0.052169736 39:0.094008528 40:0.22215296 41:0.41419083 42:0.41419083 43:0.41419083 44:0.41419083 45:0.41419083 46:0.40963125 47:0.40963125 48:0.40963125 49:0.40963125 50:0.32710359 51:0.2774854 52:0.19150172 53:0.18303943 54:0.27319929 55:0.11526024 56:0.16591844 57:0.63948995 58:0.63948995 59:0.35296449 60:0.035391949 61:0.071705267 62:0.012198892 63:0.10081827 64:0.0412318 65:0.03330557 66:0.027065497 67:0.56710792 68:0.56710792 69:0.56710792 70:0.15465038 71:0.079806782 72:0.036580212 73:0.016047388 74:0.0047804201 75:0.053246129 76:0.51669604 77:0.60303587 78:0.60303587 79:0.047309518 80:0.0021454166 81:0.019037068 82:0.077546962 84:0.023222903 85:0.061070975 86:0.42427152 87:0.46655697 88:0.46655697 89:0.46655697 90:0.39583451 91:0.29518196 92:0.45891279 93:0.45891279 94:0.45891279 95:0.45891279 96:0.10281704 97:0.14580783 98:0.10720772 99:0.1647397 100:0.20355627 101:0.4317027 102:0.56802404 103:0.56802404 104:0.30506575 105:0.06295871 106:0.038321715 107:0.065909058 108:0.1550924 109:0.056443349 110:0.034516633 111:0.067305245 112:0.56118518 113:0.56118518 114:0.56118518 115:0.19284575 116:0.071174182 117:0.063646801 118:0.024427406 119:0.017964723 120:0.040605556 121:0.48579156 122:0.60776156 123:0.60776156 124:0.14308921 125:0.036634915 126:0.029555105 127:0.08694692 128:0.012190425 129:0.058121886 130:0.084393702 131:0.44312328 132:0.44312328 133:0.44312328 134:0.44312328 135:0.44312328 136:0.42625365 137:0.47093263 138:0.47093263 139:0.47093263 140:0.31514418 141:0.079850852 142:0.12801236 143:0.13163035 144:0.11648855 145:0.17488067 146:0.52454722 147:0.52454722 148:0.52454722 149:0.35189003 150:0.051008988 151:0.031665847 152:0.038440753 153:0.12271325 154:0.061731115 155:0.065080948 156:0.10128962 157:0.55798858 158:0.55798858 159:0.55798858 160:0.19249661 161:0.080394804 162:0.064203843 163:0.041793663 164:0.022408156 165:0.091564044 166:0.54179657 167:0.57528949 168:0.57528949 169:0.17297488 170:0.048419867 171:0.040533949 172:0.16422999 173:0.035074394 174:0.078050382 175:0.13271743 176:0.45342705 177:0.45342705 178:0.45342705 179:0.45342705 180:0.35455343 181:0.37339851 182:0.41124484 183:0.41124484 184:0.41124484 185:0.37820864 186:0.16742815 187:0.099235833 188:0.27218962 189:0.31336495 190:0.14538138 191:0.25385356 192:0.54432827 193:0.54432827 194:0.54432827 195:0.12387455 196:0.054752424 197:0.038435709 198:0.075649366 199:0.086348362 200:0.14211585 201:0.23084266 202:0.51631731 203:0.51631731 204:0.51631731 205:0.31292492 206:0.061447784 207:0.13270359 208:0.082085498 209:0.05036629 210:0.0887639 211:0.50058323 212:0.59451002 213:0.59451002 214:0.14631705 215:0.037466183 216:0.050652925 217:0.22115655 218:0.064064771 219:0.036584567 220:0.1027905 221:0.43245372 222:0.43245372 223:0.43245372 224:0.43245372 225:0.43245372 
1 1 1:0.36879048 2:0.36879048 3:0.36879048 4:0.27593538 5:0.35734722 6:0.22841896 7:0.25289363 8:0.36879048 9:0.36879048 10:0.47661251 11:0.47661251 12:0.47661251 13:0.47661251 14:0.26297423 15:0.11088316 16:0.057296932 17:0.025583262 18:0.077291287 19:0.015331803 20:0.027008129 21:0.15592124 22:0.54077166 23:0.54077166 24:0.54077166 25:0.28902736 26:0.10266451 27:0.057836987 28:0.014391636 29:0.027279526 30:0.12353755 31:0.38226023 32:0.56998545 33:0.56998545 34:0.43131894 35:0.039723467 36:0.016838172 37:0.37382674 38:0.26750028 39:0.1634251 40:0.14987923 41:0.38458434 42:0.38458434 43:0.38458434 44:0.38458434 45:0.38458434 46:0.33752587 47:0.33752587 48:0.33752587 49:0.33506244 50:0.33752587 51:0.30044493 52:0.33752587 53:0.33752587 54:0.33752587 55:0.36276451 56:0.50768322 57:0.50768322 58:0.50768322 59:0.2866179 60:0.067697383 61:0.028681451 62:0.027963538 63:0.082690574 64:0.0097158495 65:0.0036561193 66:0.063265651 67:0.5261842 68:0.59907562 69:0.59907562 70:0.032119956 71:0.0069786562 72:0.012501275 73:0.031374928 74:0.069141373 75:0.12266415 76:0.52731001 77:0.52731001 78:0.52731001 79:0.37965897 80:0.026656862 81:0.013022002 82:0.40777084 83:0.38378242 84:0.11892778 85:0.10789494 86:0.20757794 87:0.34457085 88:0.40777084 89:0.40777084 90:0.40777084 91:0.3578817 92:0.3578817 93:0.3578817 94:0.3578817 95:0.34605482 96:0.17732044 97:0.2834214 98:0.3578817 99:0.3578817 100:0.48016068 101:0.48016068 102:0.48016068 103:0.48016068 104:0.18056488 105:0.052701104 106:0.037054654 107:0.037418142 108:0.19906966 109:0.016099613 110:0.0098051615 111:0.075586401 112:0.56327218 113:0.56327218 114:0.56327218 115:0.20226364 116:0.020527618 117:0.027800292 118:0.013700346 119:0.027743286 120:0.16986887 121:0.49059975 122:0.49059975 123:0.49059975 124:0.49002898 125:0.088491127 126:0.012790857 127:0.41080758 128:0.36516908 129:0.13951822 130:0.11578773 131:0.14806965 132:0.36986938 133:0.41080758 134:0.41080758 135:0.41080758 136:0.43792614 137:0.43792614 138:0.43792614 139:0.32133913 140:0.18137935 141:0.076843955 142:0.11662793 143:0.27788204 144:0.43792614 145:0.1836257 146:0.47754231 147:0.47754231 148:0.47754231 149:0.47754231 150:0.20947985 151:0.012300547 152:0.043373223 153:0.090446636 154:0.009699258 155:0.017315678 156:0.11751698 157:0.62330604 158:0.62330604 159:0.45644745 160:0.018345881 161:0.00019979065 162:0.009699258 163:0.019812046 164:0.011910255 165:0.21192969 166:0.54168677 167:0.54168677 168:0.54168677 169:0.26941043 170:0.034792285 171:0.02203005 172:0.19751756 173:0.091234371 174:0.12085482 175:0.1402576 176:0.42857555 177:0.42857555 178:0.42857555 179:0.42857555 180:0.42857555 181:0.38201711 182:0.38201711 183:0.38201711 184:0.38201711 185:0.29245743 186:0.092809431 187:0.17451705 188:0.38172448 189:0.38201711 190:0.098937273 191:0.55044252 192:0.55044252 193:0.55044252 194:0.27691099 195:0.042592835 196:0.022500698 197:0.027648907 198:0.038547397 199:0.018485 200:0.012560603 201:0.10693286 202:0.62978715 203:0.62978715 204:0.44069383 205:0.019795705 207:0.01411533 208:0.015102872 209:0.0029143475 210:0.16173075 211:0.55072755 212:0.55072755 213:0.55072755 214:0.24961796 215:0.034367811 216:0.014627207 217:0.42035314 218:0.19560455 219:0.11252889 220:0.031666316 221:0.25414452 222:0.42035314 223:0.42035314 224:0.42035314 225:0.42035314 
1 1 1:0.45027018 2:0.45027018 3:0.2901181 4:0.24346094 5:0.34780908 6:0.14397041 7:0.1921868 8:0.26399666 9:0.45027018 10:0.33633205 11:0.33633205 12:0.33633205 13:0.33633205 14:0.33633205 15:0.33633205 16:0.33633205 17:0.33633205 18:0.30829516 19:0.053295154 20:0.1425236 21:0.4782638 22:0.4782638 23:0.4782638 24:0.4782638 25:0.24471635 26:0.019494118 27:0.040440861 28:0.049690824 29:0.060010783 30:0.14711627 31:0.53853017 32:0.53853017 33:0.53853017 34:0.29014611 35:0.10956484 36:0.077799603 37:0.29721677 38:0.2986598 39:0.3057344 40:0.24676535 41:0.21099594 42:0.39483497 43:0.39483497 44:0.39483497 45:0.39483497 46:0.39455143 47:0.39455143 48:0.39455143 49:0.13831373 50:0.35876957 51:0.11534076 52:0.24595954 53:0.39455143 54:0.39455143 55:0.37907979 56:0.37907979 57:0.37907979 58:0.37907979 59:0.37907979 60:0.11296267 61:0.23706278 62:0.26235792 63:0.37907979 64:0.10845511 65:0.16240384 66:0.47596213 67:0.48712042 68:0.48712042 69:0.48712042 70:0.11665554 71:0.082564212 72:0.055119578 73:0.028882083 74:0.005812516 75:0.015010736 76:0.3513293 77:0.61465907 78:0.61465907 79:0.34368336 80:0.028372699 81:0.030652812 82:0.40328804 83:0.28770524 84:0.1784784 85:0.17104568 86:0.34249979 87:0.29705819 88:0.40328804 89:0.40328804 90:0.40328804 91:0.48731175 92:0.48731175 93:0.22949277 94:0.083435394 95:0.1904251 96:0.10729819 97:0.24067375 98:0.34964961 99:0.48731175 100:0.34704208 101:0.34704208 102:0.34704208 103:0.34704208 104:0.34704208 105:0.34704208 106:0.34704208 107:0.19103514 108:0.34704208 109:0.075154372 110:0.19013061 111:0.48425698 112:0.48425698 113:0.48425698 114:0.47372979 115:0.15790395 116:0.049344856 117:0.053843513 118:0.042907618 119:0.043107726 120:0.14008836 121:0.54778874 122:0.54778874 123:0.54778874 124:0.25783575 125:0.084814914 126:0.052778382 127:0.37535799 128:0.37535799 129:0.37535799 130:0.10999969 131:0.1817885 132:0.3308948 133:0.37535799 134:0.37535799 135:0.37535799 136:0.34767994 137:0.34767994 138:0.34767994 139:0.30755886 140:0.34767994 141:0.24338856 142:0.34767994 143:0.34767994 144:0.34767994 145:0.34097371 146:0.34097371 147:0.34097371 148:0.34097371 149:0.34097371 150:0.34097371 151:0.34097371 152:0.26437736 153:0.34097371 154:0.081905276 155:0.24220599 156:0.47737509 157:0.47737509 158:0.47737509 159:0.47737509 160:0.14482985 161:0.021740993 162:0.040391654 163:0.07749182 164:0.057589691 165:0.10679762 166:0.54155707 167:0.54155707 168:0.54155707 169:0.30082682 170:0.083952047 171:0.043310091 172:0.21791933 173:0.38802332 174:0.39194965 175:0.14724934 176:0.23320749 177:0.33374056 178:0.39194965 179:0.39194965 180:0.39194965 181:0.47718003 182:0.47718003 183:0.2996335 184:0.092783757 185:0.22447936 186:0.23984191 187:0.19197312 188:0.27155042 189:0.47718003 190:0.33377925 191:0.33377925 192:0.33377925 193:0.33377925 194:0.33377925 195:0.33377925 196:0.33377925 197:0.33377925 198:0.32974419 199:0.064494528 200:0.09525007 201:0.49568078 202:0.49568078 203:0.49568078 204:0.49568078 205:0.047472853 206:0.011672406 207:0.03975163 208:0.033785056 209:0.030636095 210:0.14773102 211:0.48253092 212:0.58919466 213:0.58919466 214:0.17607695 215:0.12412409 216:0.050487213 217:0.34454238 218:0.27033749 219:0.29400641 220:0.19779529 221:0.26747388 222:0.39086545 223:0.39086545 224:0.39086545 225:0.39086545 
1 1 1:0.33752587 2:0.33752587 3:0.33752587 4:0.33506244 5:0.33752587 6:0.30044493 7:0.33752587 8:0.33752587 9:0.33752587 10:0.36276451 11:0.50768322 12:0.50768322 13:0.50768322 14:0.2866179 15:0.067697383 16:0.028681451 17:0.027963538 18:0.082690574 19:0.0097158495 20:0.0036561193 21:0.063265651 22:0.5261842 23:0.59907562 24:0.59907562 25:0.032119956 26:0.0069786562 27:0.012501275 28:0.031374928 29:0.069141373 30:0.12266415 31:0.52731001 32:0.52731001 33:0.52731001 34:0.37965897 35:0.026656862 36:0.013022002 37:0.40777084 38:0.38378242 39:0.11892778 40:0.10789494 41:0.20757794 42:0.34457085 43:0.40777084 44:0.40777084 45:0.40777084 46:0.36879048 47:0.36879048 48:0.36879048 49:0.27593538 50:0.35734722 51:0.22841896 52:0.25289363 53:0.36879048 54:0.36879048 55:0.47661251 56:0.47661251 57:0.47661251 58:0.47661251 59:0.26297423 60:0.11088316 61:0.057296932 62:0.025583262 63:0.077291287 64:0.015331803 65:0.027008129 66:0.15592124 67:0.54077166 68:0.54077166 69:0.54077166 70:0.28902736 71:0.10266451 72:0.057836987 73:0.014391636 74:0.027279526 75:0.12353755 76:0.38226023 77:0.56998545 78:0.56998545 79:0.43131894 80:0.039723467 81:0.016838172 82:0.37382674 83:0.26750028 84:0.1634251 85:0.14987923 86:0.38458434 87:0.38458434 88:0.38458434 89:0.38458434 90:0.38458434 91:0.3578817 92:0.3578817 93:0.3578817 94:0.3578817 95:0.34605482 96:0.17732044 97:0.2834214 98:0.3578817 99:0.3578817 100:0.48016068 101:0.48016068 102:0.48016068 103:0.48016068 104:0.18056488 105:0.052701104 106:0.037054654 107:0.037418142 108:0.19906966 109:0.016099613 110:0.0098051615 111:0.075586401 112:0.56327218 113:0.56327218 114:0.56327218 115:0.20226364 116:0.020527618 117:0.027800292 118:0.013700346 119:0.027743286 120:0.16986887 121:0.49059975 122:0.49059975 123:0.49059975 124:0.49002898 125:0.088491127 126:0.012790857 127:0.41080758 128:0.36516908 129:0.13951822 130:0.11578773 131:0.14806965 132:0.36986938 133:0.41080758 134:0.41080758 135:0.41080758 136:0.43792614 137:0.43792614 138:0.43792614 139:0.32133913 140:0.18137935 141:0.076843955 142:0.11662793 143:0.27788204 144:0.43792614 145:0.1836257 146:0.47754231 147:0.47754231 148:0.47754231 149:0.47754231 150:0.20947985 151:0.012300547 152:0.043373223 153:0.090446636 154:0.009699258 155:0.017315678 156:0.11751698 157:0.62330604 158:0.62330604 159:0.45644745 160:0.018345881 161:0.00019979065 162:0.009699258 163:0.019812046 164:0.011910255 165:0.21192969 166:0.54168677 167:0.54168677 168:0.54168677 169:0.26941043 170:0.034792285 171:0.02203005 172:0.19751756 173:0.091234371 174:0.12085482 175:0.1402576 176:0.42857555 177:0.42857555 178:0.42857555 179:0.42857555 180:0.42857555 181:0.38201711 182:0.38201711 183:0.38201711 184:0.38201711 185:0.29245743 186:0.092809431 187:0.17451705 188:0.38172448 189:0.38201711 190:0.098937273 191:0.55044252 192:0.55044252 193:0.55044252 194:0.27691099 195:0.042592835 196:0.022500698 197:0.027648907 198:0.038547397 199:0.018485 200:0.012560603 201:0.10693286 202:0.62978715 203:0.62978715 204:0.44069383 205:0.019795705 207:0.01411533 208:0.015102872 209:0.0029143475 210:0.16173075 211:0.55072755 212:0.55072755 213:0.55072755 214:0.24961796 215:0.034367811 216:0.014627207 217:0.42035314 218:0.19560455 219:0.11252889 220:0.031666316 221:0.25414452 222:0.42035314 223:0.42035314 224:0.42035314 225:0.42035314 
-1 1 1:0.34197974 2:0.34197974 3:0.34197974 4:0.34197974 5:0.34197974 6:0.25376931 7:0.34197974 8:0.34197974 9:0.34197974 10:0.45722222 11:0.45722222 12:0.45722222 13:0.45722222 14:0.37312394 15:0.023296943 16:0.025011949 17:0.013619009 18:0.15236808 19:0.016313542 20:0.0036016975 21:0.076453 22:0.49243414 23:0.49243414 24:0.49243414 25:0.4796505 26:0.18800837 27:0.031462405 28:0.040071182 29:0.023534235 30:0.038366955 31:0.2812376 32:0.55215573 33:0.55215573 34:0.55215573 35:0.036977056 36:0.035758663 37:0.35333622 38:0.18266855 39:0.18979116 40:0.18705572 41:0.23874255 42:0.3899653 43:0.48182786 44:0.48182786 45:0.31207052 46:0.40244749 47:0.40244749 48:0.40244749 49:0.38780484 50:0.2972796 51:0.10486419 52:0.13798393 53:0.3128522 54:0.38396317 55:0.20529583 56:0.50354069 57:0.50354069 58:0.50354069 59:0.38849425 60:0.17095248 61:0.10024227 62:0.03326644 63:0.076721586 64:0.014333267 65:0.02176182 66:0.19872966 67:0.55986387 68:0.55986387 69:0.55986387 70:0.13753413 71:0.0061982814 72:0.023037851 73:0.016207665 74:0.0034153739 75:0.057578772 76:0.32070893 77:0.61019742 78:0.61019742 79:0.38359788 80:0.036645558 81:0.019601943 82:0.25350505 83:0.010488831 84:0.01406023 85:0.038548321 86:0.41146898 87:0.45350668 88:0.45350668 89:0.45350668 90:0.38422641 91:0.3412661 92:0.3412661 93:0.3412661 94:0.26134205 95:0.3412661 96:0.3412661 97:0.3412661 98:0.3412661 99:0.3412661 100:0.4569805 101:0.4569805 102:0.4569805 103:0.4569805 104:0.36081454 105:0.081645824 106:0.075487673 107:0.060485594 108:0.13588701 109:0.0096764006 110:0.0056241909 111:0.081642501 112:0.56415236 113:0.56415236 114:0.56415236 115:0.18542095 116:0.062307958 117:0.01193298 118:0.012880215 119:0.0028543463 120:0.016063379 121:0.20450069 122:0.61409527 123:0.61409527 124:0.44547051 125:0.061273225 126:0.036373675 127:0.23466286 128:0.15297835 129:0.099440061 130:0.094379611 131:0.20630778 132:0.46372738 133:0.46372738 134:0.46372738 135:0.46372738 136:0.36575055 137:0.36575055 138:0.36575055 139:0.26976609 140:0.36575055 141:0.26191074 142:0.23661859 143:0.36575055 144:0.36575055 145:0.44223377 146:0.44223377 147:0.44223377 148:0.44223377 149:0.39969087 150:0.18454523 151:0.026954018 152:0.020203758 153:0.15090668 154:0.027802419 155:0.0056126136 156:0.067434661 157:0.53160596 158:0.53160596 159:0.53160596 160:0.33855444 161:0.15772232 162:0.085662737 163:0.0289931 164:0.027583245 165:0.015863581 166:0.22224924 167:0.56137097 168:0.56137097 169:0.56137097 170:0.027160652 171:0.051014196 172:0.36531535 173:0.37090141 174:0.21833664 175:0.059942074 176:0.20265676 177:0.40826681 178:0.40826681 179:0.40826681 180:0.36959153 181:0.36389026 182:0.36389026 183:0.36389026 184:0.30814254 185:0.36389026 186:0.19522537 187:0.28235447 188:0.35373816 189:0.36389026 190:0.48486185 191:0.48486185 192:0.48486185 193:0.48486185 194:0.20808654 195:0.051473331 196:0.026235685 197:0.015704356 198:0.11292201 199:0.019312099 200:0.012948595 201:0.11371856 202:0.50526392 203:0.50526392 204:0.50526392 205:0.43680787 206:0.16010009 207:0.064955927 208:0.025895458 209:0.007357263 210:0.019371886 211:0.19482751 212:0.56490725 213:0.56490725 214:0.56490725 215:0.047168326 216:0.036834821 217:0.33730951 218:0.25758436 219:0.25138357 220:0.10328954 221:0.25403494 222:0.41275793 223:0.41275793 224:0.41275793 225:0.41275793 
-1 1 1:0.36245579 2:0.27267119 3:0.27286032 4:0.25090316 5:0.36245579 6:0.36245579 7:0.36245579 8:0.36245579 9:0.36245579 10:0.37853932 11:0.37853932 12:0.37853932 13:0.37853932 14:0.37853932 15:0.37853932 16:0.17788547 17:0.1903284 18:0.26903471 19:0.068472952 20:0.033779077 21:0.10002283 22:0.23639873 23:0.53277582 24:0.53277582 25:0.53277582 26:0.25505587 27:0.10806382 28:0.34951958 29:0.15062737 30:0.34951958 31:0.34951958 32:0.34951958 33:0.34951958 34:0.34951958 35:0.34951958 36:0.34951958 37:0.37075105 38:0.15600313 39:0.2728532 40:0.36408782 41:0.37075105 42:0.28525844 43:0.37075105 44:0.37075105 45:0.37075105 46:0.39824349 47:0.19056974 48:0.083626524 49:0.071432643 50:0.39824349 51:0.39824349 52:0.39824349 53:0.39824349 54:0.39824349 55:0.39662683 56:0.39662683 57:0.39662683 58:0.39662683 59:0.39662683 60:0.34588447 61:0.10500967 62:0.044854969 63:0.28418434 64:0.016723063 65:0.0054192804 66:0.062267613 67:0.16556336 68:0.5294258 69:0.5294258 70:0.5294258 71:0.35483134 72:0.040275898 73:0.10450654 74:0.072526455 75:0.088022903 76:0.34027988 77:0.44034696 78:0.44034696 79:0.44034696 80:0.44034696 81:0.29096076 82:0.35420403 83:0.35420403 84:0.2515794 85:0.24183537 86:0.35420403 87:0.35420403 88:0.35420403 89:0.35420403 90:0.35420403 91:0.33557498 92:0.31518877 93:0.33523437 94:0.33557498 95:0.33557498 96:0.33557498 97:0.33557498 98:0.33557498 99:0.33557498 100:0.39048141 101:0.39048141 102:0.39048141 103:0.39048141 104:0.39048141 105:0.33977684 106:0.15827788 107:0.13262038 108:0.28201577 109:0.037804231 110:0.022359321 111:0.012967099 112:0.055802558 113:0.5387246 114:0.5387246 115:0.5387246 116:0.33415601 117:0.11160655 118:0.03846309 119:0.023276702 120:0.020592039 121:0.027530586 122:0.49520302 123:0.49520302 124:0.49520302 125:0.49520302 126:0.12606594 127:0.32062069 128:0.099948801 129:0.31002331 130:0.36311117 131:0.36311117 132:0.36311117 133:0.36311117 134:0.36311117 135:0.36311117 136:0.23725736 137:0.16615032 138:0.21587348 139:0.36081883 140:0.38452867 141:0.38452867 142:0.38452867 143:0.38452867 144:0.38452867 145:0.34839568 146:0.34839568 147:0.34839568 148:0.34839568 149:0.34839568 150:0.34839568 151:0.33963236 152:0.32550913 153:0.22453584 154:0.032934781 155:0.030934921 156:0.052028157 157:0.33500025 158:0.48818082 159:0.48818082 160:0.48818082 161:0.4069488 162:0.049572498 163:0.29261643 164:0.29485017 165:0.34381038 166:0.34381038 167:0.34381038 168:0.34381038 169:0.34381038 170:0.34381038 171:0.34381038 172:0.34420162 173:0.34420162 174:0.34420162 175:0.22847751 176:0.34420162 177:0.34420162 178:0.34420162 179:0.34420162 180:0.34420162 181:0.35371885 182:0.28622562 183:0.33977211 184:0.22787637 185:0.35371885 186:0.35371885 187:0.35371885 188:0.35371885 189:0.35371885 190:0.33569777 191:0.33569777 192:0.33569777 193:0.33569777 194:0.33569777 195:0.31430575 196:0.33569777 197:0.33520269 198:0.33569777 199:0.044195134 200:0.021465326 201:0.11263268 202:0.21466194 203:0.49218738 204:0.49218738 205:0.49218738 206:0.45317787 207:0.081882626 208:0.22426033 209:0.15419272 210:0.37953898 211:0.37953898 212:0.37953898 213:0.37953898 214:0.37953898 215:0.37953898 216:0.24825944 217:0.33333331 218:0.33333331 219:0.33333331 220:0.33333331 221:0.33333331 222:0.33333331 223:0.33333331 224:0.33333331 225:0.33333331 
-1 1 1:0.40774229 2:0.40774229 3:0.40774229 4:0.26328555 5:0.21987768 6:0.099756926 7:0.20276597 8:0.40774229 9:0.40774229 10:0.18369532 11:0.48250985 12:0.48250985 13:0.48250985 14:0.48250985 15:0.13241345 16:0.052209534 17:0.034258131 18:0.11644882 19:0.027587473 20:0.095364869 21:0.19280533 22:0.59872073 23:0.59872073 24:0.48559228 25:0.006922977 26:0.0037930417 27:0.013238706 28:0.024511185 29:0.015790517 30:0.027159814 31:0.4065837 32:0.62421745 33:0.62421745 34:0.22913426 35:0.010370142 36:0.034600306 37:0.086655155 38:0.0025641925 39:0.0024146142 40:0.052462652 41:0.45968562 42:0.45968562 43:0.45968562 44:0.45968562 45:0.38010874 46:0.33841166 47:0.33841166 48:0.32540554 49:0.33841166 50:0.33841166 51:0.30406255 52:0.33841166 53:0.33841166 54:0.33841166 55:0.077394582 56:0.54644054 57:0.54644054 58:0.54644054 59:0.29167557 60:0.066659689 61:0.040170882 62:0.027631385 63:0.07951767 64:0.023930606 65:0.055522293 66:0.18560907 67:0.57935858 68:0.57935858 69:0.53770024 70:0.021072961 71:0.022292662 72:0.022770751 73:0.015110253 74:0.0073086182 75:0.084842913 76:0.21608312 77:0.56079292 78:0.56079292 79:0.56079292 80:0.046158504 81:0.015206979 82:0.28175521 83:0.12723142 84:0.12220144 85:0.17419557 86:0.20512918 87:0.45195985 88:0.45195985 89:0.45195985 90:0.45195985 91:0.41163254 92:0.41163254 93:0.41163254 94:0.26983264 95:0.39519936 96:0.14458381 97:0.11843291 98:0.241478 99:0.41163254 100:0.37378433 101:0.52022839 102:0.52022839 103:0.52022839 104:0.20570645 105:0.022011956 106:0.0060368269 107:0.015310278 108:0.072814874 109:0.044279169 110:0.040306434 111:0.29887736 112:0.50677109 113:0.50677109 114:0.50677109 115:0.35429981 116:0.067261927 117:0.081140459 118:0.060380217 119:0.023907278 120:0.037354395 121:0.21773438 122:0.54968858 123:0.54968858 124:0.54968858 125:0.19827116 126:0.034568548 127:0.38272104 128:0.18819219 129:0.36947498 130:0.257765 131:0.23423477 132:0.34765169 133:0.38272104 134:0.38272104 135:0.38272104 136:0.35581374 137:0.33679706 138:0.35581374 139:0.35581374 140:0.35581374 141:0.30436042 142:0.1852352 143:0.35581374 144:0.35581374 145:0.27853903 146:0.54897594 147:0.54897594 148:0.54897594 149:0.11574526 150:0.043870263 151:0.0097761648 152:0.020932579 153:0.049365293 154:0.038821399 155:0.042431347 156:0.21821919 157:0.53030318 158:0.53030318 159:0.53030318 160:0.30507037 161:0.090091676 162:0.064993054 163:0.023276417 164:0.013442597 165:0.060165126 166:0.31726289 167:0.54472554 168:0.54472554 169:0.54472554 170:0.05141842 171:0.046692867 172:0.37426123 173:0.305206 174:0.37426123 175:0.26591685 176:0.26124603 177:0.25986665 178:0.37426123 179:0.37426123 180:0.37426123 181:0.46385247 182:0.46385247 183:0.46385247 184:0.24734057 185:0.18303035 186:0.063096069 187:0.099346377 188:0.17559929 189:0.46385247 190:0.45475706 191:0.54392332 192:0.54392332 193:0.4035691 194:0.078455903 195:0.036786921 196:0.053651944 197:0.085286386 198:0.14478269 199:0.13713209 200:0.095513932 201:0.31303921 202:0.52582729 203:0.52582729 204:0.52582729 205:0.18154994 206:0.071054094 207:0.08115492 208:0.10341305 209:0.084786683 210:0.033851996 211:0.12618195 212:0.54350352 213:0.54350352 214:0.54350352 215:0.1977087 216:0.1994295 217:0.42709845 218:0.23470497 219:0.20448551 220:0.10076781 221:0.17761552 222:0.36296758 223:0.42709845 224:0.42709845 225:0.42709845 
-1 1 1:0.48337221 2:0.48337221 3:0.32553339 4:0.17394811 5:0.27576154 6:0.081043288 7:0.11671977 8:0.25804642 9:0.48337221 10:0.41005388 11:0.41005388 12:0.41005388 13:0.41005388 14:0.29818267 15:0.084424898 16:0.050881173 17:0.2462717 18:0.41005388 19:0.33333331 20:0.33333331 21:0.33333331 22:0.33333331 23:0.33333331 24:0.33333331 25:0.33333331 26:0.33333331 27:0.33333331 28:0.33333331 29:0.33333331 30:0.33333331 31:0.33333331 32:0.33333331 33:0.33333331 34:0.33333331 35:0.33333331 36:0.33333331 37:0.33632353 38:0.33632353 39:0.33632353 40:0.33632353 41:0.33632353 42:0.30836976 43:0.33632353 44:0.33632353 45:0.33632353 46:0.44345221 47:0.44345221 48:0.3040956 49:0.31761453 50:0.22787553 51:0.14241502 52:0.10599488 53:0.36503845 54:0.44345221 55:0.43770012 56:0.43770012 57:0.43770012 58:0.32546985 59:0.28167307 60:0.14205739 61:0.076512903 62:0.14956497 63:0.43770012 64:0.34485039 65:0.34485039 66:0.34485039 67:0.34485039 68:0.34485039 69:0.22051218 70:0.34485039 71:0.34485039 72:0.34485039 73:0.33684665 74:0.3246879 75:0.33684665 76:0.33684665 77:0.33684665 78:0.33684665 79:0.33684665 80:0.31673038 81:0.33684665 82:0.34113857 83:0.34113857 84:0.34113857 85:0.26267037 86:0.34113857 87:0.34113857 88:0.34113857 89:0.34113857 90:0.34113857 91:0.36669391 92:0.36669391 93:0.36669391 94:0.36669391 95:0.36669391 96:0.17255586 97:0.1702158 98:0.36669391 99:0.36669391 100:0.35701939 101:0.35701939 102:0.35701939 103:0.35701939 104:0.35701939 105:0.34950778 106:0.35701939 107:0.22923982 108:0.24600075 109:0.26223052 110:0.19444805 111:0.36802128 112:0.36802128 113:0.36802128 114:0.36802128 115:0.36802128 116:0.35846031 117:0.29619756 118:0.12613867 119:0.073553652 120:0.30941662 121:0.45227864 122:0.45227864 123:0.45227864 124:0.45227864 125:0.2282948 126:0.11223968 127:0.35704717 128:0.35704717 129:0.27536693 130:0.17830944 131:0.35704717 132:0.35704717 133:0.35704717 134:0.35704717 135:0.35704717 136:0.37550852 137:0.37550852 138:0.37550852 139:0.37550852 140:0.28061777 141:0.10494106 142:0.25337952 143:0.37550852 144:0.37550852 145:0.42516875 146:0.42516875 147:0.42516875 148:0.32980442 149:0.25556818 150:0.12526968 151:0.11346336 152:0.27253196 153:0.42516875 154:0.35007694 155:0.35007694 156:0.35007694 157:0.31205451 158:0.35007694 159:0.29445896 160:0.28388861 161:0.35007694 162:0.35007694 163:0.26971966 164:0.3200129 165:0.29771191 166:0.30789766 167:0.35816467 168:0.35816467 169:0.35816467 170:0.35816467 171:0.35816467 172:0.33333331 173:0.33333331 174:0.33333331 175:0.33333331 176:0.33333331 177:0.33333331 178:0.33333331 179:0.33333331 180:0.33333331 181:0.39710838 182:0.39710838 183:0.39710838 184:0.21097794 185:0.22511403 186:0.071740136 187:0.33345178 188:0.39710838 189:0.39710838 190:0.441699 191:0.441699 192:0.441699 193:0.441699 194:0.38114309 195:0.12088796 196:0.079907335 197:0.088106252 198:0.21348588 199:0.40635088 200:0.41744515 201:0.41744515 202:0.41744515 203:0.41744515 204:0.16977891 205:0.12345421 206:0.10724188 207:0.28682849 208:0.21329403 209:0.12312383 210:0.31787011 211:0.37761214 212:0.37761214 213:0.37761214 214:0.37761214 215:0.37761214 216:0.35404795 217:0.33682522 218:0.33682522 219:0.33682522 220:0.30395743 221:0.33682522 222:0.33682522 223:0.33682522 224:0.33682522 225:0.33682522 
-1 1 1:0.4603976 2:0.35457435 3:0.32598731 4:0.22585002 5:0.36486131 6:0.1020027 7:0.1642189 8:0.35010439 9:0.4603976 10:0.35631916 11:0.35631916 12:0.35631916 13:0.35631916 14:0.35631916 15:0.35631916 16:0.238791 17:0.23288471 18:0.35631916 19:0.43326092 20:0.43500832 21:0.43500832 22:0.43500832 23:0.43500832 24:0.13867368 25:0.094975919 26:0.0819121 27:0.14281327 28:0.30697104 29:0.26696333 30:0.34527412 31:0.34527412 32:0.34527412 33:0.34527412 34:0.34527412 35:0.34527412 36:0.34527412 37:0.40666196 38:0.062849142 39:0.052394114 40:0.032574851 41:0.40666196 42:0.40666196 43:0.40666196 44:0.40666196 45:0.40666196 46:0.53776205 47:0.22385472 48:0.28043342 49:0.19681735 50:0.37876388 51:0.19064 52:0.18632537 53:0.19902329 54:0.53776205 55:0.41908288 56:0.4216806 57:0.4216806 58:0.4216806 59:0.4207772 60:0.081800774 61:0.093880862 62:0.16272891 63:0.26811734 64:0.2476918 65:0.42019904 66:0.42019904 67:0.42019904 68:0.42019904 69:0.35373771 70:0.22866705 71:0.1095315 72:0.20727712 73:0.17224775 74:0.17067277 75:0.15736067 76:0.46786785 77:0.46786785 78:0.46786785 79:0.37067652 80:0.25108406 81:0.24350348 82:0.21366163 83:0.082169302 84:0.10723228 85:0.04939729 86:0.31083927 87:0.45744866 88:0.45744866 89:0.45744866 90:0.45744866 91:0.33401388 92:0.33401388 93:0.33401388 94:0.33401388 95:0.33401388 96:0.32783818 97:0.33401388 98:0.33401388 99:0.33401388 100:0.41935179 101:0.41935179 102:0.41935179 103:0.41935179 104:0.41935179 105:0.14714853 106:0.13688245 107:0.22485411 108:0.17254443 109:0.10377509 110:0.45876512 111:0.45876512 112:0.45876512 113:0.45876512 114:0.22525601 115:0.25186333 116:0.12769257 117:0.12995446 118:0.28468153 119:0.19593954 120:0.23000039 121:0.37140813 122:0.37140813 123:0.37140813 124:0.37140813 125:0.37140813 126:0.37140813 127:0.31625426 128:0.0847238 129:0.18070994 130:0.075736307 131:0.41337949 132:0.41337949 133:0.41337949 134:0.41337949 135:0.41337949 136:0.46252033 137:0.46252033 138:0.43996876 139:0.2265341 140:0.17631829 141:0.12236929 142:0.08837375 143:0.24384885 144:0.46252033 145:0.41590866 146:0.44715327 147:0.44715327 148:0.44715327 149:0.31832829 150:0.082501285 151:0.15969998 152:0.15800083 153:0.26186675 154:0.22479436 155:0.40423831 156:0.40423831 157:0.40423831 158:0.40423831 159:0.40423831 160:0.23265335 161:0.17901935 162:0.21505576 163:0.24842915 164:0.34571579 165:0.28523767 166:0.38307297 167:0.38307297 168:0.38307297 169:0.38307297 170:0.26519164 171:0.28301379 172:0.33333331 173:0.33333331 174:0.33333331 175:0.33333331 176:0.33333331 177:0.33333331 178:0.33333331 179:0.33333331 180:0.33333331 
-1 1 1:0.26358765 2:0.54299182 3:0.54299182 4:0.53547472 5:0.15514576 6:0.043238096 7:0.047911424 8:0.059938639 9:0.14926565 10:0.2835404 11:0.50875884 12:0.50875884 13:0.50875884 14:0.31184122 15:0.074004367 16:0.11772294 17:0.074444063 18:0.14483114 19:0.37738523 20:0.37738523 21:0.37738523 22:0.37738523 23:0.37738523 24:0.29998899 25:0.20726909 26:0.2245401 27:0.32331073 28:0.43542421 29:0.43542421 30:0.43542421 31:0.43542421 32:0.33379951 33:0.1760698 34:0.17498636 35:0.15197304 36:0.21327093 37:0.34612355 38:0.34612355 39:0.34612355 40:0.34612355 41:0.34612355 42:0.30969867 43:0.25588319 44:0.34612355 45:0.34612355 46:0.24177609 47:0.53880149 48:0.53880149 49:0.53880149 50:0.17552765 51:0.10728937 52:0.096426733 53:0.065293483 54:0.12141135 55:0.28508669 56:0.44640109 57:0.44640109 58:0.44640109 59:0.44640109 60:0.20234923 61:0.16661693 62:0.12214228 63:0.19494751 64:0.35280287 65:0.4062956 66:0.4062956 67:0.4062956 68:0.4062956 69:0.35999343 70:0.11706531 71:0.12771633 72:0.23582776 73:0.41236189 74:0.41236189 75:0.41236189 76:0.41236189 77:0.41236189 78:0.18544768 79:0.079193711 80:0.15039843 81:0.29411942 82:0.33333331 83:0.33333331 84:0.33333331 85:0.33333331 86:0.33333331 87:0.33333331 88:0.33333331 89:0.33333331 90:0.33333331 91:0.21911718 92:0.5510512 93:0.5510512 94:0.5510512 95:0.17243846 96:0.061840829 97:0.053032871 98:0.022294093 99:0.064393446 100:0.19384427 101:0.47799078 102:0.47799078 103:0.47799078 104:0.40654251 105:0.14101388 106:0.133283 107:0.1438141 108:0.23106353 109:0.36077592 110:0.42582187 111:0.42582187 112:0.42582187 113:0.42582187 114:0.27229658 115:0.1946982 116:0.13763098 117:0.11639828 118:0.43029726 119:0.43029726 120:0.43029726 121:0.43029726 122:0.32793596 123:0.13746913 124:0.14550646 125:0.12434721 126:0.31032732 127:0.3265087 128:0.35924429 129:0.35924429 130:0.35924429 131:0.35924429 132:0.35924429 133:0.3456668 134:0.26385397 135:0.24291027 136:0.16730726 137:0.56356108 138:0.56356108 139:0.51254046 140:0.24610046 141:0.070785306 142:0.031099349 143:0.034357022 144:0.079905316 145:0.19580713 146:0.5004524 147:0.5004524 148:0.5004524 149:0.39925423 150:0.092868224 151:0.060974676 152:0.09472248 153:0.17199777 154:0.35705882 155:0.35705882 156:0.35705882 157:0.35705882 158:0.35705882 159:0.35705882 160:0.27022108 161:0.18585892 162:0.35705882 163:0.4153375 164:0.4153375 165:0.4153375 166:0.4153375 167:0.4153375 168:0.21872184 169:0.078860238 170:0.090131015 171:0.27439398 172:0.34702027 173:0.34702027 174:0.34702027 175:0.34702027 176:0.34702027 177:0.2753391 178:0.28500354 179:0.34702027 180:0.34702027 181:0.3964805 182:0.54918599 183:0.54918599 184:0.39302862 185:0.20099683 186:0.04454872 187:0.043634582 188:0.11853641 189:0.16365257 190:0.25214794 191:0.42594975 192:0.45543376 193:0.45543376 194:0.45543376 195:0.20856391 196:0.13670798 197:0.19914097 198:0.1757365 199:0.32915363 200:0.41123506 201:0.41123506 202:0.41123506 203:0.41123506 204:0.29871318 205:0.26094043 206:0.14189364 207:0.19428712 208:0.42382962 209:0.42382962 210:0.42382962 211:0.42382962 212:0.39319217 213:0.15578143 214:0.16796967 215:0.15955113 216:0.22121401 217:0.34146813 218:0.34146813 219:0.34146813 220:0.25922251 221:0.34146813 222:0.34146813 223:0.34146813 224:0.34146813 225:0.34146813 
-1 1 1:0.44345221 2:0.44345221 3:0.3040956 4:0.31761453 5:0.22787553 6:0.14241502 7:0.10599488 8:0.36503845 9:0.44345221 10:0.43770012 11:0.43770012 12:0.43770012 13:0.32546985 14:0.28167307 15:0.14205739 16:0.076512903 17:0.14956497 18:0.43770012 19:0.34485039 20:0.34485039 21:0.34485039 22:0.34485039 23:0.34485039 24:0.22051218 25:0.34485039 26:0.34485039 27:0.34485039 28:0.33684665 29:0.3246879 30:0.33684665 31:0.33684665 32:0.33684665 33:0.33684665 34:0.33684665 35:0.31673038 36:0.33684665 37:0.34113857 38:0.34113857 39:0.34113857 40:0.26267037 41:0.34113857 42:0.34113857 43:0.34113857 44:0.34113857 45:0.34113857 46:0.48337221 47:0.48337221 48:0.32553339 49:0.17394811 50:0.27576154 51:0.081043288 52:0.11671977 53:0.25804642 54:0.48337221 55:0.41005388 56:0.41005388 57:0.41005388 58:0.41005388 59:0.29818267 60:0.084424898 61:0.050881173 62:0.2462717 63:0.41005388 64:0.33333331 65:0.33333331 66:0.33333331 67:0.33333331 68:0.33333331 69:0.33333331 70:0.33333331 71:0.33333331 72:0.33333331 73:0.33333331 74:0.33333331 75:0.33333331 76:0.33333331 77:0.33333331 78:0.33333331 79:0.33333331 80:0.33333331 81:0.33333331 82:0.33632353 83:0.33632353 84:0.33632353 85:0.33632353 86:0.33632353 87:0.30836976 88:0.33632353 89:0.33632353 90:0.33632353 91:0.36669391 92:0.36669391 93:0.36669391 94:0.36669391 95:0.36669391 96:0.17255586 97:0.1702158 98:0.36669391 99:0.36669391 100:0.35701939 101:0.35701939 102:0.35701939 103:0.35701939 104:0.35701939 105:0.34950778 106:0.35701939 107:0.22923982 108:0.24600075 109:0.26223052 110:0.19444805 111:0.36802128 112:0.36802128 113:0.36802128 114:0.36802128 115:0.36802128 116:0.35846031 117:0.29619756 118:0.12613867 119:0.073553652 120:0.30941662 121:0.45227864 122:0.45227864 123:0.45227864 124:0.45227864 125:0.2282948 126:0.11223968 127:0.35704717 128:0.35704717 129:0.27536693 130:0.17830944 131:0.35704717 132:0.35704717 133:0.35704717 134:0.35704717 135:0.35704717 136:0.39710838 137:0.39710838 138:0.39710838 139:0.21097794 140:0.22511403 141:0.071740136 142:0.33345178 143:0.39710838 144:0.39710838 145:0.441699 146:0.441699 147:0.441699 148:0.441699 149:0.38114309 150:0.12088796 151:0.079907335 152:0.088106252 153:0.21348588 154:0.40635088 155:0.41744515 156:0.41744515 157:0.41744515 158:0.41744515 159:0.16977891 160:0.12345421 161:0.10724188 162:0.28682849 163:0.21329403 164:0.12312383 165:0.31787011 166:0.37761214 167:0.37761214 168:0.37761214 169:0.37761214 170:0.37761214 171:0.35404795 172:0.33682522 173:0.33682522 174:0.33682522 175:0.30395743 176:0.33682522 177:0.33682522 178:0.33682522 179:0.33682522 180:0.33682522 181:0.37550852 182:0.37550852 183:0.37550852 184:0.37550852 185:0.28061777 186:0.10494106 187:0.25337952 188:0.37550852 189:0.37550852 190:0.42516875 191:0.42516875 192:0.42516875 193:0.32980442 194:0.25556818 195:0.12526968 196:0.11346336 197:0.27253196 198:0.42516875 199:0.35007694 200:0.35007694 201:0.35007694 202:0.31205451 203:0.35007694 204:0.29445896 205:0.28388861 206:0.35007694 207:0.35007694 208:0.26971966 209:0.3200129 210:0.29771191 211:0.30789766 212:0.35816467 213:0.35816467 214:0.35816467 215:0.35816467 216:0.35816467 217:0.33333331 218:0.33333331 219:0.33333331 220:0.33333331 221:0.33333331 222:0.33333331 223:0.33333331 224:0.33333331 225:0.33333331 
-1 1 1:0.344634 2:0.344634 3:0.344634 4:0.344634 5:0.22320221 6:0.344634 7:0.344634 8:0.344634 9:0.344634 10:0.076303482 11:0.54841834 12:0.54841834 13:0.54841834 14:0.2705943 15:0.067869782 16:0.033748668 17:0.064294785 18:0.093752436 19:0.021024482 20:0.027117534 21:0.14007911 22:0.66560984 23:0.66560984 24:0.30391771 25:0.012860732 26:0.013907104 27:0.0200649 28:0.019319108 29:0.016402792 30:0.085554674 31:0.14118923 32:0.66001701 33:0.66001701 34:0.31560251 35:0.029237287 36:0.019976979 37:0.10972515 38:0.0712405 39:0.042294916 40:0.037281897 41:0.18120454 42:0.46515247 43:0.5072692 44:0.5072692 45:0.46460769 46:0.35581374 47:0.33679706 48:0.35581374 49:0.35581374 50:0.35581374 51:0.30436042 52:0.1852352 53:0.35581374 54:0.35581374 55:0.27853903 56:0.54897594 57:0.54897594 58:0.54897594 59:0.11574526 60:0.043870263 61:0.0097761648 62:0.020932579 63:0.049365293 64:0.038821399 65:0.042431347 66:0.21821919 67:0.53030318 68:0.53030318 69:0.53030318 70:0.30507037 71:0.090091676 72:0.064993054 73:0.023276417 74:0.013442597 75:0.060165126 76:0.31726289 77:0.54472554 78:0.54472554 79:0.54472554 80:0.05141842 81:0.046692867 82:0.37426123 83:0.305206 84:0.37426123 85:0.26591685 86:0.26124603 87:0.25986665 88:0.37426123 89:0.37426123 90:0.37426123 91:0.40774229 92:0.40774229 93:0.40774229 94:0.26328555 95:0.21987768 96:0.099756926 97:0.20276597 98:0.40774229 99:0.40774229 100:0.18369532 101:0.48250985 102:0.48250985 103:0.48250985 104:0.48250985 105:0.13241345 106:0.052209534 107:0.034258131 108:0.11644882 109:0.027587473 110:0.095364869 111:0.19280533 112:0.59872073 113:0.59872073 114:0.48559228 115:0.006922977 116:0.0037930417 117:0.013238706 118:0.024511185 119:0.015790517 120:0.027159814 121:0.4065837 122:0.62421745 123:0.62421745 124:0.22913426 125:0.010370142 126:0.034600306 127:0.086655155 128:0.0025641925 129:0.0024146142 130:0.052462652 131:0.45968562 132:0.45968562 133:0.45968562 134:0.45968562 135:0.38010874 136:0.36673498 137:0.36673498 138:0.35177243 139:0.36673498 140:0.36673498 141:0.23664883 142:0.16044442 143:0.34933987 144:0.36673498 145:0.28738427 146:0.54500544 147:0.54500544 148:0.54500544 149:0.14851302 150:0.025232928 151:0.013312264 152:0.018325189 153:0.055783041 154:0.036858167 155:0.023881292 156:0.20856611 157:0.54355669 158:0.54355669 159:0.54355669 160:0.24476399 161:0.076850556 162:0.048932534 163:0.026927833 164:0.015101342 165:0.10771637 166:0.30725312 167:0.53791368 168:0.53791368 169:0.53791368 170:0.15652338 171:0.022062613 172:0.41676933 173:0.31112817 174:0.17418942 175:0.1349656 176:0.30341718 177:0.26037091 178:0.41676933 179:0.41676933 180:0.41676933 181:0.46385247 182:0.46385247 183:0.46385247 184:0.24734057 185:0.18303035 186:0.063096069 187:0.099346377 188:0.17559929 189:0.46385247 190:0.45475706 191:0.54392332 192:0.54392332 193:0.4035691 194:0.078455903 195:0.036786921 196:0.053651944 197:0.085286386 198:0.14478269 199:0.13713209 200:0.095513932 201:0.31303921 202:0.52582729 203:0.52582729 204:0.52582729 205:0.18154994 206:0.071054094 207:0.08115492 208:0.10341305 209:0.084786683 210:0.033851996 211:0.12618195 212:0.54350352 213:0.54350352 214:0.54350352 215:0.1977087 216:0.1994295 217:0.42709845 218:0.23470497 219:0.20448551 220:0.10076781 221:0.17761552 222:0.36296758 223:0.42709845 224:0.42709845 225:0.42709845 
-1 1 1:0.35395119 2:0.35395119 3:0.35395119 4:0.32944602 5:0.34438109 6:0.26008269 7:0.28074297 8:0.35395119 9:0.35395119 10:0.54019672 11:0.54753548 12:0.54753548 13:0.30816227 14:0.07280793 15:0.013910076 16:0.0169219 17:0.0066599348 18:0.088364393 19:0.022668188 20:0.016841395 21:0.12533744 22:0.53824741 23:0.53824741 24:0.53824741 25:0.33451408 26:0.040998578 27:0.027961664 28:0.028264891 29:0.030423641 30:0.042299744 31:0.12769011 32:0.56964839 33:0.56964839 34:0.56964839 35:0.071899466 36:0.038912266 37:0.40292257 38:0.40292257 39:0.27579233 40:0.12399577 41:0.15754135 42:0.2683495 43:0.40292257 44:0.40292257 45:0.40292257 46:0.38707319 47:0.38707319 48:0.38707319 49:0.2999236 50:0.23098998 51:0.10463098 52:0.31082729 53:0.38707319 54:0.38707319 55:0.23046909 56:0.55640233 57:0.55640233 58:0.55640233 59:0.1216357 60:0.023741016 61:0.014699258 62:0.020284303 63:0.046334241 64:0.056541029 65:0.018212823 66:0.15767187 67:0.52400184 68:0.52400184 69:0.52400184 70:0.36439428 71:0.11152243 72:0.051543213 73:0.015529909 74:0.011855087 75:0.028245203 76:0.2777797 77:0.55417883 78:0.55417883 79:0.55417883 80:0.0098304395 81:0.014819188 82:0.38267207 83:0.37410623 84:0.24722061 85:0.070478581 86:0.28293684 87:0.38267207 88:0.35798657 89:0.38267207 90:0.38267207 91:0.41055739 92:0.41055739 93:0.41055739 94:0.29108405 95:0.34368712 96:0.15135147 97:0.11362386 98:0.29513082 99:0.41055739 100:0.34042823 101:0.53396016 102:0.53396016 103:0.53396016 104:0.14413457 105:0.027882332 106:0.021396808 107:0.017911335 108:0.080232464 109:0.015265929 110:0.019311201 111:0.069041416 112:0.5635227 113:0.5635227 114:0.5635227 115:0.18840359 116:0.077925175 117:0.019637039 118:0.026779074 119:0.0076976498 120:0.036955867 121:0.24239127 122:0.62034231 123:0.62034231 124:0.40604794 125:0.063958496 126:0.022127865 127:0.39209282 128:0.38032842 129:0.19741862 130:0.14084357 131:0.32748076 132:0.27266905 133:0.39209282 134:0.39209282 135:0.39209282 136:0.46815813 137:0.46815813 138:0.46815813 139:0.1758737 140:0.19702926 141:0.051193532 142:0.053655691 143:0.21922612 144:0.46815813 145:0.076919056 146:0.3370831 147:0.59037256 148:0.59037256 149:0.41919199 150:0.046275742 151:0.011517516 152:0.0131478 153:0.072179668 154:0.048658106 155:0.062686928 156:0.11165066 157:0.61013293 158:0.65552646 159:0.42073885 160:0.02242313 161:0.011874277 162:0.039936088 163:0.021528967 164:0.0039978996 165:0.074371584 166:0.28282195 167:0.67315382 168:0.67315382 169:0.08587943 170:0.0028582111 171:0.018589066 172:0.047016822 173:0.014883419 174:0.00075936608 175:0.022112418 176:0.33190349 177:0.51861238 178:0.51861238 179:0.51861238 180:0.28291687 181:0.38212422 182:0.38212422 183:0.34452564 184:0.15811034 185:0.38212422 186:0.25002757 187:0.2523784 188:0.38212422 189:0.38212422 190:0.14594269 191:0.59868574 192:0.59868574 193:0.45490581 194:0.22513834 195:0.014854632 196:0.0045964383 197:0.017317327 198:0.060689729 199:0.082195297 200:0.05327582 201:0.090512685 202:0.57074243 203:0.57074243 204:0.57074243 205:0.060702559 206:0.022143282 207:0.028235491 208:0.028476577 209:0.037980199 210:0.096574701 211:0.25737801 212:0.55369145 213:0.55369145 214:0.55369145 215:0.038218141 216:0.031516522 217:0.20911102 218:0.047985088 219:0.041083593 220:0.040302075 221:0.25458789 222:0.36017752 223:0.50203425 224:0.50203425 225:0.50203425 
-1 1 1:0.34197974 2:0.34197974 3:0.34197974 4:0.34197974 5:0.34197974 6:0.25376931 7:0.34197974 8:0.34197974 9:0.34197974 10:0.45722222 11:0.45722222 12:0.45722222 13:0.45722222 14:0.37312394 15:0.023296943 16:0.025011949 17:0.013619009 18:0.15236808 19:0.016313542 20:0.0036016975 21:0.076453 22:0.49243414 23:0.49243414 24:0.49243414 25:0.4796505 26:0.18800837 27:0.031462405 28:0.040071182 29:0.023534235 30:0.038366955 31:0.2812376 32:0.55215573 33:0.55215573 34:0.55215573 35:0.036977056 36:0.035758663 37:0.35333622 38:0.18266855 39:0.18979116 40:0.18705572 41:0.23874255 42:0.3899653 43:0.48182786 44:0.48182786 45:0.31207052 46:0.38130128 47:0.38130128 48:0.38130128 49:0.38130128 50:0.38130128 51:0.19358216 52:0.19078879 53:0.23190832 54:0.38130128 55:0.48246554 56:0.48246554 57:0.48246554 58:0.48246554 59:0.22227333 60:0.050593693 61:0.039377239 62:0.014040427 63:0.12326878 64:0.031219486 65:0.014514907 66:0.059549127 67:0.49587485 68:0.49587485 69:0.49587485 70:0.48244274 71:0.15570876 72:0.024427716 73:0.045286316 74:0.0452305 75:0.054694314 76:0.38856393 77:0.52688962 78:0.52688962 79:0.52688962 80:0.077660732 81:0.055322707 82:0.38219601 83:0.23255068 84:0.1982623 85:0.1044713 86:0.31836924 87:0.4025746 88:0.4025746 89:0.4025746 90:0.4025746 91:0.34690195 92:0.34690195 93:0.34690195 94:0.34690195 95:0.34690195 96:0.19306022 97:0.34690195 98:0.34690195 99:0.34690195 100:0.3909595 101:0.50674826 102:0.50674826 103:0.50674826 104:0.26205099 105:0.043491907 106:0.019125465 107:0.026919298 108:0.071529478 109:0.011729906 110:0.021840591 111:0.13225468 112:0.49200112 113:0.49200112 114:0.49200112 115:0.49200112 116:0.11570974 117:0.01565305 118:0.050968572 119:0.034772124 120:0.033625979 121:0.2426724 122:0.54879832 123:0.54879832 124:0.54879832 125:0.17043285 126:0.059884924 127:0.33146533 128:0.27575341 129:0.096122108 130:0.13750112 131:0.36240759 132:0.40453845 133:0.40453845 134:0.40453845 135:0.40453845 136:0.40244749 137:0.40244749 138:0.40244749 139:0.38780484 140:0.2972796 141:0.10486419 142:0.13798393 143:0.3128522 144:0.38396317 145:0.20529583 146:0.50354069 147:0.50354069 148:0.50354069 149:0.38849425 150:0.17095248 151:0.10024227 152:0.03326644 153:0.076721586 154:0.014333267 155:0.02176182 156:0.19872966 157:0.55986387 158:0.55986387 159:0.55986387 160:0.13753413 161:0.0061982814 162:0.023037851 163:0.016207665 164:0.0034153739 165:0.057578772 166:0.32070893 167:0.61019742 168:0.61019742 169:0.38359788 170:0.036645558 171:0.019601943 172:0.25350505 173:0.010488831 174:0.01406023 175:0.038548321 176:0.41146898 177:0.45350668 178:0.45350668 179:0.45350668 180:0.38422641 181:0.36909813 182:0.36909813 183:0.36909813 184:0.36909813 185:0.36022007 186:0.14159943 187:0.18108146 188:0.36909813 189:0.36909813 190:0.35516629 191:0.5005132 192:0.5005132 193:0.5005132 194:0.29633695 195:0.081565998 196:0.030008916 197:0.081520125 198:0.14248522 199:0.012142435 200:0.0038641409 201:0.067444272 202:0.57480836 203:0.57480836 204:0.57480836 205:0.061487991 206:0.0039730477 207:0.016689787 208:0.014459433 209:0.0058393464 210:0.020696564 211:0.072737046 212:0.57334989 213:0.57334989 214:0.57334989 215:0.086515293 216:0.019041643 217:0.40112114 218:0.098123714 219:0.02750073 220:0.04794478 221:0.2615664 222:0.43531644 223:0.43531644 224:0.43531644 225:0.43531644 
-1 1 1:0.38707319 2:0.38707319 3:0.38707319 4:0.2999236 5:0.23098998 6:0.10463098 7:0.31082729 8:0.38707319 9:0.38707319 10:0.23046909 11:0.55640233 12:0.55640233 13:0.55640233 14:0.1216357 15:0.023741016 16:0.014699258 17:0.020284303 18:0.046334241 19:0.056541029 20:0.018212823 21:0.15767187 22:0.52400184 23:0.52400184 24:0.52400184 25:0.36439428 26:0.11152243 27:0.051543213 28:0.015529909 29:0.011855087 30:0.028245203 31:0.2777797 32:0.55417883 33:0.55417883 34:0.55417883 35:0.0098304395 36:0.014819188 37:0.38267207 38:0.37410623 39:0.24722061 40:0.070478581 41:0.28293684 42:0.38267207 43:0.35798657 44:0.38267207 45:0.38267207 46:0.35395119 47:0.35395119 48:0.35395119 49:0.32944602 50:0.34438109 51:0.26008269 52:0.28074297 53:0.35395119 54:0.35395119 55:0.54019672 56:0.54753548 57:0.54753548 58:0.30816227 59:0.07280793 60:0.013910076 61:0.0169219 62:0.0066599348 63:0.088364393 64:0.022668188 65:0.016841395 66:0.12533744 67:0.53824741 68:0.53824741 69:0.53824741 70:0.33451408 71:0.040998578 72:0.027961664 73:0.028264891 74:0.030423641 75:0.042299744 76:0.12769011 77:0.56964839 78:0.56964839 79:0.56964839 80:0.071899466 81:0.038912266 82:0.40292257 83:0.40292257 84:0.27579233 85:0.12399577 86:0.15754135 87:0.2683495 88:0.40292257 89:0.40292257 90:0.40292257 91:0.46815813 92:0.46815813 93:0.46815813 94:0.1758737 95:0.19702926 96:0.051193532 97:0.053655691 98:0.21922612 99:0.46815813 100:0.076919056 101:0.3370831 102:0.59037256 103:0.59037256 104:0.41919199 105:0.046275742 106:0.011517516 107:0.0131478 108:0.072179668 109:0.048658106 110:0.062686928 111:0.11165066 112:0.61013293 113:0.65552646 114:0.42073885 115:0.02242313 116:0.011874277 117:0.039936088 118:0.021528967 119:0.0039978996 120:0.074371584 121:0.28282195 122:0.67315382 123:0.67315382 124:0.08587943 125:0.0028582111 126:0.018589066 127:0.047016822 128:0.014883419 129:0.00075936608 130:0.022112418 131:0.33190349 132:0.51861238 133:0.51861238 134:0.51861238 135:0.28291687 136:0.38212422 137:0.38212422 138:0.34452564 139:0.15811034 140:0.38212422 141:0.25002757 142:0.2523784 143:0.38212422 144:0.38212422 145:0.14594269 146:0.59868574 147:0.59868574 148:0.45490581 149:0.22513834 150:0.014854632 151:0.0045964383 152:0.017317327 153:0.060689729 154:0.082195297 155:0.05327582 156:0.090512685 157:0.57074243 158:0.57074243 159:0.57074243 160:0.060702559 161:0.022143282 162:0.028235491 163:0.028476577 164:0.037980199 165:0.096574701 166:0.25737801 167:0.55369145 168:0.55369145 169:0.55369145 170:0.038218141 171:0.031516522 172:0.20911102 173:0.047985088 174:0.041083593 175:0.040302075 176:0.25458789 177:0.36017752 178:0.50203425 179:0.50203425 180:0.50203425 181:0.41055739 182:0.41055739 183:0.41055739 184:0.29108405 185:0.34368712 186:0.15135147 187:0.11362386 188:0.29513082 189:0.41055739 190:0.34042823 191:0.53396016 192:0.53396016 193:0.53396016 194:0.14413457 195:0.027882332 196:0.021396808 197:0.017911335 198:0.080232464 199:0.015265929 200:0.019311201 201:0.069041416 202:0.5635227 203:0.5635227 204:0.5635227 205:0.18840359 206:0.077925175 207:0.019637039 208:0.026779074 209:0.0076976498 210:0.036955867 211:0.24239127 212:0.62034231 213:0.62034231 214:0.40604794 215:0.063958496 216:0.022127865 217:0.39209282 218:0.38032842 219:0.19741862 220:0.14084357 221:0.32748076 222:0.27266905 223:0.39209282 224:0.39209282 225:0.39209282 
-1 1 1:0.35395119 2:0.35395119 3:0.35395119 4:0.32944602 5:0.34438109 6:0.26008269 7:0.28074297 8:0.35395119 9:0.35395119 10:0.54019672 11:0.54753548 12:0.54753548 13:0.30816227 14:0.07280793 15:0.013910076 16:0.0169219 17:0.0066599348 18:0.088364393 19:0.022668188 20:0.016841395 21:0.12533744 22:0.53824741 23:0.53824741 24:0.53824741 25:0.33451408 26:0.040998578 27:0.027961664 28:0.028264891 29:0.030423641 30:0.042299744 31:0.12769011 32:0.56964839 33:0.56964839 34:0.56964839 35:0.071899466 36:0.038912266 37:0.40292257 38:0.40292257 39:0.27579233 40:0.12399577 41:0.15754135 42:0.2683495 43:0.40292257 44:0.40292257 45:0.40292257 46:0.38707319 47:0.38707319 48:0.38707319 49:0.2999236 50:0.23098998 51:0.10463098 52:0.31082729 53:0.38707319 54:0.38707319 55:0.23046909 56:0.55640233 57:0.55640233 58:0.55640233 59:0.1216357 60:0.023741016 61:0.014699258 62:0.020284303 63:0.046334241 64:0.056541029 65:0.018212823 66:0.15767187 67:0.52400184 68:0.52400184 69:0.52400184 70:0.36439428 71:0.11152243 72:0.051543213 73:0.015529909 74:0.011855087 75:0.028245203 76:0.2777797 77:0.55417883 78:0.55417883 79:0.55417883 80:0.0098304395 81:0.014819188 82:0.38267207 83:0.37410623 84:0.24722061 85:0.070478581 86:0.28293684 87:0.38267207 88:0.35798657 89:0.38267207 90:0.38267207 91:0.46815813 92:0.46815813 93:0.46815813 94:0.1758737 95:0.19702926 96:0.051193532 97:0.053655691 98:0.21922612 99:0.46815813 100:0.076919056 101:0.3370831 102:0.59037256 103:0.59037256 104:0.41919199 105:0.046275742 106:0.011517516 107:0.0131478 108:0.072179668 109:0.048658106 110:0.062686928 111:0.11165066 112:0.61013293 113:0.65552646 114:0.42073885 115:0.02242313 116:0.011874277 117:0.039936088 118:0.021528967 119:0.0039978996 120:0.074371584 121:0.28282195 122:0.67315382 123:0.67315382 124:0.08587943 125:0.0028582111 126:0.018589066 127:0.047016822 128:0.014883419 129:0.00075936608 130:0.022112418 131:0.33190349 132:0.51861238 133:0.51861238 134:0.51861238 135:0.28291687 136:0.38212422 137:0.38212422 138:0.34452564 139:0.15811034 140:0.38212422 141:0.25002757 142:0.2523784 143:0.38212422 144:0.38212422 145:0.14594269 146:0.59868574 147:0.59868574 148:0.45490581 149:0.22513834 150:0.014854632 151:0.0045964383 152:0.017317327 153:0.060689729 154:0.082195297 155:0.05327582 156:0.090512685 157:0.57074243 158:0.57074243 159:0.57074243 160:0.060702559 161:0.022143282 162:0.028235491 163:0.028476577 164:0.037980199 165:0.096574701 166:0.25737801 167:0.55369145 168:0.55369145 169:0.55369145 170:0.038218141 171:0.031516522 172:0.20911102 173:0.047985088 174:0.041083593 175:0.040302075 176:0.25458789 177:0.36017752 178:0.50203425 179:0.50203425 180:0.50203425 181:0.41055739 182:0.41055739 183:0.41055739 184:0.29108405 185:0.34368712 186:0.15135147 187:0.11362386 188:0.29513082 189:0.41055739 190:0.34042823 191:0.53396016 192:0.53396016 193:0.53396016 194:0.14413457 195:0.027882332 196:0.021396808 197:0.017911335 198:0.080232464 199:0.015265929 200:0.019311201 201:0.069041416 202:0.5635227 203:0.5635227 204:0.5635227 205:0.18840359 206:0.077925175 207:0.019637039 208:0.026779074 209:0.0076976498 210:0.036955867 211:0.24239127 212:0.62034231 213:0.62034231 214:0.40604794 215:0.063958496 216:0.022127865 217:0.39209282 218:0.38032842 219:0.19741862 220:0.14084357 221:0.32748076 222:0.27266905 223:0.39209282 224:0.39209282 225:0.39209282 
-1 1 1:0.33333331 2:0.33333331 3:0.33333331 4:0.33333331 5:0.33333331 6:0.33333331 7:0.33333331 8:0.33333331 9:0.33333331 10:0.34624162 11:0.24853194 12:0.34624162 13:0.34624162 14:0.34624162 15:0.34624162 16:0.31472066 17:0.34624162 18:0.34624162 19:0.28659433 20:0.31618509 21:0.46239284 22:0.46239284 23:0.46239284 24:0.36504182 25:0.14199169 26:0.085575722 27:0.12541512 28:0.32433385 29:0.18701142 30:0.27548441 31:0.36907688 32:0.36907688 33:0.36907688 34:0.36907688 35:0.32070863 36:0.36907688 37:0.34444034 38:0.34444034 39:0.34444034 40:0.22558108 41:0.34444034 42:0.34444034 43:0.34444034 44:0.34444034 45:0.34444034 46:0.48431945 47:0.4246425 48:0.26959211 49:0.28275803 50:0.40106148 51:0.093499385 52:0.091638289 53:0.14115942 54:0.48431945 55:0.37228096 56:0.32934642 57:0.32085389 58:0.1740153 59:0.37228096 60:0.25561082 61:0.37228096 62:0.37228096 63:0.37228096 64:0.053564463 65:0.1288777 66:0.47862056 67:0.54181385 68:0.54181385 69:0.39434442 70:0.065384351 71:0.030428693 72:0.06008976 73:0.062823266 74:0.11686748 75:0.49464521 76:0.49464521 77:0.49464521 78:0.49464521 79:0.034229148 80:0.014498513 81:0.048144106 82:0.35266396 83:0.35266396 84:0.35266396 85:0.35266396 86:0.35266396 87:0.35266396 88:0.27472135 89:0.23221783 90:0.35266396 91:0.3612383 92:0.3612383 93:0.3612383 94:0.3612383 95:0.3612383 96:0.17187707 97:0.23876055 98:0.3612383 99:0.3612383 100:0.34891051 101:0.34891051 102:0.34891051 103:0.34891051 104:0.34891051 105:0.34891051 106:0.25532904 107:0.28746682 108:0.34891051 109:0.23434544 110:0.39939746 111:0.45185164 112:0.45185164 113:0.45185164 114:0.35504737 115:0.15220374 116:0.10100874 117:0.11673439 118:0.27555287 119:0.15426792 120:0.17533684 121:0.3806856 122:0.3806856 123:0.3806856 124:0.3806856 125:0.3806856 126:0.3806856 127:0.33333331 128:0.33333331 129:0.33333331 130:0.33333331 131:0.33333331 132:0.33333331 133:0.33333331 134:0.33333331 135:0.33333331 136:0.34419671 137:0.34419671 138:0.34419671 139:0.34419671 140:0.34419671 141:0.25248474 142:0.32703519 143:0.34419671 144:0.34419671 145:0.38058612 146:0.24852148 147:0.38058612 148:0.38058612 149:0.38058612 150:0.38058612 151:0.38058612 152:0.19288063 153:0.17877162 154:0.14987732 155:0.45550063 156:0.33346993 157:0.47632146 158:0.47632146 159:0.32567969 160:0.20857826 161:0.18359129 162:0.14768742 163:0.36701116 164:0.21738233 165:0.24519779 166:0.29058513 167:0.36701116 168:0.36701116 169:0.36701116 170:0.36701116 171:0.36701116 172:0.33480027 173:0.33480027 174:0.33480027 175:0.3213571 176:0.33480027 177:0.33480027 178:0.33480027 179:0.33480027 180:0.33480027 
-1 1 1:0.35395119 2:0.35395119 3:0.35395119 4:0.32944602 5:0.34438109 6:0.26008269 7:0.28074297 8:0.35395119 9:0.35395119 10:0.54019672 11:0.54753548 12:0.54753548 13:0.30816227 14:0.07280793 15:0.013910076 16:0.0169219 17:0.0066599348 18:0.088364393 19:0.022668188 20:0.016841395 21:0.12533744 22:0.53824741 23:0.53824741 24:0.53824741 25:0.33451408 26:0.040998578 27:0.027961664 28:0.028264891 29:0.030423641 30:0.042299744 31:0.12769011 32:0.56964839 33:0.56964839 34:0.56964839 35:0.071899466 36:0.038912266 37:0.40292257 38:0.40292257 39:0.27579233 40:0.12399577 41:0.15754135 42:0.2683495 43:0.40292257 44:0.40292257 45:0.40292257 46:0.38707319 47:0.38707319 48:0.38707319 49:0.2999236 50:0.23098998 51:0.10463098 52:0.31082729 53:0.38707319 54:0.38707319 55:0.23046909 56:0.55640233 57:0.55640233 58:0.55640233 59:0.1216357 60:0.023741016 61:0.014699258 62:0.020284303 63:0.046334241 64:0.056541029 65:0.018212823 66:0.15767187 67:0.52400184 68:0.52400184 69:0.52400184 70:0.36439428 71:0.11152243 72:0.051543213 73:0.015529909 74:0.011855087 75:0.028245203 76:0.2777797 77:0.55417883 78:0.55417883 79:0.55417883 80:0.0098304395 81:0.014819188 82:0.38267207 83:0.37410623 84:0.24722061 85:0.070478581 86:0.28293684 87:0.38267207 88:0.35798657 89:0.38267207 90:0.38267207 91:0.46815813 92:0.46815813 93:0.46815813 94:0.1758737 95:0.19702926 96:0.051193532 97:0.053655691 98:0.21922612 99:0.46815813 100:0.076919056 101:0.3370831 102:0.59037256 103:0.59037256 104:0.41919199 105:0.046275742 106:0.011517516 107:0.0131478 108:0.072179668 109:0.048658106 110:0.062686928 111:0.11165066 112:0.61013293 113:0.65552646 114:0.42073885 115:0.02242313 116:0.011874277 117:0.039936088 118:0.021528967 119:0.0039978996 120:0.074371584 121:0.28282195 122:0.67315382 123:0.67315382 124:0.08587943 125:0.0028582111 126:0.018589066 127:0.047016822 128:0.014883419 129:0.00075936608 130:0.022112418 131:0.33190349 132:0.51861238 133:0.51861238 134:0.51861238 135:0.28291687 136:0.38212422 137:0.38212422 138:0.34452564 139:0.15811034 140:0.38212422 141:0.25002757 142:0.2523784 143:0.38212422 144:0.38212422 145:0.14594269 146:0.59868574 147:0.59868574 148:0.45490581 149:0.22513834 150:0.014854632 151:0.0045964383 152:0.017317327 153:0.060689729 154:0.082195297 155:0.05327582 156:0.090512685 157:0.57074243 158:0.57074243 159:0.57074243 160:0.060702559 161:0.022143282 162:0.028235491 163:0.028476577 164:0.037980199 165:0.096574701 166:0.25737801 167:0.55369145 168:0.55369145 169:0.55369145 170:0.038218141 171:0.031516522 172:0.20911102 173:0.047985088 174:0.041083593 175:0.040302075 176:0.25458789 177:0.36017752 178:0.50203425 179:0.50203425 180:0.50203425 181:0.41055739 182:0.41055739 183:0.41055739 184:0.29108405 185:0.34368712 186:0.15135147 187:0.11362386 188:0.29513082 189:0.41055739 190:0.34042823 191:0.53396016 192:0.53396016 193:0.53396016 194:0.14413457 195:0.027882332 196:0.021396808 197:0.017911335 198:0.080232464 199:0.015265929 200:0.019311201 201:0.069041416 202:0.5635227 203:0.5635227 204:0.5635227 205:0.18840359 206:0.077925175 207:0.019637039 208:0.026779074 209:0.0076976498 210:0.036955867 211:0.24239127 212:0.62034231 213:0.62034231 214:0.40604794 215:0.063958496 216:0.022127865 217:0.39209282 218:0.38032842 219:0.19741862 220:0.14084357 221:0.32748076 222:0.27266905 223:0.39209282 224:0.39209282 225:0.39209282 
